/**
  ******************************************************************************
  * @file    weights/fc.cc
  * @author  Pierre-Emmanuel Novac <penovac@unice.fr>, LEAT, CNRS, Université Côte d'Azur, France
  * @version 1.0.0
  * @date    24 march 2020
  * @brief   Template generating plain C code for the implementation of Convolutional Neural Networks on MCU
  */

#include <stdint.h>

#define INPUT_SAMPLES 100
#define FC_UNITS 10


const int16_t dense_1_bias[FC_UNITS] = {193, 5, 55, 31, 1, -293, -272, -119, 262, 62}
;

const int16_t dense_1_kernel[FC_UNITS][INPUT_SAMPLES] = {{154, 111, -384, -384, 136, -232, 104, -202, -243, -203, -56, -188, 8, -184, -246, -95, 56, -340, 77, -331, 121, -282, 75, 105, 105, -20, -172, -541, 94, -412, -245, 101, -183, -236, -118, -224, 140, 148, -327, -122, -158, -76, -296, -264, -247, -279, 60, 114, -375, -199, -175, -125, 230, 68, -372, -155, 101, 148, 60, 20, -385, 23, 149, -91, -270, 112, -95, -360, 122, -265, -127, -171, 73, 85, -468, 43, -456, -273, 191, -513, 95, -260, -114, 103, 69, -206, 155, 23, 79, -431, 94, 160, -295, 53, -226, -336, 151, -277, -199, 87}
, {-234, -162, 46, -341, 43, 66, -464, 39, 85, -373, -179, -175, 0, -271, -225, 60, -247, 149, -456, 43, -445, 103, 87, 130, 63, -151, 205, 162, 95, 95, -58, 157, 71, 97, 140, -285, -152, -257, 118, -193, 88, -149, -198, 77, 116, -381, -459, -243, 78, -187, 139, 154, 104, -100, -147, 82, -207, 197, -118, 77, 99, -217, 137, 144, 77, -232, -171, -92, -440, 132, 95, -209, -121, -517, 144, -303, -325, -41, 0, -182, -271, -10, -360, -186, -310, -117, 210, 135, -120, 32, -329, 161, 72, -230, 197, -18, -364, 68, 8, -226}
, {-34, 94, -171, -320, 65, 75, 64, 74, 80, -61, 34, -112, 97, -149, -341, -253, -295, 157, -329, -163, -163, 77, 92, -256, -63, -103, -316, -288, 129, -253, 145, -166, 122, -434, -10, -73, 77, -223, 118, 204, -82, 217, -102, 135, 42, -191, 24, 69, -152, 80, -121, -386, -347, 103, -137, 106, -248, -336, -66, -157, -219, 64, 81, -357, 68, -255, 92, -180, -324, 138, -186, -88, 76, 75, -290, 7, -271, -171, 165, -7, 84, 146, 45, -164, -207, -130, -448, -105, -58, -226, 83, -258, -213, 82, -276, -36, -67, 84, 110, 130}
, {-167, -217, -245, 49, 55, 105, -124, 70, -193, -109, 87, 93, 103, 52, -204, 123, -328, -231, -263, 102, 116, -180, -234, -274, -124, 139, -156, 77, -51, 84, -78, -72, 106, -202, -316, 72, -315, -137, -149, -63, 125, -77, -204, 83, 74, 155, -87, -32, 80, -123, -359, -170, -56, 103, 104, 104, 61, -153, 16, -355, -289, -192, -179, -231, 103, -270, 81, -27, -214, 109, 127, -267, -110, -129, -57, 64, 54, 165, -319, 88, 140, 18, -251, -109, 44, -145, -321, -142, -210, 76, -28, -267, -172, 82, -342, 146, -164, -109, 122, -53}
, {-337, 103, 87, 68, 77, -207, -282, -159, 116, 168, 16, 0, 104, -306, 124, -7, 103, -134, -175, -179, -212, 22, 92, 67, 74, -188, -195, -79, -246, 28, 142, 144, -284, -61, 159, -245, -309, -127, 160, -153, -273, -296, 105, -343, 114, -456, -45, 106, -147, -204, 162, -299, -308, -341, 83, -337, -188, -234, -10, 68, 149, 155, -342, -98, -275, 150, -409, -120, -123, -251, -98, 33, -201, 152, 131, -346, 84, -125, -110, 105, -264, -44, 81, -215, -279, 135, -326, -290, -144, 64, -146, -292, 76, -331, 181, 137, -269, -69, -33, -55}
, {82, -113, -198, 56, -226, -172, 54, 66, -362, 95, -216, -49, -306, 81, 117, -196, 111, -171, 107, 122, 159, -251, -104, 49, -75, 4, 201, 91, -355, 96, -111, -356, -300, 89, -24, 112, -129, 18, -616, -127, -189, -21, 39, -38, 102, 184, 116, 64, -362, 145, -220, -63, -217, -185, 122, 94, 109, 124, 21, -327, -438, -112, -247, 98, 79, -176, -261, -82, 110, -189, 128, -16, -214, -132, 151, 70, 59, -195, -164, -23, -152, -178, 6, -198, 50, 126, 106, -28, 98, 78, -7, 25, -119, 90, -255, -63, -145, 56, -189, -188}
, {129, 125, -435, -322, -260, 74, -226, -387, -286, -95, 125, 87, -203, -360, 155, -346, 133, -36, 87, -397, 58, 71, 122, 137, -59, -306, -185, -291, -287, 51, -269, -164, -303, 103, 163, -400, -92, 151, -87, -150, 76, 174, -221, -241, -80, 127, -240, 106, -406, 118, 174, -168, -166, -187, -450, -237, 64, 102, 115, 85, -9, -161, -107, -268, 102, 159, -619, -612, 122, -183, 126, 58, 126, -314, -102, -184, -471, -517, -179, -387, -351, -441, 86, 70, 53, -160, 30, 97, 125, -190, -299, 111, -400, 97, -170, -398, -129, 77, -210, -307}
, {-236, -83, 92, -87, -95, 42, 42, -280, 19, -205, -308, 86, -151, 80, -140, -48, -31, -143, -38, -86, -17, 103, -250, -254, -32, 95, 181, -71, -20, -202, 42, 118, 102, -246, -456, 66, 105, 83, 123, 26, -8, -166, 109, 115, -160, -341, 147, -233, 108, -237, -205, -188, -7, 55, 108, 107, 102, 15, -34, -391, 129, -139, 53, -253, 45, -100, 64, 167, 149, 127, -316, 53, -493, -97, -61, -249, -130, 144, -160, 111, 122, 142, -231, 142, -314, 167, -67, -329, -300, -151, 36, 120, 103, -306, -252, 148, -397, -227, 173, 124}
, {103, -162, 70, 52, -115, -137, -176, -16, 81, -147, 61, -1, 76, 77, 78, -188, 78, -225, -114, -265, -129, 31, 79, 91, -22, -235, -154, -271, 79, -172, -133, 13, 96, 106, -122, 47, -269, 142, -204, 192, 169, 6, 111, -292, -148, -32, -168, 36, -151, -77, -187, 185, 62, -188, -127, -230, -182, -126, 23, -184, -183, 144, -235, -197, 94, -217, 30, -193, -107, -232, 94, -283, -194, -179, -180, 62, 53, -92, -192, 102, 90, 119, -295, -170, 66, 10, -97, 151, 103, 71, 71, 84, -102, 83, -135, -256, 141, 79, -153, 1}
, {52, -243, 76, 74, 26, -394, -223, 88, 123, 124, 43, -352, -1, -101, 116, 91, 89, -102, -147, 81, -166, -254, -240, -269, -92, 118, -168, 62, 103, 22, -271, -106, -7, -5, -142, 58, -279, -246, -155, -298, -251, -462, 104, -390, -176, -120, 136, 46, 108, -72, -117, -104, 141, -221, 94, -107, -27, -52, -106, -170, 113, 142, -303, -189, -252, 162, 42, 151, -117, -369, 78, 9, -178, 126, 117, 45, 97, 155, -25, -78, -96, -215, 85, 137, -87, -113, -110, -325, -190, 64, -58, -215, 101, 62, 127, 110, -122, -226, -334, 136}
}
;

#undef INPUT_SAMPLES
#undef FC_UNITS