/**
  ******************************************************************************
  * @file    weights/fc.cc
  * @author  Pierre-Emmanuel Novac <penovac@unice.fr>, LEAT, CNRS, Université Côte d'Azur, France
  * @version 1.0.0
  * @date    24 march 2020
  * @brief   Template generating plain C code for the implementation of Convolutional Neural Networks on MCU
  */

#include <stdint.h>

#define INPUT_SAMPLES 784
#define FC_UNITS 32


const int16_t dense_2_bias[FC_UNITS] = {-87, 74, 23, 8, 26, -74, -67, -35, 25, -47, -130, -34, -44, 117, -83, 86, 193, 13, -90, -39, 136, -62, 49, -136, -83, 87, -37, -48, -61, 169, -1, 22}
;

const int16_t dense_2_kernel[FC_UNITS][INPUT_SAMPLES] = {{106, -13, 38, 139, 4, 8, -27, 236, 153, 84, -37, -46, 138, 52, 0, -17, -170, -198, 40, 155, -122, -87, -75, 106, -57, -98, -20, 172, -70, 80, 284, 36, 67, -101, -75, 42, -82, -168, -204, 141, 108, 108, 18, 145, -65, -26, -139, -39, -57, 27, -74, 23, 134, -45, 92, 52, -47, 156, -20, 44, 26, 91, 200, 99, 88, 19, 110, -112, -52, 126, -167, -27, 108, 293, -13, 80, 106, -334, 60, -47, 74, 115, 72, 59, -112, 31, 250, -96, 390, -22, -161, -68, 158, -34, -127, -159, 68, -176, -113, -245, -43, 131, 20, -71, -351, -169, 24, -100, -27, -248, -42, -241, 82, 181, 113, -51, 92, 9, -141, 68, 48, -14, -138, 317, 195, 30, -16, -105, -84, -325, 151, -84, -47, -216, -120, 32, -50, 117, 133, 58, 177, 49, -131, 11, -166, -72, 39, 180, 27, 19, -199, 313, -174, 284, 230, 89, 155, -2, -127, -100, 126, 71, 60, 106, 96, -29, -68, 242, -24, 152, -20, 109, 149, 166, -198, 41, 157, 175, 41, 99, -128, 258, 259, -136, 97, -228, -66, -199, 57, -110, 80, 53, -35, -33, 12, -50, -144, 191, 14, -454, 79, -216, -32, -61, 4, 41, 97, 251, -44, -3, 54, 125, 199, -50, -49, 167, 234, -7, 18, 82, -89, 72, -71, -187, 1, 98, -21, -11, 76, 61, 169, -2, -67, 118, -38, 53, -52, 137, 102, -50, -49, 154, -76, 108, 169, 137, -12, -60, 93, 128, -33, 130, -214, -49, -18, 139, 9, 112, -104, 241, 13, 17, 202, -100, 125, -41, -39, 208, -284, -42, -41, -12, 82, -125, 115, -71, 163, -32, -13, 108, 0, 109, 85, -42, -222, -9, 127, 29, -89, 83, 12, 22, -115, -19, 95, 128, -73, -218, 1, 8, -82, 195, -89, -164, -91, -27, -76, -40, 47, -204, -22, -366, -14, -6, 77, 27, -17, -93, -131, -4, 54, -172, -173, -333, -142, 103, -152, -130, -248, -187, 115, -190, 126, -346, -52, -160, 88, -129, -72, -243, -118, -39, 53, -150, 1, -8, -22, -171, -84, -114, -8, 120, 86, -59, 76, -10, -140, 19, 134, -4, 174, 9, -119, 28, 144, -77, -160, -4, 112, -242, -212, -84, -13, -232, 54, -202, 156, 73, -5, -116, -8, -75, 40, 18, -48, -50, 49, -196, 94, -8, -89, 65, -32, 93, 128, -204, -62, -104, -54, 43, -170, -25, 113, -52, 256, -47, -64, 110, -142, 123, 215, -101, 83, -47, -64, 20, -137, 18, 71, -100, -78, 21, -94, -197, -11, 66, 204, -163, -41, -38, -141, 283, 50, -209, 115, 39, -69, -162, -164, -107, 243, -320, -202, -39, -69, -39, 39, 143, -105, -134, 49, 8, 92, -109, -105, 15, -143, 27, 3, -21, -28, 178, -24, 81, -96, 129, 51, 177, 89, -19, 23, -97, -18, -59, -140, 28, -22, -19, 21, -97, 13, -111, -116, -32, 118, -187, -119, -45, -38, 122, 1, -91, -45, -88, 39, 55, 83, -78, 13, 57, -43, -53, -45, 35, -61, -13, 31, 19, 25, 27, -9, 21, -43, 120, 76, 28, 39, 64, -10, 25, -21, -135, -12, 24, -58, -99, 203, 3, 170, -103, -131, -70, 50, -128, -27, -91, 88, -159, -298, 15, -165, 56, 46, -191, -53, -80, -93, 55, -184, -190, -97, -150, 145, 91, -170, -4, 52, 13, 21, 179, 111, 93, 66, 114, 12, 146, 106, 84, 120, 74, -4, -12, 185, 51, -2, 161, -11, 100, 137, 28, -117, -30, 3, 74, 50, -22, 20, 11, 172, -85, -286, -93, -8, 22, -29, 6, -21, -47, 81, 16, -73, 82, -31, -23, 124, -9, 43, 89, 61, 60, -70, -129, 3, 102, 151, 3, -68, -17, 63, 0, -110, 123, 49, 118, 25, -229, -83, -342, -73, -271, -27, -239, 88, -71, -23, -69, -383, 102, -87, -124, 175, -131, -158, -86, -179, -102, -18, -116, -54, -227, -315, -124, 5, 72, 78, -186, 141, 31, -5, 67, -37, -85, -56, 175, -24, -31, 12, 93, -18, 5, 43, -101, -9, -24, -95, -138, 157, -45, 66, -65, 59, 20, 85, 152, 50, 206, 53, 22, 33, 167, 81, 4, 19, 76, 89, 95, -111, 132, 102, 56, -60, 122, 125, 131, 78, 135, 143, -113, -14, -4, -67, 43, -45, 16, 265, 22, 197, -90, 87, 77, 255, 51, 14, -66, -120, 82, -56, 20, 178, -15, -78, -12, -177, -84, -115, -101, 37, 106, 43, 63, -23, 34, 4, 65, 53, 109, 41, 79, 8, 200, 118, 154, 85, 39, 68, -21, 62, -87, 141, -6, 101, 27, 178, 39, 10, 141, 44, -153, 35, -5, -3, -76, 9, -4, 29, -62, -64, -10, 5, -63, -58, 2, 12, -144}
, {142, 39, -20, -253, 113, -19, 45, -57, 107, 205, 141, 19, 84, -35, 104, 51, 194, 319, 274, 351, -34, 290, 200, 361, 166, 205, 235, 195, 11, 348, 37, 103, 201, 219, 314, 395, -34, 186, 251, 449, 122, -105, 87, -2, -59, 124, 21, 103, -38, 18, 125, 335, -48, 29, 15, 54, 17, 272, 107, 119, 62, 241, -57, 136, -17, -123, 81, 65, 37, 23, 51, -125, 163, -138, 122, -74, 104, 58, 198, 130, 33, -9, 27, 195, -288, -94, -1, 152, 217, 35, -102, -227, 75, 140, -276, -181, 73, -85, -117, -179, 70, -42, -25, -11, -34, 49, 15, 80, 34, -112, 77, 55, -73, 140, 2, -14, -26, 159, 227, -54, -113, 49, 234, -89, -98, -16, 85, 133, -71, -103, -188, -129, 84, -34, 183, -20, -151, -53, 31, 194, -78, 60, 33, 113, 31, 27, -1, 91, 258, 28, -93, 230, -54, 75, 172, 39, -103, 93, 33, -24, -103, 23, -56, 44, 43, -28, -50, 76, -108, 106, -47, -35, -19, 53, -81, -2, 119, -67, 46, 20, 90, 4, 26, -108, -47, 29, -80, 156, 58, -27, 24, 114, 66, -149, -71, -75, -73, -99, -19, -249, 2, -245, -84, -31, -143, 185, 32, 104, -5, -97, -19, -137, 238, -209, -117, 101, -50, 114, -56, 77, -116, -79, 129, 203, -97, 157, 20, 193, -52, 288, -276, 129, -81, -84, 111, 211, -37, 100, 4, -84, -101, -31, -200, 163, -95, -63, 14, 184, -177, -110, -211, 122, 183, 45, -81, -111, -142, -210, -140, 87, 91, -83, -337, 99, -125, 25, 64, 46, 97, -49, -149, -96, 96, 81, 0, 33, 54, 109, -209, -46, -72, -190, -87, -47, 147, -226, 31, -215, -43, 116, -22, 128, -59, 229, 145, 4, 115, -204, -115, 165, 4, 12, -113, -122, 66, 273, -99, 145, -8, 388, 54, 73, 107, -21, -26, 96, -57, 208, -135, -73, -2, 189, 68, 84, 90, 97, 81, -129, -12, 34, 208, -129, 106, 119, 86, 42, -47, 34, 106, 202, -198, -34, -37, -75, 41, -135, 26, -42, 173, -305, -60, 26, -48, 61, -118, 373, -8, 44, -24, -122, -14, -112, -109, 85, 221, -282, -129, -71, 452, 137, -43, 217, 100, 152, 135, -111, 122, 8, 209, -68, -22, 19, 111, -13, -178, 77, 220, 295, -115, 53, 182, 135, -221, 31, 139, -45, 184, 191, -24, -152, -151, -53, 11, 25, -77, -87, -39, 112, -261, -60, -88, -46, 51, -84, -170, -307, -41, 3, -151, -42, 97, 59, -150, 81, -3, 114, -90, 97, 167, 6, 64, -150, 10, 151, 65, 158, 250, 237, 214, 27, 65, 207, 148, 79, 261, 209, 20, -83, 92, 187, -95, 36, 149, -53, 67, 185, 92, 66, 129, -93, 67, -5, 17, 155, 87, -32, 52, -4, -60, -28, 34, -19, 140, 101, 40, -192, -143, -7, 197, 154, 12, -84, -45, 11, 104, -32, -59, -46, 53, -25, -10, 147, -206, 123, 176, 15, -228, -27, 40, 89, 263, 168, -45, 151, -122, 216, 214, -47, -15, 113, -174, 38, -294, 33, 112, 0, -15, -160, -61, 109, 29, 9, 25, 21, -19, 115, -23, -81, -68, 76, -7, 60, 9, -51, -36, 85, 112, 49, 243, 17, 156, 127, 53, 156, 144, -123, 135, 10, 366, 64, -4, 160, 115, 214, 91, 219, -208, -19, 111, -109, -101, 154, -25, -92, 79, 78, 188, -27, -181, 71, 31, 22, -116, 70, -51, 144, -92, -87, -50, -171, 8, -109, 35, 90, -70, 58, 110, 20, -168, -8, -32, 94, -181, -75, 20, 60, 15, 50, -46, 116, -64, -43, 16, 101, 25, 51, -106, 18, -13, -127, 26, -21, 146, 291, -17, -2, -8, -92, -45, 41, 137, -46, -47, -68, -97, 198, -52, 11, 11, 136, 47, -57, 30, 50, 134, 23, -62, 68, -359, 20, -7, -31, 13, -18, -110, 194, -132, 87, 192, -353, -109, 124, -222, 59, 50, -114, -60, 63, 0, 93, -67, 39, -1, -15, -112, -82, 93, -276, 64, 72, 39, 83, -85, -79, -91, 38, -124, -183, -33, -13, -179, -228, -21, -402, -123, -65, -254, -64, -171, -39, -193, 170, -371, -179, -136, 13, -197, -231, 15, -265, -4, -82, -52, -178, 13, -120, -199, 241, -18, -144, 70, 59, -186, 90, -239, -52, -49, -72, -70, 293, 86, 57, -285, 162, 62, -19, 113, -13, 88, 226, -79, 26, -170, -11, -57, 213, -41, -340, 11, 85, 67, -243, 66, 48, -5, -73, -56, 6, -32, 42, -381, -354, 162, 76, -330, 32, -179, 78, -241, -39, -53, -92, -230, -167, -34, -130, 19, 122, 43, 24, 25, 15, -1, 13, 3, 27, 130, 101, -29, 90, -69, 2, 47, 94}
, {-100, -17, 235, -90, 46, 119, -10, -3, -120, -240, 20, -36, -116, 16, 208, 78, -34, -361, 61, 97, -12, -67, -143, 73, -167, -206, -33, 184, -67, 105, -12, -38, -54, -8, -24, 215, 76, -74, -252, 223, -114, 67, 55, 123, 16, -69, -112, -110, -62, -220, -19, 51, 12, -129, -148, 83, -197, 111, -23, 157, 117, 29, -11, -61, -83, -60, -192, -135, 240, -42, -201, 85, 55, -92, -16, -317, 118, 1, 27, -300, 19, 55, -111, 38, -70, 44, 127, -252, -240, -59, 72, -401, 53, -56, 106, 179, 5, 148, -103, 75, -172, -32, 320, -22, -68, -59, 58, -56, -3, -20, -66, 14, -6, 264, 188, 39, -107, -47, 51, 87, 9, -30, 13, 43, 137, 78, -48, -277, 90, -63, -171, 235, 80, 52, -250, 334, 31, 25, -24, 163, 62, 165, -60, -72, 62, -148, -109, 205, 211, 98, -6, 99, -125, 158, 222, 36, 141, 177, -55, -33, -34, -100, 122, 113, 142, -72, -52, 21, 72, 392, 155, -146, 160, 151, -124, 171, -179, -7, 241, -23, 150, 196, 124, -19, 115, 64, -1, -156, 115, -27, -230, -29, 35, 98, 201, -68, 216, 97, -80, -189, -78, 13, 190, -81, 18, -146, 37, 427, -61, 320, 40, 192, 67, 309, 157, 125, 182, -30, -34, -95, 405, 146, 129, 72, 62, 76, 111, 138, 268, 241, 59, 143, -35, 9, 6, 228, 117, 194, -21, -133, -108, -74, -67, 137, -32, 33, -210, 270, -44, 47, 47, 201, 85, 160, -93, 28, 26, -116, -11, 156, 195, 57, -15, 252, -35, 232, -16, -139, -37, -28, 2, 81, -4, -53, 73, -152, -5, 35, 146, 1, 54, 263, 107, 54, -188, 173, -204, 206, 131, 129, 222, -178, -26, 199, 268, -95, 434, -155, 129, -82, -90, 80, 228, 54, 225, 98, -11, -125, 29, 93, 323, 57, 5, 54, 119, -47, -38, 92, 231, 168, -26, -97, 263, 207, 377, 168, -22, 357, 94, 189, 281, 251, 18, 271, -25, 139, -10, -18, 147, 88, 109, -80, 52, -61, -47, -81, 37, 31, 157, -67, 34, 91, -120, -58, 40, 289, 21, 22, -136, 174, -51, -6, 59, 277, -21, 5, -33, 29, -120, 10, -28, 66, 266, 36, -28, 214, -79, 81, -58, 119, 112, -26, -13, 28, 47, 28, 11, -121, 127, 118, -10, 62, 87, -51, 48, 33, -121, 272, -215, -45, 37, 99, -35, 12, 160, 114, -91, 41, -134, 35, -62, 195, -21, 52, 75, -52, 88, 59, -45, 49, 125, 110, 1, 125, -63, 81, -34, -28, 19, -27, 132, 28, 54, -63, 48, 78, 15, 88, -57, 20, 18, -74, 88, -88, 67, -68, -9, 76, 45, 149, -29, 105, 26, 27, 133, 36, 5, 70, 93, 9, -7, 13, 85, 142, 66, 66, 17, 128, 54, -98, 38, -21, 58, -81, -53, 51, 55, -60, 13, 14, -17, 51, -59, 22, -16, -24, 37, 49, -226, -28, 17, 194, 33, -12, 218, 22, 73, 136, -30, 3, -34, -21, -20, -100, -62, -220, -132, 38, -6, -59, -87, -70, 67, 41, 3, -4, 20, 27, -63, 9, 35, -152, 36, 3, 44, 20, -28, -18, 120, -70, 106, 46, -195, -64, 105, 85, 111, -132, 87, 90, 162, 40, 139, 174, -146, -113, -35, -59, 2, -24, -93, 208, 28, 9, -72, 133, -149, -159, 36, 88, 84, 78, 94, -3, 52, -108, 91, -28, 134, 0, -82, 4, 116, -43, 37, -35, 70, 225, 181, 5, 29, 69, 7, 96, 51, -24, 39, 31, 145, -31, 153, 109, 55, 95, 282, 61, -115, -63, 46, 118, 47, 64, 80, 18, 93, -9, -118, 68, 208, 104, -20, -59, -120, 24, 76, -58, 232, -29, -166, 2, 75, 43, 211, -120, 251, -31, 134, -75, 12, 40, 11, 78, -56, -3, -56, -20, 142, 57, 267, 54, 148, 81, 74, 81, -33, -63, 272, 175, -131, 108, 130, 33, -131, 143, 64, 84, -118, 22, -38, -69, -54, 29, 67, 119, -80, -24, 66, -50, -110, 103, 36, -54, 44, 27, 84, 37, 58, -105, 40, -51, 240, -16, -7, 427, -74, 45, 222, 77, 45, -96, -84, 0, 100, -55, -1, -38, 100, -21, -94, 66, -131, -52, -16, 232, 154, -278, 402, -45, 47, 49, -109, -86, 53, -67, -130, -89, 237, -23, -10, 133, 381, -186, 10, 39, -183, 153, -192, -69, 93, 53, -283, -159, 44, 2, -322, -95, -170, -166, 18, -6, -12, 33, -154, -27, 197, -32, 3, 138, -93, -124, -44, -38, -39, -58, -30, 37, -94, 195, 170, -35, 1, -381, 109, -167, -219, 16, 34, -296, 34, 14, -66, 60, 12, -22, -20, 11, -143, -137, -8, -170, -228, -14, -18, 39}
, {86, -16, -25, 60, -10, -16, -25, -2, 42, 67, -20, -97, 28, 16, 3, -20, -15, 39, 57, -27, -26, -6, -45, -18, -11, -7, 8, -2, -29, -59, -3, -60, 0, -19, -78, -38, -36, -68, -58, 6, 36, -86, -28, -55, -52, -19, -11, 52, 54, -27, 7, 1, -82, -64, -57, -11, -41, -18, -49, 50, -3, 19, -15, 34, 76, 82, -111, 48, -85, -54, 78, -20, 11, 36, -3, 8, 10, 68, -3, 62, 53, 88, 36, 44, -44, 0, 58, -72, 17, 8, -45, 14, -1, 14, -79, 7, 30, -55, 42, -25, 6, -22, -86, -39, -25, -37, -45, 6, 3, -35, 105, 10, -21, -8, 6, -54, -22, -73, -14, -76, 47, -4, -23, -3, 36, -36, 53, 18, -19, -24, 25, -22, 30, -92, -57, -48, -38, -73, -64, 93, 58, -35, 80, 38, -9, -80, -82, -158, 33, -30, -23, -139, -39, -3, -69, -57, 25, -29, 63, -68, 56, 86, -10, 5, -14, -21, 75, -109, -7, -38, -21, 22, -51, -79, 51, 0, 31, -30, -91, 0, -65, -95, 51, -21, 18, -41, -65, 120, -100, 11, -17, -74, 88, -56, -75, -62, 9, 91, -89, -85, 1, 46, 44, 21, -59, -97, 52, 42, -12, 29, -27, 17, -11, -47, -31, -61, -1, -57, 23, -87, 35, 39, 49, -68, 9, -7, -21, 33, -46, 42, -43, -9, -15, 33, 41, -40, -65, -2, -34, 7, 74, -116, -8, 146, 13, 89, -15, 157, 59, 21, 64, -108, -127, -110, -83, -43, -73, -48, -4, 38, -110, -53, 70, 47, 7, -66, -7, -1, 53, 124, -29, -105, 70, -72, 26, -61, -100, -79, 4, -144, 2, -86, -150, 72, 29, 26, -17, -7, -6, -115, -93, -71, -71, 22, -53, -104, 7, 13, -104, -58, -22, -89, -67, -108, -79, -62, -43, -4, -33, 23, -135, -96, -25, -11, -48, -39, -83, -76, -38, -10, 26, 75, -13, 81, -9, 63, 34, -74, 13, -42, 34, -45, 97, 64, 54, -1, -38, -30, -5, 19, -7, -34, -28, -32, -98, -50, 32, -85, 22, 0, -10, 37, -123, -51, -27, -6, -59, -88, -64, -48, -70, -27, -17, -45, 41, 6, -36, -9, 29, -87, 55, 17, -32, 0, -54, -41, 13, -33, -63, 69, -6, -52, -8, 8, -87, 20, -38, -30, 6, 18, 49, 19, 23, -7, 43, 70, -1, -15, -89, -19, 51, -54, -68, 44, 31, -58, -93, -105, -97, 62, -167, 0, 13, -48, -10, -125, 83, -58, -111, -4, 13, 3, -113, -72, -76, 27, 3, -73, -84, -85, -21, -43, 64, 11, -34, -6, 82, 30, 18, -10, -21, -27, -26, 21, -18, -11, 64, -22, -88, -9, 37, -46, 16, 1, -4, -7, -71, -88, -42, -84, -115, 9, -1, 9, 7, -6, -56, -128, -13, -8, -70, -43, 5, -95, -81, 3, -44, -48, -33, -36, -69, -120, -57, -26, 2, -32, -31, -13, 44, -58, -25, -57, 5, 6, -129, -39, 15, -31, 44, 93, -25, -33, -66, 26, -82, -60, -75, -46, 57, -43, 26, 61, -33, -39, -42, -75, -20, -29, -31, -61, -95, -51, -3, -75, 46, -35, -49, -48, 32, -20, -126, -72, -15, 16, -60, -42, -58, -3, -43, -103, -45, -26, -4, -52, 10, -29, -27, 23, -32, -38, -42, -57, -9, -40, -26, -33, 35, -27, 48, -54, -24, -42, 11, -36, -35, -145, 13, -68, -96, -174, 5, -32, 15, -22, -65, -10, -5, -54, -95, 56, -137, -6, -44, 60, -15, 30, -128, -71, -60, -142, -12, -37, -36, 13, 4, 67, -125, -4, -23, 2, 33, -36, -4, 15, -29, -114, -72, -100, -12, -38, -56, -75, -57, -62, -14, -33, 3, 18, -85, 25, 6, -76, 24, 29, -38, -36, 44, -30, -8, 63, 6, 92, -15, 17, 46, 27, -51, -63, 27, -50, 24, -7, 54, 45, 12, -37, 71, 52, 43, -29, -21, -72, -35, 6, -25, 31, 9, 38, 22, 33, 36, 4, -15, 27, 16, -53, -27, -31, -27, 9, 112, -11, -32, 28, -31, -31, 28, -32, 26, -42, 25, 9, -47, -22, -76, -3, 16, -27, 32, -76, -90, 31, -60, -33, -38, -42, -30, -46, -2, -62, -71, -77, -39, -73, 23, -58, 56, -14, -145, -42, 12, -51, -30, -36, -41, -63, 18, -93, -32, -123, -84, -101, -54, 44, -18, 27, -77, -83, -26, -97, 77, -43, 20, -121, -90, -25, -15, 9, -32, -16, -55, -86, -71, -10, -111, -43, -79, -82, -67, -47, -45, -50, 1, 28, -10, -29, -50, 40, 4, 10, -44, 10, -49, -16, -15, 9, 25, -8, -13, -4, -17, -12, -2, -23, -18, 15, 5, 16, 23, 10, -55, 32, -1, -29}
, {38, 26, 202, -17, 93, 14, 78, 64, -35, -31, 36, 82, 38, 19, 241, 62, -45, 135, 49, 30, 53, 118, 52, 89, -143, 132, 34, -77, -82, 134, 53, 20, -127, -39, -47, -208, 153, -139, 30, -231, -159, -175, -114, 138, -146, -62, -97, 109, 50, -201, -422, -245, 23, -63, 65, 37, -33, -65, -124, 110, -90, 18, -18, -167, -118, 39, -26, 66, 18, -66, -191, -89, -226, -250, 86, 205, -22, 123, -115, -191, 131, -44, -11, 31, 24, 29, -12, -138, 55, 33, -38, -133, 36, 249, 112, -259, 0, -31, 141, 42, 16, 118, -19, 61, 82, -2, -34, -53, 128, 114, -32, 110, 60, 100, -93, 211, -57, 218, 93, 186, 162, 174, 243, -147, 44, 119, -1, -83, -172, -115, 35, -89, -122, 13, 109, 134, -268, -158, 23, 95, 150, 209, -233, -218, -59, -144, -144, -154, -100, -165, -467, 34, -90, 155, -36, -95, -29, -155, 26, 35, 178, -198, -84, -216, -200, -110, 47, 86, -58, 95, -211, -4, 4, -189, 83, -35, -88, -124, -147, -177, 115, 39, -123, 238, -184, 216, 39, 2, -16, -60, -147, -104, 27, -179, 131, -26, -258, -26, 61, 153, 24, -10, 23, -96, 17, -114, 171, -37, 58, 44, 81, 103, 19, -55, 53, 221, 105, -12, -73, 129, 70, 70, -35, -42, 75, 17, 106, 149, 20, 60, -108, 7, 12, 36, 227, 91, -80, 75, 152, 122, -111, 40, 67, 85, 150, -246, -96, 122, -63, -56, 93, -30, 169, 122, 34, 72, 16, -60, 99, 187, -182, 62, -264, 234, -161, 173, 110, 229, 264, 11, -65, -21, -71, 118, -48, 140, -111, -71, 9, 233, -49, -97, 97, 25, 145, 94, -231, -2, 267, -2, 151, 120, -16, 87, -12, -3, 45, 64, 94, 112, 113, -22, 251, -57, -54, -105, 68, -17, -129, -163, -3, 137, 33, 78, 137, -65, -46, -140, 187, 149, 14, 165, -87, 28, 9, 79, 18, -146, 64, 189, -94, 7, 293, 117, 97, 92, 81, 97, -140, 33, -112, 80, 150, -24, 118, 78, -75, 175, -26, -124, -11, 68, -97, 151, 2, 77, 92, -78, 205, -6, 63, 38, 41, 185, -132, 29, 87, 56, 21, 8, -11, -57, 4, -111, -135, -15, -32, -19, 31, 131, -159, -4, 78, 121, -129, 123, 84, -103, 61, 22, -43, 88, -43, 108, 125, 10, 18, 184, 115, 97, -100, 87, 133, -81, 145, 98, 26, -252, -47, 6, 81, -50, -54, 127, -60, -138, 49, 102, -83, 16, 26, -58, 6, 75, 55, 98, 91, 195, -152, -30, 185, 164, 81, 2, 70, 42, 229, 370, 48, 170, 212, 91, 79, 275, 81, 107, 137, 225, 14, 124, 278, -70, 108, 191, 63, 3, -19, 115, 87, -37, 112, -9, 177, 183, -118, -63, 113, 45, -115, -193, -150, 123, -2, 55, 4, -48, 77, 76, -58, 13, 93, -3, -39, 18, 56, -19, -84, 47, -187, 163, 22, 161, 78, 170, -27, 46, 35, 31, 120, -6, 145, -176, 138, 112, -80, 54, 29, 245, -110, 111, -86, -130, -242, 122, -234, -12, 137, -137, 78, 7, -78, 9, -245, 192, -74, -10, -94, -264, -5, 0, -142, 65, 2, -178, 20, -44, -277, -58, -200, 111, -161, 46, -69, -192, -71, -239, 158, -167, 184, -113, -269, 278, 64, 138, 150, 202, -68, -170, 141, 228, -185, -83, 145, -256, 201, -192, 18, -263, -132, -62, -181, 64, -246, 38, -17, 0, -256, -133, -237, -111, 157, -175, -135, -105, -106, 25, 127, 73, -13, 42, -77, 90, -140, -67, -81, 176, 91, -163, -135, 38, -74, -168, -31, -13, -80, -136, -170, -85, 34, 22, -171, 198, -119, 49, -57, -86, -163, -320, 56, -221, -303, -223, -15, -102, 70, -324, -73, -151, -158, 31, -3, -158, -99, -245, -148, -209, -142, -36, -154, -166, 224, 12, -261, -93, -228, -64, -172, -69, -252, -202, -58, -273, 12, 23, 7, -75, 65, 6, 40, -131, -42, -161, 77, 24, -107, 50, -40, -48, 64, 64, 71, 75, 102, -139, 117, 76, -34, 103, -91, 65, 128, 57, 71, -192, -16, -108, -143, -58, -42, -127, 99, 261, -92, -58, 176, 138, 7, -136, -121, -222, 72, -176, -165, -251, 140, 9, 85, 69, -110, -20, 39, 76, -29, 17, 0, -5, 12, 10, 53, 172, -113, -90, 20, 62, -81, -158, -100, 14, 84, -61, -120, 4, 27, -5, -103, -47, 85, -19, -131, 47, -204, 234, -288, -99, 91, -84, -100, -62, 116, -85, -174, -20, 135, 12, -89, -28, -160, 15, -42, -61, 23, -72, -209, -21, 55, 43, -12, 14, 50, -7, 44, 9, -22, 28, 36, -57, 79, -20, 20, 12, 41, -10, 45, 22}
, {-132, 54, 139, 82, 11, 71, 50, -46, -184, -138, -93, 43, -42, 5, 159, -55, 50, -335, -195, -280, 86, -316, -226, -227, 116, -171, -199, -174, 42, -96, 0, -120, -2, 21, -143, -276, -118, -15, -184, -199, 82, 120, 84, -126, 64, -176, -214, -212, 89, 220, 104, 38, -213, 34, 130, -65, 33, -23, -145, -260, 52, 86, 64, -81, 157, -29, 175, -1, -111, 48, -131, 128, 48, 202, 156, -2, -9, 6, -58, 52, 115, 159, 35, 9, 305, 190, 2, -149, 156, -8, 143, 22, 77, -10, 124, 243, -12, 145, 15, 228, 60, 180, 216, -50, 188, -89, 15, -31, 78, 218, 53, -16, -11, -81, 7, 63, -34, -165, -13, -19, 46, -40, -67, -35, -117, -2, -179, -171, 79, -24, 144, -43, 95, -107, -175, -100, 84, 98, 39, -236, -74, 84, -37, 42, 110, -148, 95, -38, 30, 0, -161, -128, 112, 53, 139, -119, -111, -30, 175, 116, 232, -140, 15, -8, 84, -53, -18, 103, 177, -18, -10, 10, 10, 71, 7, 53, -15, 17, 50, 5, -183, -18, 90, 78, -224, -6, 54, 72, -57, 109, 72, -116, -287, 202, 35, 188, 404, -68, 107, 82, -81, 143, 144, -21, -10, 46, 45, -190, 34, 86, 70, -15, -149, 181, 175, 133, -42, -90, 26, 41, 77, -4, -44, -19, 40, -84, 7, -110, 49, 5, 93, -83, -11, -51, -146, -197, 226, 46, -123, -62, -24, 87, 16, -202, 45, 93, -61, -269, 61, -5, -6, -152, 175, 27, 107, 76, 185, 180, 134, -24, -24, 99, 48, -22, 107, 69, 88, -201, 57, -146, 207, 204, -181, -355, -1, -78, -1, -505, -57, 145, 139, 163, 131, -155, -120, 14, 52, 166, -63, -140, -32, -7, -29, -241, 39, 81, -69, 194, 65, -18, -69, -88, 15, -27, -254, -129, -10, 50, 53, -193, -95, 184, -58, 207, 25, 65, -61, -33, 55, -190, -22, -208, 131, -33, 220, 230, -112, 147, 114, -53, -21, 257, 24, 64, -43, -65, 114, 209, -159, 71, 6, 242, 281, 205, 57, 138, 116, 123, 27, 46, -24, -84, 0, 47, 66, -61, 112, -59, 175, 78, -16, 80, 38, 226, 182, 180, 95, 47, -45, -175, 1, -225, 51, -341, -7, -16, -1, -91, 104, -57, -215, 68, 162, 152, -37, -304, -33, -177, -84, -115, -348, 89, 190, -49, -54, -363, -41, 43, 13, -61, 132, -70, -64, -275, 103, -99, -144, -248, 127, 58, -68, -258, 97, -162, 24, 58, -20, 51, 100, -102, 203, -77, 30, 170, -202, 336, 187, -99, -38, -226, 120, 276, -38, -53, 136, 55, -154, 37, -59, 20, 127, -222, -7, 35, -55, -156, -57, 188, -22, 185, -88, 71, 112, 90, 56, -3, 13, 62, 24, 52, -184, 140, 43, -120, 10, 257, -9, 361, -26, 133, 69, 202, -33, 26, 32, 71, -104, 60, -27, 60, -64, -203, -19, 284, -2, -108, -86, 130, -75, -8, 101, -39, 59, 103, 9, 103, 110, 85, -25, 89, -157, 114, -20, 138, -163, 26, -98, -46, 80, 64, 75, 3, 78, 46, -1, 165, -12, 16, 28, 122, -52, -79, 14, 41, -21, 14, 106, 62, 186, 268, 160, 137, -177, 136, 274, 133, 19, -215, 23, -16, -52, 67, 77, -262, -32, -21, -70, 124, -205, -71, -178, -55, 112, -28, -67, 69, 62, 59, 7, 190, -168, 54, 46, -178, 24, 36, -67, -130, -107, -21, -69, -91, 33, 197, 0, -105, -49, -48, 54, -97, 26, -40, -149, -113, -192, -11, -59, -49, 9, -11, -7, -120, -68, 116, -12, -21, 23, -28, 80, -24, -59, -50, 15, -59, 117, 43, -32, 12, 199, 27, -123, -347, -61, 82, 139, -118, 128, -38, -133, 17, 89, 57, 142, -117, 149, 147, -67, -71, -74, 101, 100, 38, -25, 22, 62, 96, -370, -25, 303, 67, 146, -11, -37, 212, 289, -150, 110, -57, 176, 277, -100, 161, 178, 36, -236, -204, 16, 22, -59, -72, -25, -61, 9, -44, -102, 72, -21, 125, -72, -164, 40, 6, -38, -215, -108, -21, -141, 27, -6, -57, 67, -94, -37, -65, 0, -57, -142, -1, 246, 166, -26, -43, 91, 215, -83, 42, 93, 131, 122, 165, -87, 49, 150, 99, -13, 98, 368, -25, 96, 86, -12, 104, -4, 73, 174, 103, 175, 7, 59, -62, 137, 64, 133, 78, -18, 95, 103, 183, 12, -64, 220, -38, -170, 55, -105, -114, -5, -33, -15, -7, -119, 178, 8, -80, -85, 108, 77, -65, -60, -66, 103, 42, 139, 28, -4, 1, 65, -62, 311, -39, -64, -1, 184, 49, -45, 141, 29, -232, -16, -17, -18, 5, 2, -27, 17, -24, -29, -34, 9, -53, 37, 12, 4, -86}
, {76, -26, 62, -81, 53, -15, 37, -36, 57, 91, -8, -24, 108, 73, 169, -5, 51, 2, 102, 25, -45, 56, 47, 153, 139, 313, -26, -20, 61, 114, 1, -79, 90, -82, 115, -102, 108, 193, 175, 1, 109, 117, 14, -213, 54, -249, 50, 224, 6, -80, 264, 219, -240, 65, 106, 203, 259, 264, 1, -92, 4, 73, -16, 54, 91, 230, 97, 3, -52, 11, 331, 100, 82, -103, 58, 78, -19, 17, -87, -127, 249, -2, -59, -98, 204, 113, -6, -97, 188, 12, 125, 33, -92, -106, 5, 216, 37, 153, 53, 179, 216, 12, 138, -98, 146, -184, 19, -104, 6, 162, 221, 73, -14, 0, -171, -16, 74, 148, 139, 12, 50, 60, -38, -37, -247, -161, 42, 73, 9, 6, 81, -73, 85, -194, 74, -72, 79, 8, -5, -128, -109, -121, -4, 34, 7, 80, 83, 14, 186, 11, -80, 142, 39, 151, 134, 175, -71, 25, 35, 230, -144, -4, 100, 68, 104, -20, -43, -23, -79, 7, -44, 147, -23, 43, -234, -40, -238, -103, -56, 38, -89, 145, 18, 151, -108, 112, 32, 111, -144, 29, -192, -219, 195, 77, -146, 18, 73, 39, -10, -89, 55, -79, -262, -2, -21, 70, 24, -347, 83, 67, 54, -78, -93, 60, 177, 297, -209, -96, 101, 51, -37, 7, 62, -4, -102, -32, -44, -54, -332, -24, -153, -63, -110, -155, -53, -79, -120, -113, -154, -104, -17, -44, -140, -85, -57, -244, 64, 63, -89, -28, -135, 168, -227, 89, 30, 20, 7, 125, -54, 131, 181, 81, -88, 88, 34, 79, 58, 162, 61, 90, 15, 104, -93, 82, -112, 73, -85, -108, -132, 67, -144, 49, -193, 136, 65, 240, -31, -132, -115, -125, -186, 69, -53, -337, -183, 286, -286, 125, -119, -92, -82, 36, -123, -170, 237, -68, -163, -337, -6, -336, 45, 91, -314, 99, -312, 52, -83, -129, -86, -336, -77, -97, -69, -111, 68, 32, -7, -13, -62, 84, -20, 53, -67, -126, 75, 86, -152, 32, 65, -62, -194, -28, -124, 1, -142, -286, -97, -56, 178, -122, -205, -216, -205, -252, -101, 131, 10, -277, -69, 280, -210, 32, -230, 183, 164, -7, -193, -284, -3, -135, -216, 21, 118, -91, -181, 261, -28, 192, -98, 224, -67, 182, -142, 52, 44, -28, 60, 44, 70, -181, -177, 61, 174, 130, 32, -75, 51, -114, 44, 52, 42, -155, -21, -47, -65, -173, -129, -126, 3, 8, -37, -207, 97, -279, -20, -41, 125, 47, 14, 30, 80, 220, -126, -132, 131, 35, 152, -284, 112, -245, -265, -37, 26, 415, 125, 182, 25, 139, 308, 213, -20, -122, 137, -39, 179, 13, -20, -30, -112, 275, 271, 96, -27, -166, 13, 4, -128, -70, 117, 107, 152, -30, -54, 149, -110, -337, -34, 348, -21, -121, -353, 72, -241, -115, 97, 147, 220, -229, -207, -96, -132, -228, -98, 127, 129, -91, -285, -96, 34, -290, 21, 26, 303, -200, -55, -189, 169, 170, 110, -32, -41, -14, 2, 161, -80, 81, 125, 92, 135, -60, 155, 80, 35, 2, 110, -84, 143, 33, 22, 20, -74, 159, 46, 40, 52, -62, 1, 22, -98, 78, -6, 122, 171, 311, -86, -49, 57, 51, 94, -17, 50, -19, 193, 135, 82, 93, -38, 51, 299, 18, -77, -121, 35, 10, 276, 122, 129, 53, 1, -25, 29, 40, 97, 236, -8, 116, 92, 197, -3, 101, 188, -81, -46, 143, 8, 138, -32, 55, 266, 136, 59, 129, 46, 51, -75, 30, -9, 126, 81, 67, 104, -31, 2, 215, 19, 191, -52, -30, 157, 65, -122, 11, 104, 64, 111, 71, -47, -1, 78, 113, 63, 88, 145, -20, 23, -44, -69, -75, -21, 32, 53, -9, -47, -140, 36, 52, -101, -112, 49, -180, 128, -84, -42, -44, -21, 19, 77, -78, 133, 98, 45, 78, 119, 41, 219, 210, 101, 50, -8, 217, 104, 60, -75, 58, 292, 204, 68, -30, 106, 155, -131, -207, 185, 93, 189, 91, -52, 136, 91, 157, 85, -32, 169, -34, 22, -78, -134, -25, 52, -34, 9, -34, 57, -67, 11, -251, -49, 172, -33, -262, -57, -154, 22, -76, -156, -227, -13, -236, -244, 31, -115, 24, -30, 12, -246, 153, -273, 101, 98, -343, 65, -141, -270, 12, 2, 110, -374, 238, -26, -73, -306, 95, -165, 216, 162, -136, -62, 149, -140, 42, 178, 46, -95, 126, -24, 73, 75, -110, 3, 18, -19, 175, 3, 47, 7, -155, 30, -88, 2, -117, 12, 6, -1, 56, 42, -21, 53, -149, 18, 7, -86, 253, -81, -95, -6, -59, 5, 174, -15, 41, -2, -82, 43, 27, -6, -58, 148, 109, -22, 127, -21, -51, -63, 54}
, {6, -45, -15, -185, -6, 5, -9, -89, 80, 160, -20, -36, 118, -44, -126, 46, 72, 180, 89, 97, 49, 282, 113, 398, 98, 316, 161, -65, -9, 236, -73, 84, 18, -149, 134, 129, -319, 49, 310, -13, 1, 103, -66, -247, -90, -71, -85, 141, -29, -46, 80, 72, 74, 220, -73, 178, -118, 320, 414, -264, -127, -207, 66, 82, 25, -12, -157, -74, 310, 55, 78, 12, -20, -287, -120, 145, -52, -14, 149, 7, 52, -153, 20, 141, 253, 80, -149, 26, 87, 22, 71, -109, -14, 230, 148, 198, 52, 281, 228, 216, 63, 76, 83, 12, 292, 12, -18, -44, 84, 268, -58, 12, -48, -5, -1, 136, -39, -48, -99, 228, 82, 254, 64, 76, -96, 283, -119, -169, 21, 95, -77, 113, 119, -95, 90, 299, 50, 4, 131, 393, -35, 322, -67, -84, -60, 27, 121, 57, 180, -36, 81, 120, 7, 245, -96, 73, 45, 226, 34, 97, 12, -78, -54, -172, -25, -280, 129, -21, 315, 170, -61, -33, -27, -99, -76, 37, 103, 49, -63, -15, -157, 27, 164, -115, 277, -101, -28, 101, -189, 114, 243, 47, 163, 58, -87, -97, -20, 27, 110, 92, 5, 126, -307, 72, -80, -186, 107, -164, 19, -211, 3, -53, 152, 148, -55, -86, -176, 122, 103, 151, -30, -46, 112, -54, -142, -187, -125, -54, -194, 92, -247, -198, -186, -246, -81, 94, 5, -212, -228, -349, -99, -7, -304, 18, -47, -62, -69, 52, -57, -97, -52, 224, -158, -68, -137, -70, 143, -94, 79, 89, 144, -193, -129, -188, 196, -180, -152, 200, 0, 15, 61, 177, 57, 26, -39, 44, -245, -84, -25, 0, 17, -2, -105, -28, 251, 43, 59, 8, -170, -71, 26, 5, -130, -131, -244, 2, -157, -41, 9, -95, 95, -374, -122, -82, -107, 107, -157, 20, -25, -30, -116, 17, -10, -253, -271, 16, 38, -38, -107, -337, 91, -42, -116, -159, 57, 20, 5, -60, -149, 190, -56, 45, 163, -175, -50, 50, -132, 46, -41, 70, -133, -90, -49, -83, -136, -233, -133, -180, 161, -127, -226, -3, 161, 9, -269, 140, 26, 79, 108, -9, 203, 134, -50, -116, 26, -96, -18, -126, 210, 18, 36, 231, -110, 154, 115, 90, -32, -82, 30, 246, 22, -33, -37, 87, 111, -39, 115, 212, 53, -42, 2, 170, -93, -30, 86, -20, -75, 25, 151, -93, -83, -11, 103, 177, 164, 185, 137, 210, -228, 198, 103, 179, 162, 198, 31, -273, -147, 41, 95, 73, -9, -187, -40, 76, 111, 171, 201, 14, -43, 101, 242, 60, 49, 159, 14, 59, 127, 251, 157, -88, 145, 72, -167, 94, 278, 176, -41, -212, -105, 294, 7, -13, -52, 172, 60, -12, -196, -63, 118, -30, -73, 7, 97, 264, 30, -95, -158, -178, -84, 100, 78, -54, 49, -25, -87, 206, -61, -215, -43, -14, 3, -104, -187, -144, 210, -115, -150, 46, 39, 112, 82, 101, -165, 69, 11, 108, 162, 58, -135, 21, 6, 103, 179, -2, -146, -151, -23, 133, -155, 171, 37, -43, 41, -134, -43, 81, -30, 61, 51, -150, -6, 25, -102, 123, -236, 40, -83, -149, 158, 60, -33, 55, 150, 56, -11, 241, -92, 0, 31, 126, 23, 30, 32, 65, 42, -122, 273, 42, 221, 14, 84, 281, 224, 245, -46, 307, 21, -16, -50, -228, -47, 59, 12, 243, 107, 19, -58, 112, -106, 39, 262, -156, -94, 156, 15, 202, -63, 9, -11, 103, -92, -54, -115, -30, 53, -21, 14, -238, -7, -38, -140, -37, 92, 135, 28, 35, -128, 40, 24, -72, 19, -46, -7, -81, 133, -6, -13, -51, -101, 12, -34, -15, -46, -63, -40, -49, -159, 24, 176, -39, 181, 86, 64, -24, 34, -150, -154, -9, 75, -48, -187, -338, 89, -96, -246, -83, 100, -57, -72, -226, 105, 189, 30, 152, -106, 263, 37, -69, -183, -112, -17, -199, 23, 1, 202, -26, -67, 112, 81, 70, 157, 117, 141, -8, 118, 49, 83, 11, 156, 111, -65, 38, -46, -181, -57, -33, -11, -144, 1, -73, -112, -193, 21, -110, 42, -22, -186, -102, 125, -43, -124, -33, -77, 36, -203, -35, 119, -53, -154, 19, -11, 45, 23, -310, -13, -163, 357, -39, 55, -120, 15, -9, -109, -100, 96, -23, 209, 30, -132, -32, -110, -103, 24, -32, -13, -208, -65, -25, -313, -101, -35, -67, 14, -39, -161, -22, 163, 40, -61, -30, -94, -59, 103, 0, -73, -30, -94, -156, 54, 34, 102, -135, 35, 80, 30, -62, 143, 130, 82, 20, 59, 67, 66, 150, 30, 128, -1, 251, 5, -16, -10, -6, -28, -1, -16, -48, 206, 118, 15, 155, 102, -1, -23, 36}
, {96, 41, -199, -132, -24, -64, 42, -67, 149, 180, -96, -108, 84, -45, -178, -70, 0, 248, 205, 336, 94, 486, 179, 236, -63, 121, 166, 102, 48, 126, -336, 12, -60, 8, -22, 128, 5, -127, 4, -21, 29, -90, -123, 159, -15, 261, 0, 28, -49, -67, 65, -125, -69, 13, -200, -90, -99, 129, 42, 400, -47, -66, -258, -340, -78, 67, -12, 112, 24, 2, 114, 277, -144, -146, -55, 175, 8, 244, 28, 47, -1, 45, -128, -52, 88, 149, 96, -66, -26, 27, 114, -194, -169, 17, -95, 112, 98, 244, -65, 230, 232, -46, 185, -53, 102, 143, 0, -51, -22, 212, 192, 116, -42, 49, -225, 23, 136, 114, 56, 92, -11, -23, -50, 51, -105, 104, 62, -6, -83, 367, 7, 61, 111, 60, 59, -56, -56, -194, -126, -3, -51, 112, 93, -51, 86, 167, -29, 70, -144, 162, 146, -123, 56, -181, -28, -4, -20, 129, 223, 37, -154, 8, -34, 31, -2, -19, -36, 148, -136, -57, 67, 120, 109, 208, 144, -197, -462, -59, -49, 133, 242, -50, -118, 171, -206, 92, 127, 347, 8, 84, -265, -175, -4, 95, -180, 156, 89, 84, -71, 278, 3, 208, -288, 91, -38, 174, -110, -446, 130, 289, 69, 186, -181, -36, 266, 199, -27, 46, 49, 13, 23, 238, -51, 33, 52, -15, -15, 1, -128, -142, 53, 57, 104, 68, 63, -148, 6, -84, -26, 7, 51, 10, 161, -6, -128, -170, 134, -21, 72, -9, 42, -162, -71, -65, 5, 47, -141, -57, 73, -16, -68, -129, -142, 64, -77, 22, 14, -46, 132, -43, 39, 165, 16, -3, -47, -66, 33, -91, -292, -41, 107, 47, 163, -15, -50, 54, -63, 173, -155, -16, 200, -89, 116, -221, -40, -80, -24, 122, 160, -40, 121, -184, -126, 43, 49, 58, -63, 10, -58, 83, 15, -207, -90, -27, -163, -236, 72, -96, -19, -184, 144, -9, -81, -24, -347, -32, -76, -37, -176, -236, -171, -225, -17, -9, 77, 106, 20, -104, -96, -91, 115, 26, -168, 78, 2, 35, 11, 3, 10, 201, 72, -36, -87, 11, 40, -122, 172, -22, 72, -31, 4, 34, 58, 19, 92, 120, 111, 71, -430, -4, -7, 218, -44, 29, -45, 102, -370, -80, -36, 116, 120, 73, -490, -266, 127, 53, -57, 93, 41, -116, 87, -49, 112, 146, 69, 84, 1, 18, 176, 162, 36, 37, 66, 19, -267, 87, 135, 36, 225, -141, -42, -63, -36, 0, 131, 138, -10, 3, 31, 0, -150, 160, 189, -120, 84, -193, -164, -110, -71, -5, -95, -206, 10, -12, -132, -166, 125, -46, 107, 3, -176, 146, -7, 88, -255, -122, 58, -64, 209, 114, 5, -31, -133, 67, -176, 117, 113, 67, 66, -7, 16, -32, 126, 44, -65, -59, 74, 90, -58, 76, 137, 80, -72, 144, -77, 140, -38, -33, -257, -183, 2, -70, -44, 183, 54, 53, -33, 249, 23, -185, -158, 180, 133, 22, -33, 3, 120, -102, -87, -162, -146, -44, 125, -149, 148, 12, -134, 92, -91, 132, 54, 62, 10, 17, 28, -294, -194, -28, 111, 95, 20, 190, 59, -117, -131, -3, -31, 4, -72, -63, -41, 135, 187, 99, -162, 312, 130, 231, -4, 56, 70, -152, 8, 138, 62, 629, 77, 170, 163, 166, 501, 176, -182, -35, 63, -201, 341, 299, 35, -145, -82, -29, 53, 49, -2, -42, -69, -18, -142, -23, 161, 123, -27, -9, 139, -27, 161, -47, -144, 113, -62, 63, -104, -59, 162, -96, 9, -41, 74, -51, 32, -99, 29, 160, 79, -2, -32, -55, 49, 55, 39, -94, -158, 34, -122, -4, 67, 44, 100, -82, -55, -54, -44, -173, -13, -36, 39, 79, -70, 41, 96, -96, 1, 105, -168, -104, 72, 14, -10, -251, -51, -40, 36, 13, 151, -39, 221, -86, 86, 101, -126, 218, -89, 22, 79, -36, -17, 10, -144, 227, 318, -76, 342, -12, 214, 250, 114, 229, 175, 175, 11, 244, 204, 110, 239, -42, 49, 145, -54, 280, -54, 39, 143, 80, 21, 49, -3, 204, -29, -42, 168, 155, 10, -45, -156, -13, -26, -20, 135, -115, 260, -43, 15, 162, 152, -5, 134, -88, 182, -1, 171, 46, 54, 32, 97, 3, 92, -57, 28, 169, -1, 86, 186, 16, -178, -81, -122, 71, 31, 53, -211, 138, 252, 98, -43, -14, 197, 31, -36, -74, 156, -10, 69, 69, 198, 97, -56, 248, -83, 50, -71, 48, 53, 39, 20, 92, 23, 9, 40, -5, 211, 52, -85, -49, 317, -38, 213, -83, -6, -10, 270, 181, 110, 275, 14, 95, 38, 167, -11, 27, 2, -3, -2, -14, -14, -75, -67, -94, 1, -41, -24, 6, 34, 0}
, {168, 59, -179, 156, 2, -48, 6, 79, 221, 244, 86, -116, 139, 60, -83, 164, 103, 360, 177, 228, -145, 380, 187, -169, 170, 248, 284, -162, 30, -44, 40, 155, -44, 238, 143, -57, -286, 151, 377, -128, -23, -21, 59, 148, -72, 70, 73, 3, 55, 83, -216, -178, -20, -111, 334, -81, 36, 51, -60, 199, -118, 63, -109, 87, 65, -14, 2, -39, -64, 95, -61, -144, -23, -191, 54, 236, -131, -63, -155, 100, 14, 42, 79, 221, 29, 58, -126, 127, 225, -1, 209, 155, -35, 347, -83, -47, -16, 126, 117, 114, 135, 45, 48, -91, 78, 198, 32, 73, 67, 190, 7, 54, 196, 121, -48, -163, 160, -25, 81, -136, 135, -14, 36, -64, 228, 38, 77, 268, -70, 134, 35, -261, 51, 7, 292, -211, -34, -180, -121, -367, -15, 16, -43, -107, 40, -226, 41, -266, -38, -82, -213, -286, 98, 20, -77, -427, -169, -42, -35, -20, 60, -40, -1, -257, -97, -144, 75, -262, 219, -485, -81, -80, 58, -314, 91, 64, 97, -16, -67, -3, -37, -159, 27, 215, -220, 59, 3, 234, 161, 18, 5, -119, -224, 73, 72, 56, 135, 90, -29, 27, 24, 213, -191, 81, 146, 25, 36, -74, -85, 76, -26, -68, -86, 1, 40, -114, -155, -85, -60, 15, 130, 23, -56, -183, 91, 134, 150, 86, -57, 97, -228, 23, -22, 0, 196, -68, -118, 60, 438, 381, 22, -82, 110, 21, -56, -141, -20, -47, 49, 39, 127, -345, -148, -86, 116, 196, 218, 104, -54, -98, -195, 93, -6, -71, 148, -320, 34, -118, 109, -23, 165, 95, 69, 79, 43, -67, -85, -195, 227, 52, -26, -26, -69, 0, -126, 57, 174, -19, -56, -153, 15, 69, 50, -251, -29, 231, -236, 342, 140, 224, -131, 72, -139, -10, -253, 197, 94, 219, 229, 100, 76, 191, -9, 374, 7, 273, 32, -33, -406, -17, -137, -205, 93, -30, 127, 250, -17, 7, 196, 225, -186, 291, -6, -82, -163, -26, -35, -132, -163, -93, 101, 42, 142, 284, -18, -34, -54, -156, 116, 130, -138, 4, 66, 16, 4, 68, -72, 43, -10, 214, 2, 35, -80, 59, 138, 232, 32, -73, 177, 67, 24, -126, -29, -15, 98, -220, 221, -108, -33, 100, -129, -67, 201, 103, -42, 7, -103, -17, 84, 0, -113, 40, -66, 151, -5, 83, 104, -135, 259, -64, -120, -3, -84, -116, 161, 25, -206, -322, 100, 3, -105, -200, 13, -38, -49, 19, 124, -41, 19, 24, 75, -208, -64, -97, 163, 139, 159, 48, -237, 73, -52, 125, -90, -179, -24, -221, 131, 225, -152, 316, 32, -24, 137, 227, -175, -245, -13, 63, -6, -114, -215, -14, -89, 15, -98, 29, -70, 31, -102, 133, -26, -96, -65, -158, 16, -113, 95, 100, 95, 6, -32, -47, -1, -3, 23, 230, 51, 7, -82, 75, 181, -29, 33, -41, -74, -83, 124, 4, 60, 140, 164, -174, -55, -114, 87, 138, 168, -28, 63, 7, -34, 101, 50, -7, 100, 106, 153, -96, 57, -136, 11, -79, -147, -61, -11, -224, 20, -77, 102, -133, -94, -77, -59, -188, -78, -29, -83, -86, -48, -173, -251, -410, -6, 3, -188, -40, -197, -62, -10, -32, -249, -327, 198, 124, -33, 118, 202, 228, -37, -1, 210, 130, 145, -93, 102, -114, 38, 192, -20, 87, -7, -249, -36, -19, -221, 153, -91, -101, -42, -105, 105, -124, 1, -128, -196, -119, -1, -38, 4, 54, 59, 56, -110, 9, -116, 179, 121, -48, -56, 39, 95, 117, -74, 29, 91, 83, 52, -50, 19, 105, -38, 12, 80, 33, 139, 140, -8, -84, 189, 15, 54, -89, 31, 120, 41, 25, -49, -54, 148, -26, 17, 58, 16, -39, 50, 69, -153, -171, -52, 151, -68, -308, 118, -286, -211, -110, -137, 29, 141, 114, -25, -258, -5, -111, -143, -132, 16, -156, -4, -91, -52, -304, 65, -7, 38, 19, 56, 55, 91, 66, 165, 97, 72, 6, 38, 148, 32, 58, 35, 101, 36, -35, 41, -16, -8, -77, -90, 4, -48, -59, 40, -40, 5, 1, 25, -61, 47, -116, -13, 102, 11, -17, 85, 74, -69, 97, -68, 94, 20, 74, 206, 163, 72, -119, -154, 185, 222, -11, 91, -119, 91, 251, -190, 99, 182, 138, 154, 245, 97, 58, 75, 55, 17, -16, 102, 122, -157, 48, 212, -83, 144, 108, 35, 84, -64, -52, 84, 252, 43, -41, 47, 140, -121, 47, 64, 127, 189, 138, 113, 77, 150, 26, 8, 32, 210, -68, -93, 53, -30, -33, 240, 60, -112, 114, 137, 34, 26, -53, -29, 8, 65, -88, 23, -28, 8, -33, 16, -17, -23, -20, 151, 4, 16, -25}
, {-52, 35, 20, 5, -25, 45, -15, 62, -79, -21, 92, 67, -46, -54, -80, 30, 44, -2, 65, 5, 178, 84, -1, -39, 98, 134, -29, 91, 2, 46, -12, 6, 86, 120, -100, -136, 6, -67, 154, 2, 62, -62, 125, -115, -72, -255, -124, -21, 28, 119, 100, 187, 56, 123, 315, 102, 100, 50, 25, -133, -3, 74, 120, 47, -188, 63, 288, 106, -183, 159, -123, 324, -19, 173, 102, -7, -19, 117, -150, -73, -50, -27, 83, -30, -102, 111, 4, 111, 221, 1, -63, 98, -11, 163, -136, -64, -2, 36, -79, 179, 6, -107, 69, 80, 150, -71, 52, -57, -130, 118, -84, 79, -8, -29, -38, 81, -71, 42, -152, 38, 34, 90, 149, -41, -29, 38, -63, 101, -33, 159, 94, 34, 342, -26, 253, -125, 78, -29, -29, 77, 61, 92, 110, 73, -68, 32, -78, 16, -14, -27, -66, 61, 34, 140, 15, -57, 120, -62, -162, -96, 48, 82, 112, -53, 152, -140, 33, -43, 79, -103, 169, 45, 21, -105, 142, 246, -26, -112, -130, -144, -207, -306, -9, -156, -144, -112, -162, -288, -126, 13, 55, -69, 82, -75, 56, -72, 17, 113, -46, -42, -16, -46, -116, 58, -8, 49, 240, 229, 112, -30, -148, 150, -41, -72, -115, 59, -30, -58, -16, -117, -82, -42, -40, 121, 93, -31, 101, 55, -38, 28, -70, 80, 120, -41, 40, -48, 224, -65, 55, 106, -120, 291, -11, 37, -75, 57, 160, 7, -119, 72, -104, 132, -180, -11, 136, 102, 141, -53, -204, -236, 164, -152, 249, -172, 148, -69, -80, 104, -107, 141, 71, -37, 193, -60, 240, -355, 24, -360, 26, -236, 150, 97, 150, -218, -169, -8, 125, 131, 122, -211, -37, -353, -114, -47, -131, -12, -180, 14, 105, -330, 14, -89, 126, 202, 79, 74, -19, -115, -94, -145, 155, -4, -36, 136, -110, -103, 55, -118, 397, 21, 73, -107, -123, -90, -114, -157, -75, -165, -188, -67, -12, -257, -53, -115, 14, 38, 85, 221, 14, -75, 88, 285, 289, -155, 1, 45, -23, 274, -95, -71, 218, 156, 44, -108, -222, 204, -50, -62, -129, 47, 88, -63, 33, 59, 50, -105, -223, -101, 38, 93, -121, -213, -107, -81, 18, -344, 1, -149, 40, -428, -67, 44, 137, 150, 114, -128, -90, -115, -356, -354, -44, -89, 172, -102, -76, -195, -173, -117, 6, 20, 244, -194, -44, -208, -101, 43, 43, -169, 207, 21, -202, -23, -150, -61, 190, 11, 82, -96, -42, 115, 87, 292, 76, 267, 108, 320, -65, 186, -126, 79, 259, 154, -89, 105, -8, 75, -46, 43, 117, 92, -79, 152, -98, -58, 46, 128, 12, 68, -74, -114, -39, -67, 190, -159, 102, -32, -6, -2, -178, -52, -116, -94, -67, -104, 10, -4, -151, -116, -51, -105, 90, -131, 162, 36, -65, -122, -69, 33, -212, -126, 79, -156, -146, -242, 163, -40, -112, -14, -2, 62, 184, -316, -48, 107, 23, 81, 22, 67, 111, 89, -361, -135, 47, -131, 2, -11, 2, -182, 262, 75, -44, -27, 8, 33, -37, 272, -247, 56, 69, 340, -171, 157, -86, -13, 119, -23, 42, -261, -184, 178, -144, 265, 340, 145, -54, -119, 46, 141, 100, -20, 97, 4, 35, -133, -13, 192, -63, 151, 163, 122, 215, -98, 75, 208, 126, 82, 198, 159, -24, 80, -53, 127, -22, 89, 0, 100, 124, 131, 49, 41, -167, -108, 1, -140, -45, 203, 127, 54, -17, 16, -81, 58, 76, -34, 43, 84, 0, -27, -103, 16, 55, -29, 66, 134, -114, -18, 114, 124, -21, 66, 133, 6, -67, 27, -111, 143, 108, -12, -218, -72, 101, -45, 53, -151, 34, 181, -46, -29, 218, 116, -175, 29, 169, 235, -91, -132, -16, 10, 51, 382, -45, -92, 19, 16, -155, 78, 73, 18, -37, -150, -52, 75, -22, 212, 238, 63, 45, -42, -144, 132, -14, 100, 155, 99, -208, -67, 101, 89, 93, 15, 176, -44, 95, 144, 99, 220, 14, 196, 72, -58, -61, -3, 37, -70, 62, -96, -63, 53, -38, 6, 78, -2, 49, -65, 33, -133, -190, -10, -158, 70, 219, -159, 2, -73, 74, -70, -154, 56, -28, -134, 81, 98, -118, -24, 128, 15, -37, -8, -27, 73, -72, 4, 157, -141, -159, -181, 24, -30, -107, -77, -315, 39, -215, 113, -70, -102, 145, 159, -334, 31, 21, -114, -67, 127, -23, -50, 49, 23, 187, -46, 140, 26, 184, 94, -84, 121, 212, 55, 113, 154, 2, -134, 121, 9, -81, -57, 165, -33, 25, -24, 24, -50, 227, 77, 68, -8, 41, -25, 45, -9, 17, -111, 10, 20, 43, 47, -1, 10, 44, -31, 88, 1, 14, -67}
, {-125, 47, 125, 62, -82, 7, 50, 97, -35, -81, 97, -22, -94, 8, -7, 23, -2, 67, 34, -48, 18, -245, -93, -121, -27, -217, 56, 312, 99, 26, 147, 160, 90, 133, -59, 72, 100, -32, -165, -120, 23, -58, -37, 62, 118, 93, -21, -4, 17, -228, 16, -301, 149, -226, -342, -90, 158, 199, 37, -33, 189, -212, 49, 138, -95, -88, -25, -165, -2, -173, 113, -9, -216, 27, -131, -154, 55, -138, 110, 233, 31, -122, -123, 56, -151, -211, 17, 7, -50, -51, -26, -45, -97, 54, -64, 93, -37, 63, 8, 80, -179, 10, -7, 93, 16, 184, -2, 31, -45, -25, -137, 7, -42, 15, 118, 70, 24, 106, 6, 94, -18, -113, -1, 75, 26, -28, -89, -148, -106, -30, -189, 160, 33, -14, 90, 345, -134, 147, 131, 114, -140, 49, -199, -117, -133, -47, -34, 24, 228, -74, -265, -86, -125, 41, 32, -178, -111, -108, -240, 91, 10, -63, 29, -179, 57, -118, 9, -357, 226, -74, 19, -349, -259, -279, -131, 188, -64, -131, 68, -51, 26, 181, -7, -131, 281, 35, 22, -199, -122, -170, -29, 194, 149, -73, -50, -22, -309, 47, -54, -225, 89, -308, -142, -110, -54, 161, 244, 90, -20, -241, -143, -114, 113, -132, -278, -208, -37, 118, -67, -16, -196, -134, 65, 51, 74, 104, 83, 212, 200, -33, -193, 70, -67, -66, 114, -16, 229, 10, 28, 86, 22, 128, -79, 391, -65, 219, -41, -17, -51, -41, -123, 34, 172, -105, 0, -101, 106, 202, -70, 99, 171, 65, 95, 38, 45, 89, 125, -199, -114, -85, -33, 36, -120, 204, 127, 75, -332, 33, 116, -43, -185, -256, -98, 118, -7, 146, -79, -81, -45, 5, -106, 158, -224, -199, -50, 99, -334, -211, -268, 1, -113, -127, -167, -452, 281, 85, -98, -18, 71, 259, -52, -365, -128, -22, -246, 80, 58, -66, -40, -95, -56, -1, -231, -110, -97, -117, -157, -149, -218, -83, -60, -286, -226, -66, -10, -20, 2, 196, 27, 31, 67, -133, 306, 84, -38, 29, -14, 225, -20, 34, 52, 202, 93, -120, -51, 118, 44, 161, -216, 28, -39, -128, 90, -7, 5, 27, 114, 164, -27, 97, 5, 113, 38, 43, 159, -206, -61, 92, -162, 63, -238, 221, 93, -68, -31, -244, -12, -136, 64, -77, -62, 15, -55, -7, -25, 5, -118, 45, -215, -83, -60, 73, 68, 234, 38, -24, -19, 102, -178, 136, 90, -43, 190, -193, -2, -29, -152, 46, 98, 150, 170, 162, 129, -214, 5, 166, 37, 101, 146, -72, -434, -111, -40, -160, -232, -77, 28, -142, -210, -20, -286, 79, -155, -256, -178, -59, 42, -17, 20, 15, 189, 142, -36, -105, -58, 81, -44, -54, 167, 97, -71, -1, -7, 144, -49, -71, 2, -153, -2, -353, -44, 14, 71, 51, -95, 6, -110, -22, -3, 49, 109, -36, -122, -29, -63, 53, 11, -159, 139, -16, -118, -287, -60, -146, 81, 48, 71, -46, -170, -99, 48, 24, -52, -21, 161, -33, -169, -280, 48, -75, 30, 13, 169, 37, -1, -105, 27, 93, 112, 27, 142, -104, 14, -1, -39, 265, 246, 148, -79, -171, 65, -245, -103, -262, -48, -449, 180, 4, -30, 17, -98, -23, -117, -190, -40, -265, -111, -80, -184, -63, -43, -64, -181, -125, -84, -216, -172, -77, 62, 25, -82, 229, 116, 130, 106, -1, 77, 163, -167, 71, 230, -12, 123, 41, 173, 327, 10, -72, 60, -113, -104, 97, -153, 59, 66, -35, 99, -157, 207, -6, -12, -26, 5, 67, -60, -11, -65, 165, 22, 30, 65, 24, -31, -5, 61, 51, -106, -56, -23, -83, 71, 47, -152, 25, 85, 48, -155, -22, 25, 109, 95, -103, 71, -34, 247, 25, -140, -163, -3, 18, -80, -57, 227, 30, -195, 88, -92, -162, -33, 37, -130, -181, -147, -173, -39, -108, -116, -102, 125, 0, 68, 46, -21, 82, -60, -128, -54, -1, 17, 74, -125, -112, -5, 55, -132, -13, 18, -95, -10, 8, 82, 85, -17, 141, 10, -95, 191, 46, -35, -40, 27, 173, 31, 117, 54, 61, 72, -19, -13, 127, 61, -102, 106, 52, 75, 6, 131, 203, -13, 4, 68, -78, 23, 149, 294, -51, 62, 20, -8, 203, 111, 116, 209, 70, 94, -99, -122, 0, -40, 116, -23, 35, 170, 111, -236, 228, 207, 247, 183, 17, -38, -191, -183, -198, -107, -55, 30, -67, 119, 65, -1, 186, 2, 156, 109, 58, 37, -60, 69, 169, 54, -3, 17, 30, 130, -16, -15, 149, 235, 47, 49, -102, 71, -19, 23, 220, 32, 78, -39, 24, 29, -68, -39, 49, -18, 23, -32, 22, -1, 46, -94, 49, 11, 43}
, {47, -25, 88, -78, 28, 141, 46, -22, -3, 223, 3, -124, -72, -43, 39, 83, 30, -147, 221, 81, 68, 61, 36, 226, -134, -8, 99, 286, -68, 176, -178, -50, 113, -111, -90, 149, 172, -237, 14, 253, -112, -197, 27, 29, 11, -78, -295, -131, 157, 73, 96, 263, 11, -1, 160, 222, -34, 14, 130, 126, 57, 51, 74, 273, -37, 57, 1, 3, 150, -48, -49, 59, -78, 216, -3, -4, 108, -38, 21, -30, -179, -1, -111, 46, -91, 29, 191, 51, -154, -26, -121, -221, 120, 3, -230, -264, 130, -199, -89, -177, -3, -218, -221, 194, -54, -34, -9, 35, -389, -167, -6, 22, -59, -73, -167, 83, -91, 105, -22, -32, -143, -93, 23, -123, -99, -51, -97, 269, -187, 25, -218, -79, 143, -90, 236, -75, -126, -89, -27, 346, -70, 15, -98, -90, 3, 102, -336, 41, 150, 197, 73, 160, -54, -98, -124, 203, -137, -20, -29, -228, -41, 41, 51, 180, 261, 110, -48, 199, 42, 230, 167, 254, 112, 173, -22, 67, 111, -83, 104, 12, 54, -117, 105, -32, -21, 228, 54, -110, 172, 17, -25, 66, -146, -133, 214, -95, -108, -39, -45, -183, 59, -128, -24, -141, 13, -150, -219, 32, 112, -103, -267, -206, -88, -97, -108, -108, -275, -165, -31, -266, -73, -196, 71, 127, -150, 66, -129, -171, -142, -26, -140, -159, -80, -159, -148, 6, -17, -83, -174, -100, -46, 28, -228, -122, -46, -100, 24, -161, -101, -116, -264, 303, 11, -283, -109, -116, -165, 168, -186, 112, 33, 78, -137, -136, -174, -193, -168, 49, 36, -187, 41, -108, 271, 89, -69, -159, 120, 71, 14, -80, 229, -107, -30, -21, -162, 8, 257, 125, 121, -109, -24, -517, 120, 111, 58, -249, 197, 4, -8, 17, -117, 29, 200, 244, 85, 13, 133, -127, -220, -38, 2, 6, 138, -271, 198, -12, -120, 99, 376, 257, 5, -68, 57, 3, 48, -165, -91, -4, 70, 24, 203, -64, 85, -321, 14, 50, -11, 90, 96, -83, -163, -135, 70, -274, -52, -140, -140, -139, -35, -229, -76, 69, 7, 80, -256, 178, -173, 145, -48, -72, 8, -183, -45, -15, 12, -30, -74, 26, 55, 65, -293, -6, 52, 202, 202, -143, -13, -218, -172, 71, 82, 44, 150, -78, 170, -118, -48, -169, -145, -1, 39, -237, 56, -110, -4, -25, -168, -17, 178, -7, 343, 70, -41, -158, -43, 29, 70, -252, 193, -183, -127, -49, -223, -83, 110, -48, 138, 49, -98, 19, -167, 55, 88, 145, -181, 66, -213, 19, -140, 215, 288, -98, -26, -145, -112, -39, -95, 13, -160, 158, -66, 45, -179, 33, -129, -95, 88, 48, -13, 118, -94, -95, -5, 118, -45, -159, 39, -73, 26, -202, 50, -134, 132, 31, 216, 109, -50, 51, -138, -1, 3, 8, 169, 52, -29, -126, -21, 3, 129, 12, 114, 0, 52, -113, -245, 62, 2, -235, -15, -68, -34, 44, 64, 51, 153, -102, 82, 10, -79, -166, -159, 88, -48, -29, -13, -41, -30, -218, 65, 120, 98, -13, 17, -12, -103, 89, -14, 36, -150, 119, 54, -9, -165, -29, 235, 42, 129, -6, -50, 53, -92, 111, 84, -12, -39, 138, -24, -73, 184, 19, 108, -56, 105, -80, 9, 246, 81, 208, 110, 279, 330, 200, -80, 76, 86, -94, 290, 53, 62, 12, 167, -25, 74, -246, 154, 164, 185, -14, 272, 109, -240, 36, 3, -60, -7, 37, 78, 59, -102, -202, -37, 140, 172, 117, 96, 64, 248, -2, -66, 65, 98, 183, 50, -94, 54, 19, -45, -69, -9, 162, -105, 3, 63, -29, -76, 55, 65, 22, 32, 31, -39, 94, 79, 146, 29, 47, -16, 25, -21, -33, 223, -63, 69, -15, 112, -338, 44, 154, 80, 55, 42, 107, 60, 219, -73, 120, 35, 39, 117, 122, 102, 134, 226, 257, 32, -234, 207, 282, -51, 109, 110, 58, 62, 17, 104, 69, -67, 210, 149, 275, 181, 27, 111, 286, 245, 244, 3, 335, 85, 220, -2, 6, 73, -57, -5, 9, 15, -114, -91, 6, 97, -103, 10, 44, -88, 52, -5, -73, -59, 193, -49, 55, 164, 45, -40, 91, -234, 210, 26, -5, -148, 175, -14, 107, 29, 114, 93, -2, -19, 95, -116, -47, -45, 78, -40, 62, -6, -170, -14, -10, -216, 106, 246, 133, -25, -190, 48, 214, -109, 42, 32, -22, 130, 84, -324, -143, 75, 121, -3, 9, -102, 83, 193, 35, -69, 121, 37, -15, 16, 87, 96, -407, -11, 10, 219, -22, -17, 53, 27, 83, 237, 96, 7, 153, -10, 127, 43, -40, 16, 54, 13, 4, 52, 4, 15, -21, 1, 38, 9, 47, -103, 11, -13, 10}
, {-17, 41, 64, 8, -58, -14, -20, -18, 41, 85, -72, 93, 72, 24, 4, 41, -15, -76, -31, -265, 87, -206, -71, -423, 70, 110, -11, -8, 23, -196, 104, 13, 9, 234, -79, -586, 72, -86, 293, -496, -40, -16, -93, 249, 62, -196, -33, -65, 18, -24, 109, 71, -5, 84, 88, -63, 69, -7, -188, 194, 42, 19, 18, -154, 67, -10, -36, -37, -85, -1, 61, 323, -13, 58, -57, -62, 53, 114, -9, 161, 23, -51, 36, 99, -63, 42, -183, 270, -37, -9, 20, 84, -9, 12, 66, 192, 41, 125, -137, 26, -207, -119, 197, -79, 2, -123, -13, -92, -9, -8, -11, -50, -39, -218, -26, -85, -137, 48, 19, 23, 61, 42, -95, 175, -114, -62, 13, 17, 73, -115, 151, -60, -6, -86, -37, -98, 131, 63, 109, -365, -110, -165, 55, 58, 142, 14, 124, 29, -281, 2, 19, -229, 165, 193, 57, -233, -158, -277, 100, 149, -78, -53, -24, -61, 105, 29, -38, -120, -133, -57, -108, -113, -79, -49, -19, -106, 131, 11, 47, -13, 115, 141, -129, -24, -339, 16, 49, 97, 27, -8, 430, -63, -98, -115, -125, 88, 58, -25, -107, 243, 34, 77, 123, 163, -11, 231, -75, 178, -70, 296, -72, 21, 29, 46, 164, -98, 90, 126, -65, -54, 184, 225, -198, -30, -71, -59, 173, 112, 46, -46, 70, 48, 6, -63, 25, 93, 255, -45, -32, -174, -60, -320, 293, 34, 58, -598, -196, 264, -36, 211, 211, -90, -346, 119, 41, 160, -35, -261, 318, 72, 94, -194, -403, 193, 72, 368, 122, -443, -31, 86, 6, 205, -230, 58, 265, 102, -75, 20, -68, -32, 102, 135, 169, -31, 128, 85, -86, 221, -213, -83, -69, 201, -31, 213, -20, -13, -96, -106, -136, -12, -73, -229, 93, -126, 240, 178, 89, 217, -35, 65, 70, 96, -100, 51, 186, -2, 88, 133, -26, 88, -30, 44, 51, 238, 188, 33, -5, 75, 228, -76, 229, 123, -18, 99, -69, -38, -93, -185, -15, 1, -146, -199, -221, -236, -62, -206, -12, 100, 52, 129, -137, -210, -31, 8, -31, 172, -55, 158, -63, -183, -2, -284, -64, 78, 106, -277, -44, -126, 115, 188, -124, -179, 201, 141, 108, -164, 59, 85, 71, -40, 30, 53, 105, 89, -215, 203, 80, 104, -106, -161, 233, -26, -122, 131, 62, 82, -113, 240, -384, 53, -228, 21, -145, -48, 37, -260, -21, 29, -6, 44, -93, 117, -46, 6, -181, -37, -9, -146, -63, -80, 359, 2, -41, 304, 8, 232, 13, 288, -43, 29, -375, -84, -12, -32, 11, -112, -17, 5, 113, 89, 23, 189, 182, 51, -4, -150, -18, -28, 34, -93, -357, -42, 148, 112, -36, -22, 33, 62, -41, 73, -42, 27, 89, -23, 142, 52, -37, -50, -51, 118, 122, 79, -2, 6, 52, -130, 23, 70, -13, -98, 142, 134, -10, -42, -20, -45, 110, -177, 319, -70, -127, -136, -130, -40, 134, -56, -64, -193, 43, 30, 106, -13, -119, -25, 0, 139, 53, -280, -24, -75, -77, -42, -215, -97, -99, -38, 66, 0, -158, 8, 63, 4, 124, -63, -59, -127, -35, 57, 65, -118, -59, -200, 35, -5, -81, -44, -80, 161, 38, -61, -8, -176, 31, 280, -34, 21, 110, 2, -134, 45, 33, 48, 51, -172, 71, 67, -56, -11, -31, -33, 55, -18, -75, 18, -68, 59, -85, 7, 42, -70, -181, 24, -148, 55, -5, -212, 93, -131, -98, 38, 19, -86, 9, 132, 34, 28, -1, 33, -71, 57, -48, 44, -138, -101, -3, -34, 53, 66, 1, -41, 75, -47, 36, -38, 123, 31, -67, -122, -46, 5, -52, -58, 106, -34, 46, 1, -126, 60, -6, 35, 158, -42, -41, -27, 194, 59, -46, 58, 3, 126, 4, 37, -132, -10, 140, -6, -103, -36, -53, -145, -56, -97, 90, 99, -22, 150, -6, 53, 10, -134, 54, -58, 125, 98, 86, 291, -59, -117, -12, -98, 65, -73, -133, -89, -135, -68, -2, -71, -5, -103, -40, -32, -139, -94, 34, 160, -94, -185, -53, 113, -116, -127, -28, -76, 10, -47, -85, -265, -255, 43, 10, 19, -72, -173, -155, 26, -209, 39, 36, 26, 228, 65, -68, 148, -147, 236, -259, 69, 50, -72, -139, -176, -38, -33, -31, 73, -194, 23, 188, -66, 151, 45, -411, 147, 35, 232, -255, -91, 30, -137, 364, -46, -20, -119, 218, -167, 19, -126, 168, 189, -32, -237, 124, 160, -301, 62, 27, -26, 256, -115, 27, -76, 4, -7, -161, 93, 217, 100, -47, 62, -18, -129, 86, 160, 64, -69, 31, 112, 15, -23, -6, 92, 19, -54, -5, 86, 7, -31, -23, -19, 68, 31, -35, -73}
, {25, 49, 6, 192, 28, 69, 42, 111, -90, -114, 7, 121, 81, 65, 56, 53, -56, 19, -24, 237, -164, -48, 46, 189, -162, -288, -178, -152, -103, -40, 31, 39, -189, -79, -285, 48, -399, -190, 129, -5, 45, 51, -219, 266, -276, -150, -163, -246, 93, -33, -6, -340, -111, -46, 301, -47, -7, -86, -48, 253, -63, 100, -68, 127, -86, 193, 92, -226, 158, 85, 104, 47, -298, -187, 114, 188, 30, 14, 71, 101, -95, -69, -267, -39, 140, -225, -29, -67, 37, -30, -83, 214, -95, 48, 41, 50, 161, -225, -141, -222, -5, -187, -283, 38, -165, 146, 21, 69, -217, -212, -70, 55, -240, 89, 78, -38, -60, -73, 6, -209, -277, -359, -135, -33, -62, 44, 167, 152, -87, 35, -271, -70, -373, 170, -174, -22, -105, -110, -58, -60, -68, 31, 21, -39, -7, -177, -94, 52, 72, 121, -263, -14, 95, 57, 122, -317, 3, 165, -52, -201, 25, 109, 43, -47, -10, -101, -32, -44, 118, -290, 117, -116, 49, -70, 55, 91, -2, 262, 110, 80, -180, 35, 49, 8, -99, -50, 38, 150, 71, -14, 65, -199, 89, -32, -66, -22, -319, -6, 98, 143, 152, 41, -42, 85, -57, -14, 177, -138, 110, -17, -135, -89, -63, 102, -12, -215, -88, 98, -1, -51, 43, 6, 120, -52, -58, 112, -2, 62, -48, -172, 149, 17, -11, 33, -127, -247, -29, 38, -20, 80, 111, -190, 56, 9, -179, 116, -70, -202, 60, -19, 19, -115, -51, -202, 88, 48, -64, -142, 11, -183, 6, -102, -99, 303, -140, -36, 144, 72, 85, 145, -160, -190, -11, 252, 187, 62, 19, 57, 159, -52, -250, -76, 223, -123, -34, 138, 79, 140, 104, 47, 114, 121, -114, -37, 50, -2, -131, 150, 161, 113, -208, -57, 110, 71, 22, 64, 91, 449, -49, -24, 9, 54, 277, 26, 19, -126, 177, 65, -43, -58, -62, 94, 183, 317, -70, 231, 247, 233, -15, -72, -65, 5, 99, 157, -110, -25, -82, 59, 3, -25, 146, 132, -152, 75, -24, 12, 23, 33, 53, 219, 159, -26, -22, -58, -161, 135, -12, 26, -9, 255, 16, 98, 99, 121, -120, 122, 12, 54, 65, 86, 9, -46, 43, 6, 257, 135, -169, 31, -110, 147, -8, 336, 55, 64, -263, 26, 25, 57, -10, -233, 40, 16, 382, -106, -62, 115, -420, 113, -103, -119, 366, -92, -111, -260, -280, -216, -5, -167, 141, -337, -187, 54, -489, 194, 123, -36, 93, 2, -101, -69, 43, -100, 22, -1, 41, 15, -165, -24, -26, 135, 174, 168, 53, -83, -127, -43, 141, -74, -232, 114, -4, 248, -49, 144, -58, -121, 78, 75, -28, 187, -320, -109, -96, 48, -11, -133, -44, -126, -245, 191, -3, -72, 13, -145, -6, -183, -298, -206, -44, 91, -82, -193, -3, -204, 39, 35, -38, -105, -32, -157, 301, 208, 109, -208, -64, 88, 196, -37, 283, 16, 13, -277, -98, -21, 213, 123, -27, -178, -200, -161, -144, -58, -81, -68, 40, -307, -454, 212, 71, -46, 168, -225, 104, -158, -450, -259, -16, -16, -124, 79, -474, 58, -119, 32, 71, -75, -151, -86, 86, 117, 46, 48, 120, 157, 91, -164, -116, 189, -34, 71, 197, -158, 146, 31, 66, -55, 182, 5, 25, 28, 29, 112, -79, 93, 13, -46, 56, 21, -69, 145, -4, 119, -101, -13, -135, 58, -47, -131, -32, -88, -161, 143, 31, -77, 187, -157, 113, 79, -205, 13, 80, 193, 16, -48, 110, 16, -36, -83, -272, 94, 112, 25, 321, 45, -70, -182, -109, 30, 19, -13, 246, -68, -33, -29, -456, -42, 296, 90, 14, -350, -28, -9, -203, -261, -199, -103, -110, -87, -49, -118, -192, -207, -155, 0, -119, -13, -88, -14, -48, -248, -79, -24, -185, 9, -152, -39, 24, -242, 148, -23, 28, -55, -40, -129, 203, 24, -59, 19, 91, 324, 239, 93, 9, -27, 16, 187, -12, 262, 221, 337, -62, -50, 130, 180, 156, 145, -53, 121, 84, 114, -63, 1, -166, 459, -95, 29, 318, 108, 109, 94, -373, 332, 13, -90, -86, 205, 57, 365, -14, 199, 247, -74, -57, 50, 48, -31, 33, 77, 387, -52, -52, -121, -45, -11, -70, 18, -192, 23, -106, -22, 64, 70, 213, -134, 18, -51, -29, -219, -37, -100, -125, 218, -231, 245, 34, 388, -4, 9, -197, -264, 324, -89, -67, -261, 238, -215, -96, 171, 134, 73, -160, -171, 110, 41, -254, -95, 70, -150, 166, -140, 60, -41, -53, 32, 48, 8, -15, -12, -176, 63, -19, 119, -112, -43, 214, -143, 37, 98, 9, -7, 28, 6, 6, 1, 55, 13, -97, 20, 38, -73, 158, 30, 19, -30}
, {-45, -10, -119, -18, -32, -68, -29, 117, 62, 25, -20, 77, -130, -31, -49, -81, -118, 2, -265, -20, -125, -256, -18, 9, -71, -162, -41, -5, -183, -12, -228, -91, 194, -130, -80, 71, 135, -30, 23, 79, 234, 62, -135, 246, 28, 108, -41, 77, 103, 203, -45, 183, 153, 135, 311, 174, -57, 193, -30, 173, 168, 144, 67, 68, 198, 47, 98, 209, 27, 77, 33, -163, 291, 133, -90, 170, 104, -54, -55, 332, -86, -141, 84, -3, 20, 59, -130, 125, 340, 38, 106, 185, 86, 46, -3, -172, -99, -76, 83, 29, 135, 131, -159, 55, 28, 163, 13, 148, 103, 27, 181, 155, -67, -59, -200, -230, -96, -230, 35, -134, -71, -180, -93, -74, -23, -58, -44, -41, 10, 44, -281, -99, -68, 43, 29, -96, -66, -244, -32, -165, -146, -247, -2, -44, -33, 242, -432, -98, 28, -70, -32, -250, 98, -117, -227, -134, -50, -115, -155, -121, -36, -46, 9, 49, -115, 123, -86, -27, -288, -160, 157, 77, -95, 2, 43, -56, -48, 57, 59, 111, -53, -98, 114, 121, -204, 91, -52, 249, 88, 183, -155, -28, 40, -50, -66, 78, 157, -152, 18, 219, 126, 278, 117, 2, 27, 300, -155, 58, -150, 20, -5, -5, -70, 32, -10, 78, -18, 5, -21, 69, 46, -37, -88, 59, -34, 74, -38, -145, -54, 15, -38, -90, -6, -52, -42, 76, 21, 76, 28, 30, -6, -129, -82, -261, 35, -71, 77, -245, 88, -4, -53, -23, 30, 68, -73, -142, 81, 45, 10, -183, -94, 28, 54, -94, 158, 140, 88, -59, -129, -273, 75, -26, -33, -67, 19, -52, -48, 110, -56, 84, -290, 79, 113, 27, 131, -106, -62, -6, -258, 111, 4, -33, -91, 34, -89, 49, -180, -34, -160, -66, 233, 85, -207, -64, 141, -122, -7, -56, -72, 61, -54, 121, 74, 267, -154, 19, -53, 49, -266, 71, -39, -132, -84, 120, 3, -27, -150, -44, 394, 66, -39, 164, -132, -37, 109, 37, 25, -3, -66, 124, -178, 50, 21, 162, 75, 81, -75, -162, 0, -17, -17, -33, 44, -218, -14, -123, -144, -105, 43, 36, 66, 175, 3, -207, -124, -22, 5, -13, 64, 112, 92, -66, -73, 141, -161, 64, 75, -11, 61, -98, -129, 24, -14, 87, -65, -96, -75, -123, 159, 21, -52, -110, -55, 157, 95, -37, -83, 98, -60, 199, -66, -75, 75, -234, 49, -57, 28, -223, 157, -13, 212, -89, -127, -128, -193, 265, 267, -338, 0, -42, -204, -277, -84, -162, 193, -274, -216, -172, -165, -20, -115, 5, -73, 154, -125, 66, -51, -41, 148, 13, -109, -109, 43, -260, -71, 40, 152, 232, 3, -213, 82, 93, -14, -207, -90, 120, 30, 124, 100, 28, 7, 114, -71, -60, -50, -79, 169, 96, 97, 61, -16, 112, 196, 53, -50, -91, 89, 56, -57, -79, -37, -73, 28, 134, 41, 75, -5, 180, -58, -55, 143, 7, -2, -128, -65, 32, 90, 67, 41, -8, 78, 133, 181, -239, 107, -26, 80, -39, -74, -99, -25, -9, 217, 72, 107, -504, -120, -17, 215, -348, 313, -374, -15, -47, -178, 42, 340, 100, 32, -491, -180, -328, -231, -203, -284, -389, 137, -269, -337, -187, -348, -221, 214, -63, -96, -69, -119, -117, -114, 8, 72, 18, -132, -37, 10, -12, -195, -16, 96, 188, 115, 54, 183, 101, -97, -26, 12, 72, 24, 13, 43, 58, 57, 40, -9, 40, -65, -275, 186, 125, 22, -36, -81, 24, -35, 44, 31, 42, 100, 10, -174, 30, 34, 106, -17, 135, 181, 176, 59, 83, -29, 140, -38, 174, 118, 7, 131, 138, 75, 143, 54, 73, 22, 144, 68, 66, -35, -169, -107, 104, -155, 113, -111, -150, 83, 52, -194, -368, -124, 19, 71, -257, -123, -446, -321, -192, -108, 20, 100, -495, 27, -26, -369, -32, -85, 105, -204, -179, -124, -209, -3, -319, 106, -189, 164, -39, -107, -70, 18, -17, 18, 5, -71, 2, 41, 134, -43, -45, 91, 61, 165, 112, 40, 60, -35, 90, -73, 131, -66, 67, 116, 59, 30, 82, 73, 17, 150, 165, -19, 37, 96, 78, 63, -143, 137, -82, 81, 75, -148, 56, 52, 55, -12, 32, -51, 56, -206, -16, -13, 131, 255, 65, 12, 75, -22, 64, -146, 61, -38, 108, 22, -35, 7, 56, 27, 112, 68, 49, 102, -172, 49, 31, 129, -105, 57, 62, -99, 44, -88, 126, 45, -36, -117, -35, -68, -215, 7, -22, 176, -5, -169, -81, 91, -50, 8, 83, -87, 51, -12, -4, -33, 61, -97, -130, 72, -49, -12, 62, -3, -37, -3, 57, -38, 8, -21, -34, 25, 45, -31, -18, 33, -31, 58, 118}
, {-42, 33, -128, -359, -88, 35, -25, -226, 35, 200, -24, 91, -202, -119, -51, -33, 83, 14, 71, -78, -155, 2, 55, -81, 180, 205, 131, -214, -73, 78, 10, 41, -32, 108, 206, 37, -25, 122, 102, -18, -3, 20, 5, 164, 58, -71, 9, -191, 49, -19, 167, 149, -82, -3, -61, -20, 2, 252, 242, 181, 56, -160, -79, 121, 110, -27, -171, -50, 96, -103, 125, 297, 378, 4, -143, -117, 58, 45, 243, 81, 176, -65, -160, -27, -155, 25, 2, 78, -50, -28, 116, -4, -64, 61, 69, 144, -56, 257, -63, 106, -56, 80, 290, -20, -47, 99, 14, 113, 78, 59, 37, 72, -51, 4, 5, -157, -155, -176, 193, -72, -70, -101, 70, -79, -58, 28, 81, 130, 143, 142, -121, 2, -34, 41, 3, -47, 87, -111, -230, -58, -24, -121, 31, -65, 86, 19, -81, -86, -28, 130, 53, -3, -127, 21, -30, 160, 52, 4, 81, 1, -214, 44, -115, 91, 155, 34, -114, -5, -203, 54, -97, -45, 9, 180, -98, -30, 69, 7, 78, 67, 42, -25, 37, 155, -21, 68, -15, 79, -19, 113, 119, -43, -55, 9, 6, 113, 145, 18, -52, -60, -17, 72, 9, 82, -10, -52, 73, 92, -88, 47, 119, 34, 163, 24, 7, 134, 8, 80, -80, 82, 140, 75, -131, 158, -31, 26, -95, 29, 141, 58, 124, -13, -53, 25, 189, 65, 119, 38, 30, 109, 92, -111, 124, 80, -149, -19, -109, 220, 29, 134, 175, -142, 75, -68, 62, 34, -82, -139, 139, 58, -26, -87, -151, 70, -188, -31, 14, -151, 229, -25, -76, 67, -187, -82, -142, 80, 99, -33, -144, 26, -87, -183, -265, 79, -2, -66, -68, -117, 18, -81, 15, -11, 152, -22, 45, -63, 181, -94, -30, 250, -179, 17, 70, -3, 214, 135, -96, 206, 107, 399, -62, 56, 64, 224, 55, 113, -3, 179, -283, 58, -25, 136, -11, 104, 269, 92, 96, -67, 214, 202, 126, 146, 5, 202, 40, -2, 163, 9, 137, 324, 181, 384, -313, 162, 26, 74, 132, -15, 74, 263, 236, 236, -34, 93, 124, 167, 180, 174, 74, 88, -154, 42, 180, -28, 73, 112, 62, 166, -195, 313, 346, 210, -47, 32, 231, -59, -167, -19, 130, 41, 31, 86, 38, 19, -250, 121, 144, 101, -83, 93, 30, -58, -37, 14, -8, 59, 240, 12, -198, -5, -156, 26, -173, 21, 28, -214, -48, 71, 30, -60, -74, 81, -6, -3, -350, -117, 93, -63, -159, 17, 217, 92, -162, 374, -207, -30, 41, 74, 30, 18, 56, -192, -89, -3, 150, -132, 147, 59, 161, 135, -62, -27, 380, 32, 23, 2, 20, -29, 127, 92, -109, -35, 95, 4, -49, 13, 135, 127, 26, -38, -183, -22, 90, 75, 139, 12, 84, -186, -102, 96, 208, -97, 115, 55, -175, -212, -214, -49, 168, 13, 176, 124, -99, -198, -98, -15, 148, -30, 221, 37, -127, -132, -289, 62, 161, 60, -25, -100, 0, 48, -3, 55, 93, 154, 29, 9, 56, -73, 74, 88, -85, 23, -131, 41, 33, 76, 51, 25, 13, -2, 152, -21, 94, -130, 103, -125, -21, 44, -138, 26, 73, 190, -15, -17, 73, 69, -65, 75, 163, -119, 169, 99, -216, 60, -14, -62, 91, -61, 103, 66, -11, 319, -83, -87, -4, 120, -64, -187, 27, -64, -1, 81, -135, -152, -43, -175, -96, -96, -53, 16, -23, 1, -237, 39, 13, -160, 75, -335, 26, -257, 5, -115, 60, -105, 51, 10, -138, -38, -464, -46, 5, 21, -29, -239, 183, -36, -64, 115, -265, 41, 16, 13, 79, -72, 2, -89, 174, -39, -70, 31, 58, -1, -1, 101, 12, 3, -20, 82, -58, -17, 32, 3, -97, -23, -191, -8, 52, 6, 82, 241, -1, 62, 25, 105, 186, 42, 23, -68, -87, 29, -27, 259, 99, -28, 17, 310, 31, 154, 41, -185, 132, 58, 66, -19, 265, 78, -103, 93, 171, 62, -36, 107, 113, -113, 18, -176, 162, -65, 81, 293, -1, 45, -73, -15, 11, 170, -28, -107, 14, 74, 13, -60, -65, 119, 107, -34, 197, -31, -81, -126, -6, 158, 21, -105, -242, 94, -94, -139, -27, -82, 124, 109, -7, -101, -36, -129, -116, 145, -60, 6, 218, 91, -77, -33, -186, -135, 23, 81, 19, 169, 93, -12, 277, -2, -38, -331, 170, 41, -90, 193, -294, 14, 214, 66, 115, 219, 46, -102, 26, 114, 196, -309, 199, -150, -91, 32, 67, 106, -31, 44, -57, -12, -20, 86, -79, 43, 126, -112, -134, 15, 16, 226, -151, 133, -36, -40, 27, 233, 20, -44, 25, 94, -7, 48, 31, -46, 230, 117, 16, 222, -66, 10, -18, 90}
, {-161, -19, 7, 147, -2, -1, -2, 29, -30, -22, 63, 146, 32, 50, -25, -31, -111, -258, -19, -185, 8, -100, -149, -239, -167, -76, -198, -138, -129, -48, 92, 47, 26, 6, -164, -442, 166, 137, -61, -293, 54, 104, -64, -330, -24, -282, 75, -17, -64, -35, -51, -237, -37, -26, -164, -67, -24, -204, -71, 38, -51, -93, -7, -74, 138, -31, -58, -139, -25, 85, -76, 154, 13, 177, -19, 98, 3, -22, 32, 296, -5, 159, -38, 199, 52, 124, 87, 206, 11, -4, 0, 239, 71, 55, 282, 218, 14, 53, 29, 205, -5, -227, -41, -7, 190, -116, 72, -21, -99, 72, -97, -162, -14, -205, 131, 17, -48, -240, -47, 47, -15, -3, 20, -41, 101, 143, 66, 257, -13, 139, -17, -35, 93, 52, 56, -233, -34, -126, 61, -145, 38, 62, 46, 31, 77, 36, -184, -217, 30, -48, 169, -51, 155, 76, -127, -566, -140, -35, 25, 159, 214, 40, -56, -142, 25, 42, 92, -263, 188, -187, -67, -203, -105, -182, 184, 62, 274, 143, -22, -179, 2, -17, 67, -192, 206, -117, 92, -109, 14, -39, 301, 208, 89, 193, 104, 221, 58, 129, 90, -13, 7, -89, 148, 162, 97, 178, -17, 112, -41, 182, -38, 178, -49, 189, 208, -39, 0, 65, 107, -86, 208, 167, -80, -56, 67, 141, 7, -85, -4, -38, 211, 59, 62, 84, -98, 96, 171, -30, -80, 19, 114, 38, 178, -113, -134, 91, -99, -74, 161, 1, 84, -375, -52, -162, -16, 0, 125, 35, 57, -167, -104, 61, -22, -131, 144, -32, -210, -486, -30, -71, 92, 1, 109, 4, -47, -203, 92, 47, 104, -447, 141, 113, 98, -218, -122, -188, -89, 62, 328, 25, 39, -125, -76, 85, 147, -96, 180, -177, -38, -135, -31, -128, 187, 206, 174, -33, 88, 49, 105, -59, 76, -3, -142, -57, 27, -67, -78, 129, 52, 62, -6, -90, 27, 98, 122, -37, 16, 94, 32, -206, 105, 54, -183, -85, -57, -99, 37, 4, -14, -69, 196, 127, -181, -54, -46, 60, 67, 163, 124, 151, 67, -86, 85, -61, 1, -55, 206, 50, -69, 128, -30, 73, 163, 26, 2, 85, 70, 53, -231, -82, 240, 137, 133, -166, -114, 121, -61, 245, 1, 95, 204, -14, 21, 122, -88, 34, -28, 183, -75, -10, -38, 114, 165, 101, 100, 109, 87, -2, -375, 23, 21, 38, -18, 1, -169, 34, 88, -166, 186, -160, -109, 89, -129, 44, -7, 48, 61, -79, -129, 121, 189, 79, -128, 25, -13, -45, -121, 96, 22, 170, 133, -173, 5, 49, 71, 36, -198, 13, 50, 14, -16, -121, 29, -140, 83, 32, -111, -45, -13, 22, -141, 257, 55, 132, 180, 161, 31, 11, -27, -1, -25, 73, 1, -29, 46, 183, -100, -117, 65, 14, 143, -71, 83, -2, 71, 44, -68, 99, 159, -113, -49, -21, -112, 17, 102, 23, 81, 44, 8, 71, 29, -120, -296, -6, 123, 88, -41, -30, 35, -184, -91, -236, 62, -63, 123, 20, -64, 21, -15, 165, 60, 49, -66, -165, -60, 65, -18, -9, 24, -19, 24, 15, 12, -14, -63, -28, 30, 146, 118, -181, -79, -47, 53, -85, -74, -17, -395, 192, -46, 9, 38, -59, 16, 130, -52, -218, 67, 74, -36, -53, -8, 181, 142, -79, 131, 97, -129, -48, -138, -72, 35, -275, -111, 85, -8, 15, -181, 37, 108, -39, -119, -43, 30, 126, 54, -295, 117, 2, 16, 58, -40, 68, -107, 144, 85, 74, 57, -93, -224, 160, 141, 104, -74, -38, 88, 48, -133, -8, -4, 44, 64, 55, 80, -107, -64, 69, 22, -26, 19, -55, 70, 85, -115, 62, -85, 90, 176, 133, 120, -29, 130, 71, 65, 58, 22, -74, 53, 59, -41, 93, 46, 34, -7, 128, 32, -56, 69, 52, 135, 55, -91, 27, 125, 277, 26, 189, 248, 238, -95, 73, 90, -4, 23, 91, -133, 111, -37, 52, -50, -64, 102, 60, -73, 44, -87, 59, 15, 16, 109, -137, -94, -98, -171, 152, -17, 114, 64, 39, 13, 224, -195, 94, 72, -82, 145, 54, -19, 138, -64, 44, 107, -1, -139, -93, 93, 104, -47, 0, 20, -6, 60, -7, 77, 91, -33, 60, -125, -153, -85, 81, -108, -265, 133, -34, -4, -27, -14, -91, 45, -256, 96, -107, -135, -67, 57, -26, -85, -173, -25, -22, -99, 46, 19, -69, 240, -40, 19, -111, -3, 39, 72, -42, -63, -41, -148, -296, 164, 4, 162, -34, -44, -227, 14, 27, -178, 92, 82, 159, 29, 76, -202, -115, 129, -58, 85, -80, 3, -86, 1, 0, -9, 64, -9, 4, 12, 129, -125, -77, 32, -67, 165, 14, 27, -130}
, {-78, 42, 125, 78, 28, 76, -18, 14, -64, 136, 79, -49, -151, -20, 32, 107, 72, -18, 70, 219, -97, 217, 12, 523, 25, 278, 172, 189, -149, 321, -280, -64, 37, -58, 101, 251, 69, -261, -81, 154, -166, -422, 190, 6, 20, 5, 178, 155, 40, 92, -155, -6, 34, -106, -173, 181, -177, 75, 88, -28, -28, -43, -79, -126, -13, -28, -30, -66, 135, -133, -415, -4, -328, -281, -94, 66, 25, -15, -283, -297, -88, 53, 165, -122, -68, 47, 113, -247, -214, -10, -213, -139, 100, -105, -35, -137, 44, -276, -100, -241, -131, 38, -200, 180, 45, 38, -33, 132, -155, -120, -28, -1, -196, 105, -242, -131, -188, 31, 8, -107, -143, -100, 39, -2, -148, -90, -62, -25, -14, 104, -283, -156, 155, -10, 14, -196, -34, -229, -37, -36, -21, 14, 133, -78, 56, 98, -110, -21, 218, 104, 184, -21, -12, -257, -35, 68, 15, -37, -45, -31, 21, -17, 51, 22, 8, -77, 186, -27, -94, -121, 140, 10, 71, 39, -10, 100, -224, -45, 8, -208, 175, -131, -112, 83, 18, 248, 10, -221, 56, 74, -108, 163, 153, -105, 40, -75, -318, -58, 31, -92, -31, -393, 44, -279, -139, 9, -262, -257, 52, 211, -73, 15, -218, -280, 49, -232, 155, -159, 28, -222, 27, 135, 170, 218, 62, -292, 27, -84, -106, -160, -291, -52, 83, -108, -207, -164, -83, -107, -108, -147, 4, 139, 11, -16, 36, 24, 102, -21, -32, 11, 19, 3, 2, 114, -52, -18, -20, 164, -143, -61, -38, 239, -9, 114, -50, -136, -170, -42, -134, 146, 61, -128, 52, -2, -316, -15, -76, 134, 45, 48, 82, -107, -1, 17, -164, 51, 43, -60, -243, -40, 83, -152, 142, -116, -65, 227, -34, 291, 110, 19, 118, 99, 5, 146, 220, -49, 56, -172, -32, -219, -46, -115, 68, 84, -10, -120, 160, -290, 395, 5, 119, -24, -65, -12, -275, -19, -94, -28, -13, -61, -108, 32, 1, -38, 115, 68, 104, -105, 186, 81, -107, 86, -206, -79, 65, 103, 142, 71, 89, -5, 175, 157, -32, -172, 61, -52, -50, -378, -17, -12, 15, -38, 23, -180, -76, 2, -6, -85, 15, -110, 92, 0, -32, 24, -281, 115, 46, 33, 48, -3, 105, -122, -81, -67, -69, 71, -201, 104, 5, 173, 144, 89, -12, 118, 29, 104, -71, -44, -45, -115, 173, 81, 108, -57, -51, 103, 143, -187, 254, -26, -7, 4, -70, -67, 148, 40, 257, 40, 52, -96, -181, -47, 72, -269, -73, -82, 1, -22, -126, 111, 134, 52, 8, -33, 1, 49, -102, 77, -28, 49, -10, 88, 147, -4, -166, 23, 217, 242, 16, 29, 248, -247, 39, 75, 65, -3, 14, 104, -1, 50, 138, 109, 141, 295, -233, -58, 180, 31, 113, -314, -163, 145, -124, 122, 211, 72, 11, 278, -150, 130, -220, -149, 222, 128, 93, 19, -78, 158, -292, 66, 172, 262, 150, 81, -326, -35, 4, -10, -89, -76, 18, 105, -202, 14, 197, 80, -49, -116, 168, -68, 12, -220, -10, 39, 69, -62, -117, 1, 93, -40, 328, 157, 154, 17, -45, 49, -118, -14, -57, -87, -19, 7, -20, 129, -101, 143, 68, 86, 114, 77, 118, -20, 14, -73, 72, 264, 101, 146, -56, 26, 292, 88, -161, -4, 138, -161, 275, 201, 43, 220, 17, -83, 84, -62, -113, 7, 58, -11, 0, 26, -72, 49, 163, -117, 23, 100, -51, -22, -113, 35, 108, 13, 43, -57, -155, -15, 88, 60, 242, 56, 68, 26, -16, 162, -69, 117, 91, 96, 90, 0, -98, 20, -2, 39, 36, 76, 32, -26, -55, -17, 151, 138, -100, 35, 58, 63, -236, 42, 42, 116, 82, 39, -15, -173, 82, -9, -37, 61, 37, -150, -8, -32, -42, 14, -75, 8, 398, 71, 52, -12, 34, 119, 61, 411, 77, -54, -31, 4, -204, 293, 220, -46, 317, 62, -83, 60, 75, 196, -23, 136, 87, 240, -123, 40, 276, 111, -25, 189, 7, 71, -34, -11, 83, 22, -87, -43, -188, 149, -93, -111, 141, 97, 9, 68, 15, -88, -13, -88, 41, -193, -74, -79, 98, 10, 59, -73, 93, -25, -139, -9, 1, -129, -164, 76, 102, -28, -169, -24, 51, 77, 74, -94, 83, 115, -154, 2, -35, 23, 19, 60, -84, -82, 110, 28, 126, 0, -15, -3, 1, 27, 12, 102, -30, -9, 98, -58, 40, 70, 171, -160, 39, 31, 62, 67, 55, 78, 17, 104, 6, -93, 127, -25, 32, -56, 82, -74, 180, -50, -94, -28, 135, 43, 106, 181, 13, -47, 22, 93, 27, -35, -18, -88, -1, 26, 11, 29, -53, -72, 43, -46, 9, 0, 42, 63}
, {50, 43, -60, 98, 147, -42, 36, 172, 66, -6, 152, -119, 24, 85, 110, -15, 6, -32, 183, 129, -233, 182, 66, 229, -6, -181, 62, 200, 22, 174, -12, 47, 82, -292, -11, 53, 132, -140, -86, 247, -81, 33, -75, 22, 7, -96, 198, 128, -18, -211, 178, 82, -119, -34, -237, 44, -139, 176, 21, 25, 42, -36, -75, 142, -128, 55, 54, -99, 255, 23, 219, -285, -32, -496, 60, -75, 116, -129, 159, -18, -9, 14, 60, -174, -31, 20, 130, -169, 75, 20, 60, -206, 61, -175, -313, -103, 64, 126, -103, 21, 38, -22, 112, -174, -25, 124, -26, -127, -35, 64, 111, -11, 61, 156, -161, -40, -48, 157, 106, -68, -16, -3, 148, -17, 45, -109, 104, 190, -102, 188, -251, 33, 91, 123, 45, -10, -91, -24, -78, 43, -80, -13, 6, -65, -29, -4, -26, -50, 354, 21, 88, -18, 46, -75, 3, 63, 55, -44, -99, 32, 91, 103, 11, 62, -28, 67, 95, 3, 29, -72, 88, 68, 41, 61, -46, 73, -497, -154, 32, -166, 6, -155, 29, -4, 2, 70, -6, -43, -105, -56, -79, 209, 294, -137, 6, -148, -236, -88, -106, -341, 225, -413, -83, -110, -135, 85, -290, -161, 167, -17, -75, -75, -50, 50, 2, 113, 32, -88, 88, -39, -208, -33, 53, 63, -42, 173, -32, -81, -132, -10, -103, -22, -1, -18, -133, -11, -43, 53, 56, -35, -28, 25, -266, -31, -96, 59, -8, -118, -19, -130, -174, 16, -15, 75, -5, -141, 206, 48, -170, -20, -18, 172, -15, 142, 10, 61, -26, 117, -192, -77, 54, -97, 45, 303, -24, 102, -64, 208, 56, -67, -200, -241, 48, 39, 115, 26, -28, 53, -122, 132, 18, -212, -117, 209, 34, 21, -157, -229, -82, -96, 159, -33, 10, 50, 274, 44, -92, -306, -120, 60, -35, -219, -72, 70, -124, -129, -54, 39, 63, -60, 61, -165, -43, -34, -327, 172, -137, -121, -33, -339, 27, -300, 0, 26, 222, 109, -74, -262, 311, 135, -301, -222, -243, 65, -102, -80, 131, -98, 142, -204, -29, -29, -118, -115, 25, 202, -18, -219, -153, 89, 40, 85, -25, 47, 33, -88, -103, -142, 67, -183, -64, -41, 25, -35, -220, 240, -6, 153, 104, 115, -7, 50, -118, -21, -36, 196, 78, 132, 279, 87, 110, 105, -165, 134, 82, 188, -76, 110, 82, 5, -316, 4, -13, -51, -107, 105, 8, -162, 77, -110, 25, 72, -145, 121, 182, 6, 192, 120, -41, -13, -134, 47, 3, -412, 42, -202, -143, -210, 108, 20, -100, -244, -20, 362, 34, 248, 108, 77, 356, -50, 75, 211, 335, 57, 53, 165, 19, -128, -31, 48, 106, -14, -54, -180, -40, 176, -38, 83, 99, 3, 148, 144, -3, 234, -69, -189, 16, 73, 10, -112, -166, 124, -40, -29, -148, 64, 175, 126, -223, -101, -79, -32, -138, 183, 95, 70, -274, 212, -66, -24, 96, 265, 71, 230, -137, -233, 40, 14, 208, 39, -79, 87, 9, 140, -56, 79, 96, 118, 49, -23, -20, -28, 45, 51, 72, -209, 13, 20, 8, -17, 123, 211, 210, -30, 215, 152, 64, 135, 72, -45, 81, 78, -195, 120, 11, 57, -10, 112, 40, -53, 70, 88, 218, 111, 198, 345, -20, 0, 126, 99, 354, 25, -112, -2, 182, -124, 127, 81, 91, -176, -69, -46, 59, 62, -121, -50, 153, -6, -191, -85, 13, -13, 174, -35, -72, 138, -5, 71, -126, 65, 59, -87, -94, -143, -75, -57, -42, 83, 403, -179, 33, 43, 159, 119, -138, 65, 17, 102, 113, -39, 153, -118, -35, 79, 150, -72, 20, -25, 164, -6, 8, 11, -6, 115, -18, -52, 63, -11, -151, 52, 14, 32, 182, 68, 210, 41, 100, 153, 78, -108, 100, 144, 48, 64, 82, 31, 318, 8, 136, 243, -117, 24, 50, 282, 46, 199, -8, 32, 79, 118, 116, 19, 149, 143, 132, 295, 39, 56, 103, 250, -78, 38, 51, 164, 289, -6, -36, 67, 68, 189, 117, 14, 105, 234, -59, 7, 74, 260, 14, 0, 58, 338, -24, 47, -126, 87, 214, 176, -19, 68, -90, -138, 92, -67, 298, -114, 152, 100, 81, 146, -59, -104, -88, 166, 63, -22, -249, -10, 125, 17, 239, -48, 7, 116, 52, 188, -326, 76, -93, 43, -65, -8, -179, -44, 147, 303, 122, -54, 61, 17, 290, 94, -32, -100, 17, 26, 1, -9, 89, -86, 123, 119, 65, 28, 65, 101, 44, 92, 124, -4, 102, 174, 44, -74, 206, -31, 222, 95, -5, 35, 44, 106, 114, 119, 68, -32, -14, 75, 35, -3, -24, 24, 52, 15, 28, 51, -73, -96, -1, -101, -21, -27, 29, 85}
, {90, -2, 96, 134, -11, 14, 6, 120, 228, 281, 60, 43, 280, -30, 131, 133, 94, 204, -71, -115, 220, -48, 40, -168, 133, -2, 91, 291, 96, -124, 144, -39, 14, 239, 190, 119, 31, 1, 11, -37, 77, -137, 30, 238, 128, 272, 40, 102, 79, 207, -126, 71, -15, 2, 10, 134, -43, -104, 42, 279, 72, 97, -33, -56, -8, -123, -151, 151, 7, -135, -146, 32, 130, 276, -96, 128, 12, 194, -69, 158, 24, -161, -38, -30, -251, -68, -142, 344, 21, 32, -42, 137, -42, 16, -12, -232, -20, -76, 269, -15, 13, 18, -82, 221, -70, 92, 55, 104, 76, -23, 97, -20, -31, 43, -9, -48, -22, 141, 1, 25, 0, -81, -189, 263, -50, 94, 11, -273, 75, 13, 64, -89, 38, 149, 95, -119, -35, -224, -31, 152, 168, -224, 47, -5, -52, 199, -171, 97, -112, 142, 87, 40, -134, -214, -71, 21, -77, 107, 99, -161, -151, 5, 11, -28, -58, -4, 74, -13, -133, 142, 26, -36, -50, -25, -10, -240, -109, -211, 6, 50, 95, -51, -148, 161, -364, 167, 28, -16, 115, 38, -152, -19, -200, -106, 89, -75, -114, -105, -12, 239, -257, 130, 89, -14, 211, -6, -83, 155, -59, -51, -54, 32, 181, -226, -76, -48, 22, 55, -38, 86, 131, -43, 24, 89, 151, -168, 69, 69, 144, 116, -162, 100, 132, 44, 128, -45, -36, 104, 95, -63, 180, 125, 269, -4, -44, 40, -30, -63, 57, 116, 202, -146, 53, -62, 137, 249, -177, 54, 76, -67, -259, 29, 74, -68, 1, 64, 25, -164, 172, -109, -48, 59, -74, 5, -8, 11, -40, 96, 79, 79, 89, 112, 16, -14, 30, -26, -31, 20, 21, 155, 4, 26, 54, 115, 16, -75, 27, 92, 255, 40, 26, 60, -105, 108, -16, 241, 370, 51, -107, 142, 288, -131, 253, -334, 391, -31, 101, 60, 57, 516, 8, 311, 52, 202, -59, -108, 96, 13, 118, 54, 109, 27, 63, 96, -120, -43, 171, -238, -90, -140, 151, -78, 217, -66, 217, 104, 47, -79, -237, 156, 50, 147, 136, 244, 59, -514, -13, 78, 120, -78, 76, 44, 181, -242, -314, 127, 37, 303, -32, 205, 140, 17, -6, 93, 244, -217, 41, -23, -50, -86, 73, -55, 80, 38, 111, 87, -123, -53, -159, 100, 89, -235, 118, -14, -128, -47, -104, 4, -40, 21, 187, 64, -34, 88, 100, 110, 139, 31, 45, -110, -40, 39, 45, 128, -183, 82, 103, -180, -85, -210, -61, -95, 27, -285, 122, -297, 5, 130, -202, 244, 38, 187, 126, -317, -66, -339, -25, 21, -128, -99, -47, 62, -100, -106, -178, -169, 128, 171, -43, -170, -102, -146, 13, 64, -18, -154, 77, -23, 69, 30, -143, -71, 89, -132, 117, 79, 26, -208, 111, 109, -49, -109, 82, 27, 36, -201, -148, 3, 158, 13, 47, 103, 52, -70, -39, 198, 121, 64, 35, 64, -88, -241, -105, -147, -54, 179, 71, -128, 37, 48, 1, 64, 105, -134, 239, 68, -129, 28, -81, -56, 131, -57, 51, 7, -26, 40, 13, -3, 25, -105, 131, 0, -131, 39, -9, -22, -112, -99, -2, -30, -124, -82, 94, 21, -99, -67, -5, -95, -102, 20, 50, -58, -74, 51, -133, 117, 132, 235, 63, 9, 88, 39, 113, -122, -75, -44, -50, 135, 38, 183, 115, -35, -39, -69, -1, -155, -122, 26, 82, 43, 3, -4, 19, 12, 52, -178, 79, 1, 140, -15, -31, -15, 65, 81, 67, 58, 95, -56, -230, 26, 55, 87, -55, -75, 229, 71, 6, 9, -40, 9, 52, 71, -64, -9, -153, -69, 158, 44, -63, 5, 51, 125, -110, 44, -108, 118, -31, 61, 67, 29, 158, -75, -252, 107, -102, -83, 23, -40, -16, -109, -116, 14, -92, 24, 37, -93, -219, 5, -173, -159, 35, 92, -126, -172, -156, -231, -72, 1, -159, -125, 31, -108, 215, 102, -145, -40, 33, 75, -160, 59, 22, 204, -194, -32, -72, -60, -50, -63, -26, -49, 24, 50, 40, 1, 112, 115, 122, -138, 14, 97, 61, -86, -19, 221, 146, 13, 94, -82, 122, 49, 234, 112, -6, 259, -106, 200, 116, -1, 139, -52, 193, 47, 113, 30, 107, -256, 336, -68, -28, 128, 105, -73, 174, -329, -137, -199, 464, -19, 167, 100, 102, -29, 159, 37, -24, -117, -115, -8, -181, -44, -239, -57, 178, 225, 89, 176, -80, 205, 118, 172, 64, -156, 239, 155, 26, 221, 12, 105, -100, 191, 89, 76, -138, -49, 260, 90, -16, 64, 183, 122, 338, 100, 117, 219, -37, 206, 15, 174, 13, -12, -35, 102, -41, 31, -16, 80, 31, -48, -21, -46, -86, -17, -15, 1}
, {-24, 58, 50, -54, 30, 80, 3, -163, 34, 41, 35, 142, 44, -117, -144, -40, 89, -337, -23, 58, 196, 28, -9, 319, 97, 388, 40, -384, -10, 222, -14, -43, 56, 181, 51, 78, -314, 88, 22, 36, 132, 185, 37, -558, -150, 214, -134, -34, -28, 35, -134, -179, -7, -66, -28, -215, -19, -183, -23, -191, -118, -347, -24, -31, -15, 16, 12, 81, -82, -96, -145, 175, -99, -202, 17, 3, -120, 264, 149, 123, -32, 36, -75, -35, 97, 54, 46, -133, -286, -43, 150, -11, 43, -179, 260, 262, -51, 234, 103, 292, 49, -161, 71, 113, 421, -135, -5, 39, -50, 316, -44, -29, -57, 85, 163, 136, -13, -170, -123, 92, -7, 109, 90, 12, 71, 183, 45, 30, 22, -129, 126, -28, 171, -67, 32, 63, 134, 206, 154, 182, -14, 207, 42, 51, -37, -90, 162, -316, 59, -158, -111, -22, 102, 262, -14, -195, 15, 16, 81, 167, 434, -100, -37, -145, 29, -27, -102, 112, 216, 58, 69, -57, -124, -192, 268, 270, 188, 119, -89, -169, -78, -7, 22, -354, 66, -225, -190, -285, -44, -90, 10, 59, 145, -66, 6, -148, 56, 105, 93, -14, -89, -211, -79, 11, -7, -205, 216, 210, 6, 87, 47, 161, -32, 211, 92, 54, -48, -161, 121, -80, 5, 117, 39, 115, -3, 237, 91, 28, 173, 34, 173, -27, -15, 36, 15, 214, 123, -183, -108, -126, -57, 41, 46, -30, 156, 43, -4, 135, -113, -52, 107, 94, 236, -151, 7, -76, 63, 77, 125, 154, 29, 33, -13, 87, 89, -68, 36, -50, 390, 266, 16, 22, 90, -237, -89, -34, 25, -93, -12, -70, 91, 97, -15, -175, 105, 60, 47, 131, 296, -19, 34, -10, -31, 62, 69, -249, 128, -8, -27, -207, 62, -209, 311, 214, -9, 12, -22, 154, 56, 143, 26, 111, 71, -143, -420, 34, 9, -2, 477, -480, 46, 57, -58, -24, 83, -99, 34, 45, -115, -13, -12, 59, -52, -34, -35, 49, 70, 393, 76, 91, 191, 249, 57, -18, -79, 46, 54, 165, 4, 109, 114, 66, 143, 240, -31, 180, 50, 158, 159, -28, 24, -62, -1, 64, 26, 37, 126, 5, -46, -58, -27, 135, 59, -42, 188, -56, -1, -10, 11, 22, -53, 68, 221, 90, 105, -99, -22, 116, -94, 3, -196, 180, 107, -23, 68, -119, 112, 12, 8, 107, 34, -10, 157, 144, 24, 259, 61, -61, -83, 38, 51, 97, 83, 37, 146, 43, -264, -138, -32, 209, 192, 14, 103, 376, -115, 302, -49, 143, 136, 74, 463, -168, -73, 163, -67, 44, 71, 260, 201, -2, -276, 56, -168, -114, 257, -1, -144, -105, -24, 254, -49, 165, 206, -31, 297, 42, -15, 21, -122, 56, -198, -22, 91, 172, 85, 310, 121, -90, -46, -125, 0, -176, 71, -5, -121, -1, -267, -56, 76, 77, 207, 23, -167, -222, 49, 133, -66, -114, 41, 26, -63, -29, -35, -69, 52, 174, 65, 34, -14, -218, 36, -61, 27, 14, -48, 162, 126, -18, -207, 153, 82, 73, -106, -3, -2, 245, 5, -145, 2, 197, -167, 133, -102, 238, 27, 123, 80, -137, -166, 47, -143, 130, 292, -23, -43, -36, -9, 223, -4, 233, -33, -116, 193, -139, -45, -207, 2, 71, 222, -15, -41, 233, 175, 17, 168, 307, -125, -21, -93, -94, -77, -60, -83, -97, 61, -32, 16, -41, -7, -59, -141, 42, 152, -81, -48, 63, -69, 144, -112, -249, 79, 5, -79, -116, 52, 28, -127, -49, -309, 4, 73, 84, 37, -4, -60, -133, -45, -119, -85, -32, 55, 49, 62, -99, -601, 86, -89, -1, -36, -107, 94, -210, -5, -190, 15, -52, 130, -75, 85, -91, -60, 96, 36, 60, -23, -79, -69, -27, 105, -77, -122, -114, 12, 156, 145, 47, 132, 129, 137, 122, -141, -7, -46, 348, 179, -178, 37, 27, -25, 127, -145, 38, 26, -97, -306, -103, -42, 118, -110, -98, 139, -10, -168, -26, -73, 142, 80, 7, 25, -188, -110, -24, 102, -111, 20, -53, -46, 36, -1, 45, 191, -15, 8, 87, 36, -140, -45, -91, -18, -87, 91, 27, 94, -26, -69, 32, -77, -157, -260, -11, 86, 53, 59, -12, -48, 101, 205, 46, 17, -168, -205, -29, -68, -59, 73, 5, 220, 87, 137, -135, 45, -45, -184, -44, -32, -79, -345, -133, -100, -48, -40, -14, -130, 74, 4, -172, 80, -211, -11, -50, 36, 52, -148, 2, -7, -126, 64, -35, 30, -14, -288, -175, 107, -31, -198, 37, -169, 119, -104, 36, -260, -383, 16, -223, -55, -79, -9, -338, 83, 6, 19, 16, -13, 20, 56, 75, -101, -24, 7, -64, 93, 19, 25, -148}
, {32, -29, 26, 27, -89, 30, 26, 34, 40, 32, -90, 18, -85, 71, 52, 99, 97, 321, -120, -85, 8, -78, 1, -139, 171, 136, 69, 5, 86, -60, 38, -2, -61, 110, 113, -47, -73, 173, 258, -194, -9, 11, 2, 133, 32, 288, 136, 87, 109, 307, 55, 53, 154, 79, 379, -200, 231, -155, -65, -58, -41, 190, 195, 203, 387, 152, 82, 79, -211, 130, 432, -23, 195, 284, 197, 310, -56, -2, 35, 375, 244, 45, 119, 101, 77, 57, -7, 231, 366, 92, 44, 388, -69, 192, 20, -56, 18, -80, 129, 114, 182, 237, -49, -40, 120, 72, -5, -29, 150, 100, 192, 102, 8, -171, -253, -135, -11, -77, 1, -61, 81, -53, -110, -34, -187, -99, 0, 21, 128, 101, 297, -2, -208, -78, -98, -68, 168, -8, 34, -271, -73, -92, 41, 144, 43, 86, 98, 51, -133, 5, 9, -13, 81, -191, -31, 160, 64, 74, 106, 69, -87, 200, -100, 117, -49, 32, 27, 78, -193, -202, -130, 283, -23, 195, 90, -77, -35, 186, -152, 227, -203, 38, 4, 232, -39, 20, -108, 328, -188, 222, 69, -385, -161, 49, -129, 333, 57, 58, 50, 411, 42, 286, -215, 276, -87, 243, -54, -434, -40, -22, -19, -152, 53, 36, 55, 187, -149, 121, 74, 251, 2, -95, -132, -7, -4, -275, -85, -97, -126, -52, 71, -8, -30, 3, 147, -256, 3, 8, 76, 118, 118, -47, 200, 27, 8, -164, -62, 15, 103, 69, 35, -287, -281, -48, 113, 133, -66, 4, 210, 67, -3, -90, -72, -41, 55, 1, 96, -118, -143, -16, 43, 143, -103, -82, -84, 230, -53, -127, -106, 83, -163, -70, -140, 62, 193, -51, 141, -104, -222, -210, -192, 290, -1, -204, -374, 40, -252, 65, -74, 81, 111, -104, -34, -349, -104, 2, -185, 273, 210, 167, -252, 145, -230, 335, -173, 20, 112, -44, -242, -116, 9, -66, 33, 28, 112, 56, 63, 79, 259, 196, -75, 131, -134, 36, -65, -94, -49, 7, -20, 83, 51, 80, -145, 203, -65, -16, 66, 19, 25, 145, 122, 53, -67, -143, 39, -53, 233, -32, 104, 8, -19, 159, -19, 62, -38, 30, -55, 36, -2, 73, 245, 36, -80, 63, 13, 26, -69, 72, 199, -91, -166, 28, -63, -16, -99, -144, 139, 147, -95, -101, -1, -5, -61, 86, 51, -178, 34, -41, 61, 29, -232, -110, -8, -13, 20, -116, -39, 120, -133, 81, 101, -141, 104, -92, -364, -21, -55, -174, 101, -140, 87, -121, -70, -91, 70, 115, 117, 43, 102, -278, -234, 203, -22, -5, 65, -96, -67, -118, 56, -29, -5, -70, 125, -43, 0, -70, -37, 12, -59, -178, 178, 46, -16, -18, -153, 65, -81, -73, 5, 1, 63, 15, -75, 43, -34, 16, -54, 82, -60, 81, -150, 34, -105, 74, 56, -15, 172, -4, -60, -93, 29, -66, -80, 26, 62, -42, -159, 79, 76, -10, -152, -155, 131, 124, -5, 41, -59, -76, 4, 71, -42, -2, -89, 99, -183, -36, 92, 71, 43, 39, 8, 146, -68, -8, 58, 16, 108, 88, 26, -3, 99, 9, 77, -27, 53, 26, -34, 31, 73, 126, 64, 69, 101, 91, 0, -65, 89, -56, 25, -101, -48, 2, -21, 278, 32, 117, 71, 8, -29, 70, -38, -191, 84, -123, 40, 5, 180, 62, -21, 121, -43, -7, -35, -46, -13, -32, -101, 21, -32, -15, -105, 34, -139, 83, -80, -74, 22, -106, -65, 146, -36, -56, -14, 7, 8, 45, -71, 42, -112, 0, -21, -84, -342, -122, 2, -19, 110, 125, -129, 14, -227, -43, 65, 92, 79, -76, -98, -29, -96, 128, -62, 118, 108, 33, -7, 148, -197, 2, 95, 64, 52, 105, -140, 75, -75, 155, -124, -73, 40, 273, 99, 19, 145, 3, 13, 40, -324, 6, -69, -26, -83, 56, 79, -222, 13, 178, 25, 58, 203, -169, 28, 19, -133, 113, 252, 198, 90, -44, 191, 82, -92, -132, 80, -19, 138, -20, -31, 14, 76, 65, -29, 34, 44, -277, 42, -11, -185, -89, -35, -13, 82, -222, 12, -153, 214, -255, -30, -35, 124, -7, 9, -2, -96, 171, -103, -41, 136, -42, 165, 15, 183, 15, 241, -57, -25, -118, -98, 7, 51, -58, -48, 100, 16, -25, 159, -49, -1, 47, -164, 42, 18, 233, 126, -9, 40, -122, 206, 145, -71, 93, -35, 113, -21, 45, 131, 219, 149, 118, -215, 39, 25, 128, 27, -40, 187, 55, -172, 99, 18, 1, 109, 148, 49, 87, 84, 5, 138, -65, -109, 8, 103, 344, -31, 131, 149, -47, -23, 320, -61, -37, 10, 35, 49, -7, 18, -94, 205, 135, 33, 222, 126, 38, 41, 53}
, {-25, -42, -21, 124, -57, -10, 15, 118, -198, 18, 35, 50, 23, -29, 5, -33, 31, -3, -210, 47, -72, -5, 32, 20, 138, 178, -14, -7, -3, 7, -159, -83, -41, -6, 17, -63, 58, -99, -56, -145, -106, 132, 49, -22, 21, 17, 45, -221, -40, 74, -226, -233, 72, -278, -10, -58, -129, -44, -87, 162, 25, 33, -209, -158, -179, 30, -53, -141, -117, 151, 208, -183, -180, 144, 67, 107, 135, -25, -154, -195, -84, -227, -148, -157, -63, -121, -117, 71, 123, -35, -78, -131, -33, -96, 13, -145, -70, -105, -20, -20, -35, 26, -99, -8, -66, -7, -48, -89, -65, -85, -33, 5, -73, -175, 116, 78, -6, -7, -87, 98, -99, -62, -72, -252, -6, 248, -230, 115, 134, -16, 41, 16, -333, 81, 63, 83, -25, 60, -10, 115, 87, 89, 45, 27, -48, -69, -104, 6, -109, 24, -31, -16, -53, -124, 140, 108, 7, 65, -71, -45, 0, 81, 66, 147, 278, 170, -29, 42, -307, -59, 63, 128, 9, 53, 21, -77, -278, 20, 65, 248, 71, 8, 77, 52, 63, -117, 43, -48, -31, 121, -225, 6, -117, -194, 11, -95, -260, -306, 197, 175, 86, 31, -61, -88, -57, 35, -268, -23, -42, -47, -137, -211, 119, -205, -28, -139, -118, 124, -95, 53, -223, -91, 4, -7, -179, -156, 35, -98, -122, -238, 28, -103, -84, -83, -264, 30, 74, -76, -239, -181, -119, -60, -22, -142, 29, -27, 7, -98, -180, -151, -215, -47, -69, -22, 26, 47, 99, -20, 26, -284, -102, -1, -137, -248, -171, 26, -28, 44, -48, -130, 235, 127, 36, 31, 25, -89, -53, 71, -120, 280, -73, 37, 82, -34, -8, -83, -49, -133, -160, 79, -2, -89, 196, 105, -175, 251, -154, 295, -31, 164, 98, 174, -57, -104, 57, 7, -122, 45, -99, -45, -65, -86, 149, 77, -214, 43, -45, -66, -211, -44, -122, -195, -165, 6, -10, 67, -109, -178, -151, -209, 43, -141, -187, -57, 31, 29, -14, -252, 50, 37, -280, 115, -161, -61, -95, -200, -133, -67, -64, -208, -98, 19, -71, -62, -77, -218, 71, -203, 107, -31, -19, 84, -106, 36, -66, 23, -101, -20, 2, -123, -109, 16, 26, -40, -30, 36, -125, -47, 72, -98, -107, 174, -40, 32, 179, 40, 76, 231, -78, -193, 26, 22, -97, -126, -37, 184, 79, 41, -44, -59, -275, 142, 124, 131, -296, 158, 124, -14, 16, -123, 66, -33, -23, 79, -227, -148, -115, -32, -102, 59, 22, -20, 103, -170, 161, -178, 91, -66, -2, 35, 97, -208, -73, -267, -174, -117, -41, -206, -128, -99, -244, -283, -22, -240, -90, -243, 48, -156, -156, -243, -11, -240, -133, -72, -239, -144, -69, -150, -128, -326, -117, -161, -114, -73, 35, -225, -159, 75, -331, 79, -93, 79, 75, 17, -51, -172, -294, -62, -66, -27, 50, 14, 135, -5, 30, -31, -123, -103, 49, 70, -132, 4, -138, -116, 121, 89, -24, 35, 92, 32, -5, -176, 17, -90, 46, 56, 21, 211, -353, -150, 18, 10, 105, -54, -94, -156, 40, -125, 47, 139, -109, 25, -167, 152, -229, 201, 42, 6, 45, -245, -249, -94, 31, -6, -143, -103, 86, 22, -297, 56, -63, -239, 59, -86, -111, -132, 83, -181, -69, -131, 124, -87, -178, 151, -240, -62, -72, -26, 47, -179, -115, 56, 5, 29, -156, 34, 21, -73, -164, -112, -64, -83, -58, -18, -165, 84, -140, -168, 92, -108, -297, -15, -196, -155, 78, -132, 25, -259, -129, -184, -183, -31, 88, -69, 63, -265, -103, -158, -90, 128, 162, 189, 60, -219, -359, 71, 214, 264, 99, -72, 129, -50, -365, -157, -98, 6, 126, -7, 43, -195, -94, 16, -170, 176, -127, -129, -181, -66, -261, -284, -155, -119, -30, -173, -108, -242, -73, -149, -46, 67, -20, -149, -130, -215, -196, -147, -135, -62, -172, -48, -15, -105, -260, -160, -1, 46, -42, -45, -97, 77, -116, -14, -8, -57, -42, -26, -26, -144, 118, -19, -15, 20, -66, 48, -11, -83, 42, 134, 1, -101, -19, 86, 37, -126, -20, -55, -164, -49, 59, 44, 300, -66, -55, 95, 231, -18, 76, 49, 65, -142, 7, -173, 51, 88, 164, 77, 281, -406, 5, 242, 73, -126, 265, 100, -65, 48, 100, 184, 182, 122, 85, 109, 206, -426, 27, 334, 21, -217, 226, -55, 33, -41, 26, 25, 332, 216, -46, -78, 450, -82, -168, -123, 275, 68, -50, -36, 27, -214, 19, -121, -184, -58, -19, -23, 97, -91, -212, -114, -27, -126, -232, -84, -162, -295, 78, -82, 25, 106, -40, -57, 8, -144, -38, -44, 27, -29, -47, -8, -22, -44, 70, 28, -58, -48}
, {-40, -38, -15, 146, -31, -48, -53, 48, -76, 4, -7, -47, -84, -16, -69, -3, 63, 17, 16, 205, 121, -39, -14, 127, -30, 18, -41, 158, 54, 25, -19, 140, -19, 156, 47, 167, -129, 202, 266, 212, 94, 150, 118, 123, -66, 165, -119, 66, -147, 43, 235, 203, 89, 30, 107, 142, 37, 41, 174, 52, -121, 108, 59, 219, 45, -5, 17, -70, -235, 88, 22, 88, 27, -75, 63, 277, -77, -93, -251, -1, 8, 94, -9, -62, 71, 196, 69, -10, -2, -13, 31, 163, -53, 52, 4, 65, 50, 6, -74, -68, -39, -76, -113, -70, -6, 27, 36, 37, -84, -75, -195, 51, -163, -96, -40, -155, 37, -93, -81, -78, -46, -139, -128, 41, 77, -121, -102, -88, -24, 68, 50, 115, 36, 87, -105, 141, -140, 38, 181, -109, -108, 43, 144, 188, -63, -74, -89, -26, -140, 8, 61, 7, -265, -246, -81, -64, -146, 72, 40, 75, 152, -16, -127, -172, 104, -348, -68, -116, 209, -94, -144, 33, -222, 142, -188, 159, 214, 44, -159, -116, -40, 38, -82, -77, 127, -68, -52, -41, -61, -238, 157, 81, -61, 111, 142, 113, 10, 158, 41, 153, -44, -26, -2, 65, 25, 59, 66, -135, -120, 86, -62, 25, 149, 97, -47, -53, 27, 167, 34, -45, 21, 42, -71, -43, -65, 42, 38, 56, -108, 10, 53, 43, -57, 29, 81, -67, -39, -28, -45, 18, -64, -35, -71, -6, -55, 16, 34, 25, -127, -109, 33, 100, 30, 52, -33, 25, -27, -140, -78, -179, 44, -154, -30, 27, -87, -306, -17, -90, 135, -12, -167, -115, 112, 88, -156, 172, -14, 72, -95, 102, 24, 39, -94, -107, 128, 13, 221, 163, -198, 46, 43, 122, -86, 22, 127, 76, 16, 110, 36, 43, -89, 1, 122, -9, 131, -42, -140, 137, 153, 7, -113, -6, -35, 184, -45, 37, -174, -113, -22, -57, -14, 89, 50, 188, 59, -70, 56, 111, -16, 55, 118, 39, 15, 145, -158, -35, -65, 33, 118, 79, -74, 144, 56, 178, -35, 52, 92, -52, 97, 127, -69, 8, -35, -135, 13, 181, -110, 69, -127, 112, -37, -63, 3, 74, -79, 6, -96, -14, 133, -13, -12, -65, 84, -27, 93, -6, 86, 106, -140, 23, 9, -108, -59, 47, -55, 66, 45, 158, -1, 2, 95, 97, -82, -10, -31, -11, -50, 99, 100, -54, -44, -61, -68, 154, 23, 5, -136, 12, 212, -21, -74, 19, 45, 27, 24, -54, -25, -70, -5, 55, -44, 117, -30, -41, -175, -169, 22, -269, 36, -80, 45, -64, 41, 54, -87, 52, -132, -162, -189, -145, -73, -7, 5, -121, 19, 34, -46, -71, -3, -34, -24, 38, -85, 42, -10, -16, -13, -121, -101, 100, 165, -106, -21, -2, 39, -97, -229, 61, 122, 105, -243, 16, -101, -82, 60, -39, 178, -2, -39, -18, 113, 69, 149, 67, -191, -91, 259, 82, 17, -62, -152, 56, -28, 7, 22, -71, -40, -81, -194, 3, 210, 9, -102, -98, -79, -14, 6, 139, -240, -161, -85, -24, 21, 71, -65, 99, 27, 146, -82, 36, -111, -6, 1, -4, -81, 42, 131, 14, 39, -76, -7, 9, -48, -85, 27, 39, 110, -117, -66, -10, 11, -4, 15, -86, 71, -58, -204, -89, -148, -64, -126, -102, -113, -12, 22, -62, 60, -67, -49, -45, 14, 16, 1, -1, -7, 36, 37, 33, 20, 112, -102, -15, -106, 95, -57, -74, 34, -15, 98, -21, 24, -32, 118, -20, 145, -10, 22, 41, -132, 83, 9, -2, -91, -149, 26, -60, 59, -165, -63, -76, 69, -21, 56, -27, -181, -101, 57, -93, 4, -102, -106, -270, -46, -169, -138, -140, -14, -55, -27, -120, -122, -197, -41, -78, 39, -32, -42, -73, -32, 30, -78, -11, -17, -75, 74, -194, -39, -61, 85, 125, 48, 46, -16, 141, -53, 26, -47, -120, 65, -84, -81, -27, 49, 78, 51, -113, -14, -33, 20, -170, -83, -42, 6, -33, -101, 114, -73, 50, 0, -67, -34, 3, -115, -47, -82, -64, 24, -91, 43, -141, -154, -6, 31, -93, 219, 103, -118, -35, -5, 31, 15, -40, -66, 81, -66, -71, 32, 54, 53, 33, -60, -63, 8, -135, 48, -23, 55, -12, -139, 185, -54, -62, 110, -101, 63, -42, 99, -230, 34, -43, -90, -58, 72, 41, -121, 83, -91, 63, 6, -35, -13, -87, 14, -70, 4, -123, 14, -93, -32, 1, 4, -58, 31, -126, -56, -155, 15, 16, 165, 17, -127, 99, 63, 7, -169, -79, 27, 58, -66, -113, -133, -62, -26, -137, 140, 6, -6, 4, -6, -20, 5, -56, 12, 7, 8, -103, -5, -18, 14, -13, 181, 13, -3, 73}
, {-172, -12, -184, -7, 92, -68, -11, -77, -85, 204, 25, 196, -67, -96, -112, 32, 200, 308, -41, -66, 149, 131, 296, 12, 170, 250, 78, -139, -14, -49, 54, 120, 66, 278, 234, 31, -95, 139, 237, -166, 97, 53, 67, -162, -7, 249, 141, 193, 24, 175, -102, -17, 111, 32, 267, -44, 191, -127, 124, -97, -40, 3, 111, 31, 141, 33, -8, 139, -17, -79, -106, 12, 80, 91, 7, 196, -73, 184, -81, 252, 15, -52, 38, 9, -119, -10, -54, 265, -117, 32, -43, 284, -85, 103, 21, -55, 49, -64, 190, -37, 85, -47, -197, 216, 83, 153, 53, 139, -11, -2, 33, 49, -195, -130, 67, -15, -31, 27, 79, -81, -147, -84, 88, -219, -36, -29, -49, 139, 12, -6, -58, -171, 138, -40, 38, -39, 58, 96, -6, -49, -12, -35, 104, 43, 36, 88, -65, -97, -45, 25, -43, -145, 54, -180, -185, -158, -94, 62, 103, 143, 303, 90, -44, -52, -139, 42, 96, -100, 181, -4, 13, -100, -74, -45, 226, -100, 204, -19, -38, -60, 109, -129, -104, -11, -223, 165, 40, 63, -32, 6, 102, 31, 108, -191, -142, -95, -101, -172, -44, 167, -193, -54, 7, -11, -38, 90, 100, 49, 8, -57, -58, 3, 46, -51, -72, -59, -42, 44, 93, -28, -148, -31, -13, 215, 55, 87, 99, 155, 16, -36, 154, -23, 32, -4, 37, 15, -147, -218, -96, 65, 79, 31, -19, 16, 79, 44, 10, -354, 62, -101, 81, -100, 41, -266, -5, -60, 98, 80, 94, -152, -48, 25, 94, -314, -14, -270, 118, -15, 140, -63, 29, -19, 88, 20, 143, -9, -121, 16, 97, -62, 108, 76, 13, -35, -5, -18, 128, -60, 145, -109, -72, 84, 20, -113, -12, 54, 265, 150, -18, 30, -25, -84, -14, 59, 282, 292, 9, 193, -144, 135, -83, 111, 118, -428, 79, -175, 98, -114, 153, 9, -18, 36, -175, 41, -219, -69, -93, -185, 200, -106, -14, -83, 72, -55, -67, -44, 136, 47, 14, 177, 59, 166, 22, -22, 59, 132, 34, -44, -158, 220, 14, 58, 158, 110, 14, -292, -71, 117, 194, -282, 157, 17, -92, -453, -144, 78, 75, 118, 106, 252, 224, -77, -99, 134, 273, -261, 168, -239, 48, -199, -48, -37, 130, 52, 228, -52, -76, 65, -114, -3, -56, -102, 18, -88, -110, -7, 79, -28, 88, -178, 35, -3, -110, 252, 53, 125, -67, 91, 142, 17, -118, -115, 168, 66, -195, -56, -15, -43, 44, 187, 141, 101, 2, 214, -215, 7, 178, 11, 25, 153, -12, 113, -12, 129, 103, 22, -152, 81, 160, 156, 27, 151, 22, 59, 16, 137, -48, 87, 36, -39, 35, 152, 120, 196, 147, -111, 11, -17, 34, -19, -32, -113, 39, 99, 151, 148, -28, -193, 7, 60, 107, -107, 181, 56, 140, -159, -47, 65, 180, 78, 13, 75, 49, 22, -39, 27, 185, 176, -167, 118, 36, 49, 24, -22, 0, 141, -327, 62, 190, -46, 45, 31, 69, 174, -118, 91, 16, 23, 8, 100, 121, -17, -78, -14, -113, 155, 245, -52, -58, 159, -17, 160, -54, 99, 115, 143, -5, 55, -283, 23, 59, -14, -9, 47, 19, 5, -31, 64, 92, 50, 176, 74, -185, -100, 2, -182, -68, 92, 178, 10, -107, -2, 39, -137, 185, 29, -137, 80, 6, 97, -6, -40, -59, -126, 233, 17, -61, 74, 36, 55, 130, 76, -300, 135, 52, 64, -71, -167, -82, -210, 41, -61, 55, 59, 241, 142, 131, -2, -187, 141, -40, 35, -423, 13, 176, 132, 65, -16, -80, 77, -175, -98, 63, 88, -6, 72, -181, -120, -482, -142, -24, 136, 281, -25, -43, 0, -375, -3, 97, 132, 135, -195, -216, -148, -145, 15, -106, 238, 126, -47, -74, -30, -200, 58, 49, 60, 256, -94, 109, -96, 13, -183, 50, -112, 157, -192, -14, -86, -10, 47, -37, 140, -187, -191, -319, -320, -16, -136, -160, -337, 256, 192, -205, -133, -178, 198, 39, -24, -128, -284, -45, 52, -29, -235, 130, 144, -192, -264, -33, 109, -43, -341, -22, -106, 119, -84, -36, -155, -169, -463, 29, 196, -88, -300, -352, 133, -123, -365, -158, -166, 266, 127, -239, -340, -195, -74, -325, 285, -168, -98, -266, 63, -310, -287, -241, -274, -85, -65, -249, -245, -104, -131, 30, 195, -26, -168, -186, 74, -287, 60, -336, -32, 90, -40, -245, 129, -37, -129, -103, 44, -166, -84, -242, -17, 177, -332, -217, -173, 121, -81, -169, -42, 53, 0, -29, 133, -206, -65, -139, 132, -115, 62, -160, -228, 152, -134, 49, -128, -29, 1, 77, 107, -17, 31, 55, 143, 35, -11, -16, 12, 109, 48, 20, -65}
