/**
  ******************************************************************************
  * @file    weights/fc.cc
  * @author  Pierre-Emmanuel Novac <penovac@unice.fr>, LEAT, CNRS, Université Côte d'Azur, France
  * @version 1.0.0
  * @date    24 march 2020
  * @brief   Template generating plain C code for the implementation of Convolutional Neural Networks on MCU
  */

#include <stdint.h>

#define INPUT_SAMPLES 576
#define FC_UNITS 100


const int16_t dense_bias[FC_UNITS] = {-24, -43, 69, -72, -93, -98, -64, -104, 47, -77, -48, -82, -32, -45, -53, 9, -119, -23, -49, -137, -82, -29, 30, 72, -26, -67, -57, -91, 46, -111, -66, -14, -78, 29, -12, -74, -99, 76, -94, -11, 36, -23, -67, -125, -94, -113, -81, -62, 3, -94, 12, 44, 36, -113, -121, -103, -29, -52, -23, 9, -41, -45, -128, -87, -61, 0, -137, 28, -24, -133, -35, -47, -5, -82, -69, -65, -57, -71, -69, -45, -99, -94, -4, 52, 4, -99, -36, 147, -71, -5, -36, 57, -8, -79, 55, -70, -11, -17, -144, -6}
;

const int16_t dense_kernel[FC_UNITS][INPUT_SAMPLES] = {{65, -68, -78, 78, -107, -55, -93, -18, 144, 151, -23, 118, -23, -31, 141, -8, -100, -102, 18, -32, 17, 89, -132, 90, 13, -134, 8, 0, -3, -66, 246, 3, -224, -88, -72, 12, -141, -51, -9, -7, -288, 194, -254, -101, -8, 28, -171, 55, 21, 60, 37, 220, -222, -114, 129, 25, -123, 17, -145, 26, 9, 19, 194, -7, -80, 31, 183, 128, -15, -295, 121, 104, 151, -57, 79, 72, -190, 66, 177, 121, 115, -43, -135, 61, 102, 58, 173, 7, -35, -1, 132, -137, 3, -131, 8, 20, 63, -119, -223, -52, -88, -39, -238, -146, 156, -101, -273, -37, 1, -28, -323, -155, -215, -59, -334, 74, -113, 39, 25, -7, -358, 88, -475, -381, 105, 14, -292, -138, -135, 36, -201, 52, -150, -129, 100, 91, -471, 118, -296, -106, 152, -204, 59, 21, -313, 44, 115, -27, 50, -395, 128, 79, -339, -216, 123, 159, -226, -198, 164, 101, -108, 11, -32, -174, 13, -296, 243, 85, -8, -283, 168, 106, -270, 9, 384, 130, -263, -24, -69, -60, 372, -18, -98, 74, -100, -98, 212, 95, 151, 150, 174, -11, 79, -118, -11, -169, -28, 20, -167, -51, 19, 3, -79, -125, -17, -25, -132, -142, 69, -400, 203, -27, 168, 126, -90, 78, 70, 16, 112, -142, -133, -489, -231, 5, 36, -21, 0, -67, 84, -391, -123, -68, -134, -39, 212, -57, -277, 145, 45, 132, -48, 8, 38, -37, -43, -83, 94, -97, -17, 18, -107, 206, -24, 168, -56, 71, -28, 0, 29, -47, 128, 5, -77, -121, -37, -257, 173, 100, 58, 171, 136, -49, 108, -93, -31, -98, 19, -64, -15, 63, -46, 137, -48, 4, 40, -49, -106, 110, 215, -386, 83, 32, 4, 53, -305, 148, 52, -34, -25, -63, -249, -54, -125, -32, 23, -245, 55, -328, 108, 56, -143, -12, 179, 39, 62, 32, -553, -94, -36, 122, 62, -52, 169, 97, 74, -461, -15, 65, -283, -334, 66, 95, -180, -2, 26, 15, 35, -47, -11, 16, -96, -199, 12, -53, 65, -151, -9, 28, 111, 73, -34, -53, -61, 101, -90, -59, -32, 174, -115, -13, -19, -142, 23, -35, -151, 171, -100, -133, 83, -159, -47, -223, 69, -106, -293, 117, 41, -132, 198, 118, -155, -157, -55, 22, 66, -90, 50, -191, -9, -114, -53, -12, 29, 4, -156, 13, 88, 29, 55, -146, -136, -123, -22, -159, 38, -105, -194, 52, 223, 21, 52, -15, -244, -59, -20, -12, 206, -108, 122, 159, 161, -41, -43, 151, -72, 49, 122, -60, -82, -5, -9, 7, -51, 125, 180, -37, -17, -6, -239, 12, -2, -44, -24, 18, -59, 114, 2, -24, 22, 173, -41, 15, -72, 15, 44, -174, 29, -30, -118, -184, -7, 57, -209, -15, 356, 30, 140, 79, 104, 85, 8, 278, 41, 104, -145, -4, -226, -53, -131, -18, 159, 3, -23, 13, -226, -7, 29, -12, -33, -64, -4, -144, -37, -173, 29, -129, 2, -171, -12, -41, 175, 40, -115, 6, 268, -17, -66, -58, -120, -139, -59, -84, 15, 24, 63, -33, 45, 12, -41, 5, 9, -14, 58, 40, -107, -12, 14, 85, 69, 34, 98, -40, -15, -93, 54, 69, -15, 17, 72, 67, -176, 53, 78, 71, 2, 22, 117, -4, 62, -12, 140, -27, 35, 132, -63, 26, 104, 46, 29, -44, 84, -122, 338, 251, 270, 16, 14, 151, 90, 173, -76, 128, -75, 166, -8, 188}
, {-139, 296, 124, -19, 91, -27, -31, 135, 34, -33, 65, -126, 164, 158, -40, 158, 200, -27, 17, 151, 96, 14, 245, 156, 212, 262, 239, 70, 143, -68, 49, 171, 337, -117, -25, 453, 146, 14, 388, 105, 268, 10, 2, -181, -10, -76, 290, 72, 49, -5, -28, -15, 29, 133, -13, -148, 84, 114, 88, -98, -76, -127, 1, 58, 251, 9, 45, -37, -149, 99, 71, -37, 46, 91, 137, -194, 2, -102, -101, 114, 146, 6, 102, 128, -35, -43, -1, 206, 72, 82, 135, -129, 153, -160, -252, 260, 222, -309, 230, -28, -18, 24, 39, 139, 81, 226, 223, -132, -193, -165, -41, 180, 307, -91, 115, 261, 47, -50, 0, 240, 371, -93, 38, -59, -113, -111, -4, -126, 279, -140, -57, -24, -84, 14, -173, -14, 474, -76, 38, 21, -7, 4, 15, -218, 126, -107, -105, -44, -32, 94, -197, -63, 145, -28, 109, -266, -22, -124, -3, -49, 153, -53, -41, 21, -49, 130, -41, 63, 31, 58, 74, -136, 82, 8, 30, -204, 214, -79, -147, 98, -145, 43, -51, 33, -7, 129, 194, 94, 298, 25, 19, -207, 192, 229, -3, 134, -71, -27, -212, -56, 115, -101, -116, 15, 43, 128, -2, -65, -23, 250, 61, -45, -104, -45, -15, -168, 169, -7, -284, -94, 117, 149, -40, -69, -11, 71, 146, -23, -101, 4, -67, -69, -68, 106, -352, -143, 112, 174, -118, -132, -22, 22, -25, -15, -230, 51, -176, -41, 7, -108, -105, -144, 46, 97, -46, -272, 124, 95, 26, -3, -11, 148, -224, 15, 3, 121, 96, -84, -31, -23, -80, -100, -44, 70, 324, 17, 191, -5, -66, -136, -34, 97, -112, -56, -187, 87, -201, 66, -48, 70, -24, -138, -49, 19, 162, 10, -68, 109, -87, -215, 53, -262, -36, -119, 18, -158, 65, 323, -27, -1, 241, 72, -84, 98, 3, -60, 103, -181, 82, 12, 134, 36, 14, 76, 72, -105, 32, -2, 93, 191, -23, -36, -98, -138, 63, 64, -332, 17, 143, -231, 105, 71, 61, -8, -317, -174, -105, -180, 91, -105, -183, 114, -132, -14, 122, -15, -14, -49, 92, 98, 84, 121, 62, -52, -170, -41, -83, 150, 360, 33, -46, 134, -102, -204, 177, -12, 45, 353, 154, 51, -37, -15, 54, 114, 143, -100, 105, 143, 90, -56, 138, 163, 75, 55, 31, 37, -162, 40, 141, 101, 205, -231, -35, 179, -62, 34, -75, 156, -107, 21, 40, 101, -262, 8, 101, -143, -72, -111, -20, -75, -74, -57, 15, -16, -93, 34, 19, 146, -177, 41, 95, 9, 14, -132, -145, 65, -42, -33, 28, -2, -244, -54, 123, 32, 75, -40, 149, 21, 25, -78, -12, -1, 111, -53, 113, 215, 1, -119, 237, 274, 99, 28, 229, 5, -197, 301, -114, 114, -48, 8, 221, 185, 86, -53, 174, 146, 104, 32, 263, 30, 5, -209, -9, 21, -23, 31, 61, 105, 41, 44, 44, -16, -115, 17, 19, 1, -30, -431, -146, 8, -228, -172, -55, -27, 71, -146, -44, 22, -169, -98, -10, -81, -35, -299, -172, -7, -200, -28, -92, -27, -346, -237, -82, 52, -154, 56, 1, -42, 10, 216, -62, -85, -2, 135, -228, -131, -190, -57, -65, -11, 203, 13, -20, -198, 74, 95, -188, -47, -163, 81, -68, -228, -57, -85, -33, -43, -25, 157, -50, -25, -190, 18, -71, -243, -143, -27, -232, -96, -138, -144, -208, 53, 91, -108, -251, 16}
, {-71, 13, -140, -32, -49, -62, -1, -56, -113, 10, -192, 112, -65, -63, 220, -36, 38, -92, -68, -172, -21, 37, -48, 50, 33, 23, -322, 18, -98, 22, 251, -242, 91, -32, -7, -166, -23, 64, -116, 72, 60, 89, 46, 0, 32, 21, 216, -228, -64, -29, -93, -11, -75, 48, 14, 88, -9, -15, 129, 11, -65, -2, 97, -38, 217, -24, 37, -50, 243, 134, -112, 116, 93, -21, 77, -55, 80, -58, 113, 87, 225, 33, 65, 47, 104, -70, 43, 155, 62, 70, -51, -59, 39, -33, 9, 130, 152, 98, 71, -32, 38, -79, 83, -3, -151, -92, -114, 57, -45, 38, 58, -20, 43, 39, 113, -17, -78, 5, 42, -176, 200, -27, 36, -16, 28, 94, -18, 8, 74, -16, 70, 38, -95, -30, -11, 46, 51, -2, 10, 40, -7, -36, -7, 18, -71, -14, 17, -5, -36, 5, -89, -51, 126, 50, -14, 20, 11, -27, 7, -21, 182, 39, 52, 40, 0, 176, -43, -141, 68, 93, 42, -59, 34, 40, 68, -71, 254, 122, 42, 105, 246, 106, 41, 48, 19, 260, -19, 174, -19, 149, 50, 27, 58, 205, 254, 80, 187, 77, 36, 73, -156, 241, 30, -69, 125, 85, 14, 347, 25, -16, 209, 43, 230, -13, -87, 62, 100, -26, 91, 51, -70, -89, -77, 155, 14, -16, 132, -13, 29, 37, -25, -68, -63, 52, 221, -83, -195, -31, -43, 56, 29, 39, 119, 74, 109, -11, 64, 11, 38, -75, 16, 35, -111, -27, 1, 11, -64, -28, -60, 136, -190, 72, 25, -54, 36, 132, -207, 21, 72, 26, -150, -5, 215, -48, 74, 61, 88, 34, 40, 22, 128, -94, -30, -24, 54, -25, -26, 70, 232, -92, -75, 256, 118, -7, 98, 251, -65, 148, 218, -74, 14, -5, 84, -78, -39, 98, -130, 61, 53, -178, 26, -98, -66, -118, 198, 164, -18, 52, 135, 148, -139, -45, -135, -145, -2, -216, 10, -56, -122, -54, 10, -45, -184, -54, -89, 144, -30, -160, -108, 81, 75, -8, 53, 115, -86, -124, -90, -155, -41, -292, -182, 75, -30, -50, -112, 24, -86, -50, 231, 124, -95, -43, -146, 52, 279, -30, 58, 47, 118, 56, 190, 198, 6, 122, 63, 46, 93, 205, 5, -17, 233, -164, 99, -29, -77, 53, -174, 196, -69, -61, -131, -42, -131, -73, -110, 110, 18, 324, -76, -278, -60, -149, -121, 130, -107, -17, -110, -94, -105, 72, -145, 20, 182, -89, -288, -38, 25, -537, 37, 162, -125, 204, -334, 94, 150, 158, -96, -210, 55, -294, -294, -568, 58, -277, -63, -60, 88, 152, -400, 62, 158, 6, 17, 43, -11, -224, -82, -182, 54, -366, -70, -93, -40, 25, -126, -34, 7, 8, -111, 9, 104, 55, -43, -46, -75, -210, -72, -21, 39, 0, -127, -128, -7, -182, 21, -9, 52, 12, -58, -125, -133, -76, -23, -126, -94, 67, -65, -19, -141, 71, -64, -34, -110, 82, 67, -102, 252, -497, -34, 119, -107, 42, 9, -12, 243, 113, -48, -92, -97, -217, 10, -185, 140, -402, 149, 4, 124, 315, -70, -224, 718, -71, 13, -125, -314, -173, -38, -29, 173, -244, 152, 16, 158, 318, -38, -96, 337, -112, -27, -135, -221, -266, -23, -24, 44, -427, 171, -35, 201, 28, -112, -40, -48, 15, 123, -141, -256, -204, -51, -88, 82, -242, 11, -69, -19, -46, 101, -56, 0, -69, -172, -128, -268, 20, -99, 87}
, {-28, 88, 206, 9, -72, -55, 77, -19, -52, -66, -63, 10, 3, 11, 127, 59, -155, -31, -43, 23, 37, 2, 2, 77, -54, -103, -161, -27, -89, 35, 6, -208, 24, -24, 34, -249, -145, -120, -6, 52, -73, -102, -119, 132, -24, 43, -92, -177, -14, -96, -106, -193, -113, -33, -195, 241, -33, 52, 126, 13, 21, 19, 187, -130, 137, -10, -34, 46, 143, -30, -75, 90, 57, 28, 122, -68, -38, -16, 27, -164, 231, 59, -55, 7, 229, 43, -40, 139, 21, 42, -39, -53, 394, -1, -44, 22, -75, 128, 62, 212, -7, -18, 47, -162, -179, 134, -58, -139, -14, 92, 28, 10, -49, -32, -210, -22, -1, 21, 75, -52, -122, 51, -227, -8, 169, 174, -19, -11, -96, 69, -169, 144, -148, -41, 89, -103, -53, 44, -9, 4, 168, 62, 39, 44, -49, 116, 1, -89, 77, -1, 64, 106, 9, 43, 91, -89, -63, -65, -72, 27, 76, 39, 22, -27, -6, 14, 57, -77, 62, 43, -162, 55, -51, 21, -63, -53, 66, 202, -98, 60, 7, 96, 162, 157, 54, -46, -77, 71, -18, -4, 47, -124, 125, -193, -26, 103, 63, 87, -43, 194, -12, -94, 131, -56, -9, -34, 32, -83, 110, -284, 305, 21, 88, 80, -97, 115, 201, 44, 83, -133, 87, -289, 6, 69, 51, -73, 244, -179, -10, 15, -190, 103, -42, 44, -31, -21, -17, 41, -281, 72, 39, -121, 39, 31, -236, -26, 53, -229, -164, -17, -316, 18, 5, 112, -30, -61, -85, -7, -47, 60, -133, 60, 101, -110, 11, 143, -235, -61, 209, -187, 161, -5, 113, -32, 116, 44, -93, 58, 155, -3, 76, -23, -92, 39, 48, -38, -43, 67, -282, -182, -142, -359, -288, -253, 28, -144, 117, -127, -83, -62, -300, -203, 14, -68, -206, -419, -275, -252, 87, -190, 126, -94, -365, -283, 171, 121, -331, -32, 146, 161, -64, 86, 48, -7, 140, -120, 70, 74, -600, -237, 264, 121, -616, -11, 157, 243, -128, -1, 61, 37, 24, -166, 30, 142, 39, -388, 159, -2, -122, -129, 68, 87, -102, -53, -49, -38, -65, -60, 23, 96, 13, -327, 95, 96, 15, 138, -119, 1, 12, -117, 84, -85, 162, -154, -430, -10, 41, -48, 175, 125, 102, 12, -27, -31, -85, 285, 47, -49, -6, -34, -292, -139, 75, 11, -155, -143, 134, 72, -368, 16, -43, 285, 42, 86, -250, -21, -23, -99, 198, -157, -201, -11, 131, 158, -174, -143, 29, 34, -69, 44, -71, -15, -92, -13, 12, 18, -135, 86, 233, 191, -51, -53, 5, 12, -4, -60, -131, -123, -161, -153, -31, -106, 9, 139, 61, -11, 86, 2, 84, 86, -22, 7, 129, 108, -6, -72, 16, 16, 10, -201, 158, -3, -81, 49, 32, -189, 68, 80, -144, 68, -57, -57, 24, -27, -100, -278, -236, -237, -201, -97, -134, 41, -80, -43, 51, -8, 34, -66, -41, 146, 54, 15, -33, 21, -42, 110, -44, 91, 95, 63, -2, 129, 33, -4, 32, 19, -44, -51, -3, -7, -1, -32, 4, 262, 5, 66, -48, 6, 30, -35, -22, -3, -23, -11, 105, 41, 79, 37, -37, 72, -88, 26, -104, 2, 30, -63, -78, 42, -22, -122, 128, -106, -42, -18, -38, -66, 2, 36, 99, 130, 7, 39, -20, 270, -7, -67, 136, -66, -59, -95, 21, 123, 205, 225, 7, 27, 122, 52, 77, 39, -159, -54, -10, -140, 73, 58}
, {-31, 77, 34, 77, -90, -191, 127, -112, 50, -8, 316, -150, -41, -76, -161, 113, -30, -5, 62, 6, 34, -104, -42, -118, -176, 85, 242, -367, 24, -93, -26, 170, -92, -32, 87, -110, 50, -72, -36, -220, -59, -42, 64, -18, -41, -31, 192, 123, 99, 17, 17, -41, 272, -88, -24, 242, 50, -60, 255, 92, 21, 13, -10, 192, -160, 41, 43, -202, 20, 137, -72, 230, 69, -11, 244, 92, 79, -5, 50, -21, 111, 68, 50, -240, -103, -235, -302, -72, 25, 30, -112, 113, 46, 60, -257, -106, -55, -61, -169, 315, -200, -39, 194, -142, 119, 39, -175, 97, 2, -24, 65, 24, -55, -37, -230, 44, 21, -33, 31, 15, -120, -60, 33, 209, -8, 58, 66, -60, -52, 48, -180, 48, -113, -88, 70, -109, 52, 2, 91, 132, 106, 187, 10, -16, -12, -28, 26, -90, 180, 189, -4, -2, 32, 6, -6, -92, -146, 6, -51, 57, 222, -94, 132, -84, 106, 67, -202, 147, 203, 55, 102, -228, -250, -188, -402, -62, 169, -126, 10, 83, 142, 57, -334, 76, 44, -215, -323, -115, -348, -125, -442, -24, 31, 125, -57, 156, -151, -51, 297, -234, 249, -35, 41, 56, 154, 26, 145, 5, -123, 332, -139, 81, -327, -79, 193, -178, -141, -11, -166, 107, 204, 181, 3, -43, 58, 155, -150, 106, -138, -16, 52, -50, 97, 0, -18, 68, 163, -11, -56, -41, -18, -134, -150, -20, -181, 145, -97, -39, -41, -98, 82, -177, -17, -72, 44, -145, 199, -320, 80, 29, 154, 329, -143, 165, 180, 151, 111, -230, -155, -275, -15, -138, 175, -282, -11, 48, 98, 5, -5, -2, -56, 215, -129, -288, -208, -334, -259, -116, 193, 53, 165, -89, 30, -32, 27, 38, -26, 204, -29, 76, -25, -45, -180, 173, -32, -26, 2, -14, 192, -80, 38, 108, -106, 12, -119, -155, -39, -75, -54, -22, 87, -58, 46, -50, 20, 29, -50, -74, 269, 105, 96, 150, -99, 5, 101, 56, -35, -44, -239, -159, 71, 43, -91, -116, 23, -250, -18, 50, -110, 171, -89, -34, -90, -185, -36, 82, -44, 196, 108, -27, 31, 146, -55, -233, 73, -247, -151, -83, -37, -22, -27, -20, 126, 89, 71, 87, 41, 245, 2, 6, -128, -127, 21, 150, 260, -64, 15, 281, -18, -56, -29, 27, 162, -45, 17, 49, -38, 28, 61, 3, -40, 128, -13, 22, -8, 108, 116, 19, -193, 111, -15, 25, 12, 82, 115, 58, 66, 42, 54, -131, 135, -191, -55, -114, 24, -22, 79, 93, 26, 33, -8, 119, -49, 42, 84, 45, -4, 147, 66, 7, -251, 31, 285, -41, 118, -29, 5, 100, 9, 111, -47, 2, 18, -44, 13, 24, -45, 50, 88, 13, 4, 133, 73, 7, 42, 212, 105, 58, 170, -15, 6, -14, -3, 117, -8, 196, 103, 82, 7, 100, 164, -264, 16, 90, 38, 21, 26, 109, 42, 99, -116, -17, -236, 8, -31, 65, 231, -98, -131, 43, -77, -29, 94, -56, -10, -49, 82, 9, -11, 11, 87, -1, -290, 74, 39, -31, -51, -617, 55, 64, -432, -522, 27, -6, 20, 15, 58, -91, -569, 91, -293, -5, -161, -111, -67, 141, -465, -245, -61, -49, -4, -90, -37, 15, 139, 460, 31, 68, -184, -193, -37, -38, -22, -79, -36, 98, 70, 143, 94, 15, 30, 156, -47, 121, 72, -72, 147, 266, -94, 91, 48, 76, -8, 75, 126, 73}
, {-54, 193, 182, 33, -46, 85, -82, 68, 125, 289, 268, -60, 104, -33, -203, 198, 129, 51, 74, 149, -26, -47, 86, -78, 86, 145, 323, -43, -47, -91, -5, 295, 405, 81, 63, 33, -16, 7, 122, -42, 168, 63, 163, 45, 55, 19, 401, 37, 111, 36, 66, 68, 186, -43, -102, -11, -57, 55, 196, 78, 47, 12, 34, 128, 91, 29, 4, 158, 101, 84, 34, 148, 102, 50, -128, -69, 3, -67, -119, 170, 70, 91, 115, 49, 103, 174, -78, 78, -5, 43, 172, -2, -146, -47, -76, -4, -21, -238, 61, 184, -135, -156, 342, -18, 168, 80, 124, 72, -160, -69, 405, 287, -328, -18, -477, 171, -284, -143, 142, -142, -187, -209, -22, 425, -91, 331, 281, -49, -67, -27, -151, 122, 62, -145, 169, -159, -52, -98, 273, 83, -106, 38, 201, 141, 122, -112, 29, 133, 125, 119, 116, 27, 297, -88, 48, -82, -10, -104, -24, 1, 114, -233, -76, 73, 3, 180, -106, -55, 89, -212, -76, -205, -184, -73, -190, -130, 16, -482, 38, -51, -88, 153, -232, -10, -128, -273, -336, -431, -87, -188, -158, -167, 77, -14, -14, 334, -369, -319, -47, -208, 46, -253, -265, 262, -94, 325, 245, -94, -198, 162, -356, -121, -520, -93, 76, -197, -194, -192, -192, 120, 211, 239, 66, -307, -154, 88, -235, -49, -148, 63, 97, -82, -269, 18, -162, 20, 296, 171, 73, -56, 13, -22, -84, 23, 24, -59, 22, 47, 92, 170, -74, -25, 300, 86, 35, -106, -150, 89, 15, -70, -163, -21, -100, -57, -60, 83, -216, 119, 147, 178, 56, -59, -228, 208, -186, -130, -196, -104, -279, -127, -207, 97, -246, 101, -17, 153, 16, -154, 17, -45, 292, -256, -45, -39, -51, -117, 133, 101, -170, -355, -77, -77, -353, -1, -65, 72, -41, -112, 34, 46, -10, 117, -14, -40, -137, -139, -148, 31, -118, -3, -78, 177, 44, -172, 101, 53, -5, 122, -3, 42, -3, 59, -29, 88, -35, -55, 16, 300, 18, 107, 75, -135, 147, 104, 19, 16, -13, 19, 71, 147, 74, 58, 51, 101, -28, -124, -84, 3, 4, -75, 41, -223, -82, -77, 60, 91, -81, -23, -161, 114, -24, -88, -31, 6, -7, 44, -12, 183, 39, -73, -126, -12, -14, 31, 306, 3, 301, -110, -117, -13, -8, -13, 28, 29, -57, -53, -44, -72, 98, -29, -37, -23, -3, -143, 76, -25, -20, 59, 79, 43, -36, -46, 99, -1, -48, 134, -187, 24, -80, 91, 191, 36, 26, -69, -24, -2, 1, -164, 59, 86, -51, 52, -57, -39, 57, 34, 229, -55, 27, -23, -2, -72, 97, -95, 32, 63, 15, 149, -157, 146, 123, 131, 223, -68, -2, 183, -88, 116, 38, -236, -138, 20, 125, 42, -90, 243, 46, 77, 103, -10, -16, 85, -47, 207, 141, 51, -22, 65, 104, -36, 286, 66, 98, 93, 280, 53, 262, 245, 117, 35, 78, 73, -17, 33, 18, 172, 142, 146, 11, -85, 199, 94, -44, 118, -52, 126, 109, -18, -79, 119, 26, 162, 8, 210, 37, 85, 63, -11, 57, 97, 86, 11, 48, 25, 264, 151, 22, 28, 79, 156, -17, -64, -223, -64, 27, 32, 34, -15, -9, -17, 30, 142, 27, 67, 229, 325, -143, -61, -160, -14, -52, 88, -315, 91, 25, 56, 52, -13, 7, -65, 191, 143, -82, -14, 135, -4, -33, 55, -74, 324, -43, 266, 85, 213, 30, -63}
, {41, -41, -43, -20, -69, -104, -56, -31, 137, 58, 39, 48, -179, -133, -42, -100, -224, -155, -20, -10, -68, -22, 15, 66, -136, -84, 6, -34, -142, -153, 20, -25, -230, -360, -94, -30, -97, -4, 79, 2, -34, -161, -17, -28, -127, -97, 129, -46, -73, -225, -153, -105, -169, -101, -38, 38, -152, -158, -108, -108, -272, -165, -65, -163, -104, -184, -300, -72, -262, -121, -65, -64, -196, -94, -21, -174, -113, -215, -135, -192, 116, -133, -99, -136, 6, 12, -70, -25, -246, 170, 30, 35, -50, -184, -43, 85, 42, 120, 0, -52, 69, 138, 5, 16, 47, 44, 78, 13, 95, -5, -36, -52, -26, 58, 211, -125, 22, -219, -52, 8, 0, 17, -66, 33, -42, -29, 11, 8, -33, -21, 219, -417, 102, 50, -201, -43, 116, -46, -104, 133, -68, 17, 21, -49, -179, -20, -11, -387, -66, 104, -333, -150, -35, -75, -175, 153, -53, 6, -11, -181, -154, 41, -157, -255, -53, -187, -107, -158, -130, 119, 80, 96, 152, 84, 144, -62, -116, 104, 127, 7, -7, -222, 141, 36, -161, -12, 184, 131, -21, 91, 183, 212, 19, -233, -147, -15, 45, 67, 161, -41, 48, 137, 53, 124, -79, -108, 203, -132, -9, -45, -57, -39, 70, -6, -112, -24, -237, -10, -45, 51, -158, 88, 88, 34, -20, 168, -165, -80, 31, -74, 131, -95, -128, 70, 65, 25, -88, -59, 111, 85, 44, 134, 134, 146, 131, -213, 143, 18, 26, -87, 164, -34, -118, 31, 163, 87, -113, 171, 42, -115, 87, -231, 44, 4, -60, 32, 275, 158, 96, 186, 128, 97, -144, 132, 36, 28, -24, -104, 81, 132, -21, 202, 234, 122, 89, 247, 149, -82, -54, 63, -159, 152, -78, -17, 139, -139, 145, 29, -149, 53, 145, 142, 66, -81, 43, 130, -35, 101, -45, -9, -102, 61, -91, -53, 34, 130, 103, 119, 147, -17, 103, 45, 62, 30, 63, 133, -71, 44, 46, -23, 60, 54, 34, 106, 132, -1, 11, 120, 66, -72, 24, 3, -89, -202, 122, 57, 115, 134, 83, 124, 7, -128, -13, 40, -127, -26, 78, 123, 3, -22, -152, 60, 97, 77, -85, 201, -6, 19, 29, 179, -4, 25, 54, -121, 126, -50, -196, 143, 159, 43, -17, -45, 77, 161, -83, -121, -27, -68, -13, 24, 194, 85, 103, -85, 75, -110, -46, -30, 107, -103, -118, 178, 58, -12, -27, -155, -37, -181, 143, -262, 55, 82, 20, 71, 13, 58, 163, 87, -73, -102, -45, -1, -8, -179, 148, 106, 71, 98, -134, 13, 100, -6, -62, -53, 41, -65, 80, 9, 15, 116, -7, -141, -1, -11, -170, 48, -38, -137, -106, 179, 23, -131, -81, -86, 24, -47, 45, 90, -164, 132, -77, 147, 29, -49, -128, -127, -248, 3, -71, -102, 5, 167, -172, 126, 29, 99, -28, 108, 68, -115, -51, 34, 31, -71, -33, -54, -55, -11, 26, 34, -61, -99, -69, -52, -32, 94, -214, 50, -59, -209, -77, 32, -3, -7, 44, -112, -79, -57, -15, -76, -53, 21, 19, 202, 22, -65, 169, -43, 6, 49, -219, 46, -22, -82, 81, 44, -68, -28, -149, 57, -2, -95, -34, -10, 69, -198, 22, 45, -216, -211, -27, -120, -53, -120, -19, -46, -89, 145, -162, -5, -102, -103, 10, -210, -200, -89, -68, -219, -112, -104, -111, -16, -215, -250, -215, -42, -360, 9, -269, 88, -125, -40, -38, -188, -117, -217}
, {196, -136, 218, 191, -77, -105, 249, 33, 155, 181, 278, -87, -139, -186, -18, 198, 139, -2, -31, 221, -21, -96, 294, -130, -84, 9, 389, -229, 35, -70, 85, 430, 126, 82, 182, 136, 2, -2, 214, -291, -139, -75, 280, -88, 94, -41, 46, 225, -175, 10, 111, -38, 86, -158, 6, 221, -6, -14, 11, -60, 53, 60, 72, 105, -274, 0, -22, -1, 100, -385, 66, 22, 48, -100, 50, -85, -149, 34, 66, 173, 78, -62, 9, -27, -7, 26, 41, -86, -51, 163, 26, 18, 178, -63, -61, 61, -34, -87, -249, 301, -103, -54, 50, -52, 31, 67, -49, -87, -34, -143, -18, 111, -33, -48, -280, 253, -79, 5, 83, 62, -461, 64, -172, -21, 31, -232, -172, -111, 10, -30, -84, 70, 22, 24, -8, 237, -546, 25, 26, -60, 31, -212, -88, 46, 15, -54, 57, -34, 63, -380, 34, -22, -51, -74, 54, 33, -407, -43, 128, 25, -10, -54, -41, -152, -56, 14, -1, -80, -52, -233, 140, -23, -116, -128, 70, -34, -70, -180, -59, -1, -72, 154, -72, -26, -150, -215, 40, -7, 79, -1, -1, -68, 193, -106, 45, 221, -26, -41, -12, -74, 70, -48, -126, 96, -120, 82, -81, -84, -67, -224, 38, -276, -25, -41, -136, 53, -84, -230, 59, 8, -168, -91, -73, -103, -42, -33, -225, -263, 53, -4, -7, -49, -230, -137, 168, 78, 18, -53, 202, 115, -31, 54, 16, 54, 93, -260, 206, 18, 92, -108, 29, -80, -37, 38, 188, 26, 5, -24, -10, 24, -49, -61, 71, -164, 47, -13, -11, 2, 1, -20, -99, -117, -103, 75, -29, -161, -197, 27, -231, -183, -34, -136, -194, -7, 205, 32, -137, -82, -66, 290, 209, -235, 79, -174, -24, -339, 178, -357, -201, -32, 0, -22, -77, 287, -455, 317, -19, -242, -310, -132, 91, -511, -242, -271, -75, 133, -73, 133, 159, 205, -234, 109, -132, -252, -13, -107, 91, -23, -218, -108, 136, 153, 92, 234, 144, 119, 98, 81, -10, -25, -29, 54, -30, -126, 167, -46, -1, -8, -7, 80, 56, 52, -12, -181, -45, -96, -48, 145, -92, -48, -80, -22, -293, -109, 140, -42, -99, -103, -27, 6, -53, 57, 29, -90, 90, -37, 24, 17, 51, 53, -133, -110, -95, 186, 178, 188, 120, 88, -69, 7, 41, -71, 190, -62, 42, -76, 116, -12, 71, 205, 4, 259, 33, -306, 120, 144, 2, -40, -44, 123, -113, -187, 111, 124, -240, 7, -238, 114, 52, -174, 31, 101, -125, -155, 35, 2, -119, -12, 72, 14, -79, 40, -58, 36, 89, 14, -51, -1, 26, -132, 115, 134, 5, 7, -171, -60, 24, 151, -21, 193, 48, 17, 108, -40, -1, 227, 34, -78, 243, -30, -238, 117, 55, 63, -3, 375, 177, -28, 167, -129, 6, 21, 26, 229, 162, 146, 59, 55, 77, 272, 386, -164, 30, 150, 169, 37, 126, 110, 22, -50, -14, 30, -111, 135, 80, -77, 86, 140, -66, 158, -72, 13, 87, 94, -155, 32, 95, 50, -5, 74, 122, -15, -107, 312, -49, 8, 12, -40, 30, 66, -316, -103, 48, 126, 41, 58, 77, 53, -71, 106, -25, -97, 95, 95, 122, 45, -31, 51, 41, 62, 1, 9, 52, 154, -3, 241, 63, -61, -73, -129, 61, -181, -10, 182, 27, -7, 77, 200, -34, 34, 448, 239, 258, 107, 209, 50, 323, 225, 98, 437, 86, 81, -87, 195, 119, 344}
, {84, -172, 87, 152, 32, -79, 30, 82, 5, -109, -76, -56, -128, -28, 166, 64, -66, -65, -105, -31, -149, -22, -102, -4, -1, -232, 28, -18, -30, 36, 230, -81, 69, -20, -43, -210, -44, -24, -137, -10, 42, 45, -87, -3, 30, 13, 152, -57, -18, -21, 17, -123, 56, 68, -149, 171, 107, -58, 131, 68, -1, 66, 102, -179, 232, -89, -52, 125, 4, 281, 17, 33, -36, -58, -17, -64, 61, -31, 38, -24, 542, 53, 19, 10, 188, 109, 76, 83, 21, 54, -83, -52, 210, 77, 58, 129, -10, -17, 73, -156, 97, -60, -75, 17, -94, -62, -31, 30, 101, -133, -93, -98, -25, -10, 158, 33, -86, -35, -72, -117, 53, 32, -17, -77, 2, 130, -135, -109, 62, -55, 107, 13, -47, 51, -40, 106, 11, 18, -175, -27, 60, -237, -35, -92, 33, -106, 179, -23, 16, 59, -80, 41, 160, -57, -72, -66, -67, -161, -148, -40, 300, -156, -14, -6, -19, 168, -119, -24, 17, 139, -20, -62, -34, -87, -136, -116, 137, 40, -32, 0, 111, 81, -42, 54, 34, 348, -277, -78, -31, -166, -109, -20, 70, 92, 174, -83, 66, -6, -18, 149, 63, 73, -109, -6, 5, -53, -43, -51, 17, -65, 307, -163, 132, 92, -285, 34, 102, 6, 89, -107, -150, -162, -69, 99, 89, -182, 166, -69, 128, 24, 43, -82, -108, -10, 182, -30, -333, -77, 26, 96, 115, -135, 75, 9, 76, -2, -76, -30, 25, -71, -55, -243, 88, -182, -417, 24, 151, -114, -8, 200, -150, 110, 159, -151, 100, 295, -301, -350, 64, -231, -81, -157, 145, -92, -185, 148, -302, 19, 82, 205, 4, 312, 44, -79, 198, -92, 91, -71, -205, -6, -31, -101, 113, 91, 113, -38, -38, 158, 80, -171, 100, -133, 46, 88, -37, 72, -25, 25, 134, -155, 1, -58, -231, 1, 12, 154, -70, -38, 116, 207, -125, -77, 50, -86, -101, -148, 104, -31, -255, -23, -26, 24, -15, 59, -16, 111, 56, -273, -38, 135, -37, -17, 152, 95, 24, 98, -8, -142, -304, -287, -145, -149, 32, -135, -16, 31, 31, 103, 109, 189, 18, -139, 36, -72, 165, -116, 51, 4, -226, 227, -257, -238, -305, 82, 116, -46, -138, 102, 271, 164, 220, 139, 263, -156, -50, 43, -106, 416, 87, -9, 49, -61, -74, 95, 22, 135, 139, 215, 112, -121, -178, -62, -32, 250, -109, 92, 122, -49, -169, -16, 10, 53, 163, 151, 30, -106, 15, -217, -63, 236, -111, 223, -6, 131, 22, 217, -52, -169, -2, -142, -115, -301, 69, -150, 18, -28, -93, 104, -105, 44, 73, -164, 47, -61, 57, 41, -17, -117, 72, 109, 78, -180, 36, -134, 170, -36, 55, -37, -41, -44, -166, 113, 79, 40, -139, 130, 1, -98, -165, 32, 119, -149, 45, -104, 172, 384, 13, 297, 117, 88, 10, -54, 52, -32, -110, 74, -6, 60, 79, 14, -99, 65, 42, 140, 27, -119, 207, -236, 44, 49, -4, 148, -18, 14, 219, 183, -68, -32, -39, -19, -84, -120, 252, 13, 62, -7, 51, 23, -40, -152, 427, -147, -75, 16, -291, -103, -48, 100, 150, 22, 182, -109, 91, 123, -29, -110, 84, -162, 41, 98, -307, -71, 36, 91, 125, 280, 262, -61, 208, -111, 38, -104, 189, -44, 178, 142, -127, 71, 16, 214, 164, 188, 375, 47, 189, 45, 348, 1, 109, -8, 69, 57, -72, 150, -25, 338}
, {78, 70, 95, 43, 79, -145, 84, 69, -17, 37, -19, 92, 21, -100, 72, 19, 51, 88, 164, -62, -7, -112, 51, 94, -115, 7, -134, 176, -34, 44, 125, -69, -101, -20, 121, -182, -31, 70, -48, 205, -2, 51, -289, 105, -24, 82, 65, -281, 19, -54, -71, -131, -145, -37, 9, 15, -67, 53, 6, -31, -64, 24, 32, -187, -5, -44, -52, 158, 9, 66, 99, 296, 0, 14, 4, -58, -77, -3, -46, 33, 45, 219, -26, 184, 128, -187, -51, 146, 41, 87, -116, -151, 226, -6, -87, 34, 69, 7, -62, -117, -62, -121, -88, 108, 3, 7, -171, -117, -120, 68, -180, -158, 53, -82, -216, 178, -87, -11, -202, 42, -46, -37, -266, -242, 15, 78, -548, -165, 233, 80, -61, 93, -171, 88, -12, 62, 192, 64, -307, -319, 50, -86, -191, -64, 61, 4, 32, -7, 33, 104, -15, -26, -33, 109, -33, 31, 40, -136, 85, -4, -28, 3, -36, 38, 31, -90, -15, -47, -5, 144, 3, 155, -38, 32, 178, 24, -155, -52, -135, -74, -95, -117, 191, 112, -17, -51, 114, 33, 174, -33, 96, 187, 12, -139, -26, 71, -139, 97, -100, -49, -76, 104, -81, -187, 7, -268, -112, -24, 94, -205, 115, 31, 189, 74, -36, -18, 145, -34, -62, -596, -68, -832, -190, 19, 126, -187, 166, -58, 73, 2, -181, 65, -24, -70, 4, -20, -221, -122, -60, 58, -20, -10, 56, -89, 22, 31, -194, -131, 28, 19, -11, 50, -13, 30, 21, 43, 10, -4, 116, -54, 158, -87, -230, -30, 40, -54, 40, 206, -4, 52, 92, -3, 115, -24, 176, -170, -130, -132, -147, -214, -6, 2, 160, 224, -30, 84, -59, -31, 64, -61, -73, -263, 231, -197, 144, 13, -35, -59, -30, -76, -21, -184, -26, 77, -97, 52, 41, -289, 144, -171, 81, 45, -143, -97, 25, 67, -410, 28, 11, 57, -367, 119, 49, -154, 5, -730, 143, -33, -421, -496, 101, 167, -301, 117, 129, 101, 11, 250, -115, 21, -46, -215, 177, 143, 6, -227, 48, 12, 12, 47, -36, 15, 16, -187, -67, 78, -85, 113, -78, 42, 52, 148, -83, -24, -15, -62, 28, -181, -20, -147, -104, -7, -72, 59, -71, -4, -43, -178, -145, -80, 41, -210, -73, -44, 34, -142, -48, 87, -85, 75, -35, -46, -94, -68, 73, 67, -71, 56, -22, -78, -177, 193, -16, 82, -125, -18, 146, -52, 228, -272, 84, 109, 44, 1, 145, 31, -122, 162, 1, -227, -51, 10, 61, -3, -95, -119, -24, 204, 114, 162, 211, 115, 56, -12, -82, 53, -114, -56, 17, -134, 58, 6, 77, 26, -30, -78, 41, -141, 33, -214, -58, -18, 42, 164, -133, 94, 21, 67, 48, -424, -29, -301, -131, -296, 99, 129, 144, -179, 108, -99, -257, -162, -25, 85, -2, -196, -310, -21, -203, 94, 29, 118, 3, -19, -69, -153, -97, 3, -9, -105, -189, -24, 31, 7, -89, -140, -82, 28, 3, -84, -141, 66, 32, -208, 41, 67, -22, -12, 74, -6, -25, -50, 19, 99, -94, 52, 36, -36, 49, 130, -13, 19, 2, -89, -30, -25, 21, -41, 21, 33, 112, -25, 42, 170, -37, -70, 97, -119, -32, -128, -119, -191, -40, -3, 80, 606, 74, -143, 201, -39, -49, -32, 61, 145, 74, -51, -145, -71, -69, 5, 337, 4, 310, 43, 262, -184, 225, 148, 183, 180, 229, 254, -244, 79, 30, 402}
, {43, 182, 138, 64, 177, 66, -40, 146, 36, 114, 229, -25, 84, 18, -52, 238, 278, -148, 34, 352, -30, -150, 194, -83, 318, 255, 199, -76, -39, -173, 134, 315, 46, -51, -284, 516, -143, 120, 425, -52, 44, 71, -139, -86, 40, -127, -169, -61, 153, -15, 19, 267, -83, -2, 55, 1, 17, 85, -191, -19, 161, -66, 115, 63, -118, 98, 68, 54, -21, -123, 38, -29, -3, -69, 62, -21, -145, 13, 43, 49, 0, -158, 2, 76, 109, 137, -32, 252, -35, -270, 209, 128, -71, -8, 58, -66, 222, -29, 88, 144, -22, -72, 111, 32, 10, 112, -34, 191, 17, -71, 171, -20, -1, -71, -275, 369, -223, 58, 204, -98, 5, 54, -361, -129, 26, -54, -34, -150, -33, 3, -271, 219, -279, 66, 73, -119, -39, 56, -78, -179, 194, -136, 99, -121, 10, 53, 4, 125, -212, -155, -61, 142, -81, 170, -41, 60, 47, -90, -108, -57, 18, 79, 30, -346, -74, -21, -157, 57, -75, -187, 143, 29, -246, 33, -67, -25, -129, -109, 23, -262, 85, -16, -168, -210, 51, -32, -258, -1, -145, 26, -216, 7, 201, 137, 109, 71, 219, 87, -46, 65, 87, 15, 246, -73, 127, 10, -26, -54, 54, 61, 97, 142, 0, 105, 30, -55, 291, 90, -54, -143, 24, -68, -110, -85, 39, -227, 72, 20, -17, 24, -10, 75, -76, -22, -43, 77, -67, 65, -163, -99, -13, -55, 10, -273, -134, 81, -68, -288, -285, 20, -306, -59, 147, -38, -496, 164, -7, 30, 35, 125, -255, -201, 62, 1, -26, 68, -381, 39, 185, -54, 4, 60, 127, 36, 144, 119, 110, 81, 18, 78, 97, 68, -94, -21, 62, -111, -76, 62, 36, -190, 60, -37, 34, -5, -179, 65, 31, 105, 33, 110, -18, -4, -64, -27, 55, -103, 76, -54, 187, -14, -76, 24, 86, 22, 4, -16, -49, -185, -95, 112, -87, 11, 37, -38, 109, 22, 91, -99, -324, 66, -75, -171, -82, -222, -58, 49, -137, -142, 15, 106, -95, -345, 76, 416, -81, 66, 8, -50, -218, -257, 10, -33, -48, -52, -60, 87, 16, -10, -5, 168, 17, -205, -21, -129, 99, -94, 145, -94, -156, -7, -11, -3, -81, 115, -144, 74, -179, 33, 21, -32, 103, -49, 32, -125, 112, -157, -10, 161, 208, 2, -47, 30, 103, 106, 37, 59, -13, 65, 76, 192, 147, -272, 37, -93, -33, 23, 56, 61, -29, 7, 171, 59, -188, -156, 41, -31, 52, -248, 106, -69, 73, -87, 53, 161, -29, -152, 113, 90, -182, -58, 75, -69, 65, -130, 100, -101, -70, 1, 35, -42, -60, -67, 152, 164, 15, 127, -35, 69, 76, 72, 114, -22, 162, 114, -47, -23, 59, -147, 139, -164, 88, 51, -63, 6, -76, 259, -50, 4, -5, -198, 240, 6, -54, -30, -99, 54, -102, 91, 46, 249, 167, -188, -34, 69, -214, -60, -74, 30, -130, -63, -10, -23, 1, -34, 43, -149, -14, 162, 90, -136, 144, 35, -30, -127, 32, 4, 31, 60, 115, 69, -2, 193, -54, 121, 101, -121, -17, -51, 11, 61, -291, 141, 4, 24, -33, 75, -45, 140, -19, -193, 61, 52, 55, -42, -36, -12, 72, 145, -8, 58, 104, 33, 10, 80, 65, 135, 176, -31, 207, -32, 103, 39, 157, 146, 193, -64, 37, 60, -20, 47, -26, -9, 137, 104, 154, -64, 2, -28, 168, -35, 96, 23, -43, 200, -56, 251}
, {32, 188, 118, -84, -9, 21, 39, -60, -17, 29, 137, 27, 40, -21, -108, 203, 141, 51, 106, 297, 38, -64, -76, 120, 52, 57, 40, 46, 13, -36, -148, 65, 157, -67, -5, 208, 86, -17, 187, 49, 292, 61, 19, -51, 69, -30, 197, 25, 139, -72, 65, -37, 107, 120, -45, 5, 79, 14, -40, 32, -16, -71, -3, 87, 180, -43, -38, 98, 69, 57, 40, -33, 24, 63, -157, -75, 70, -146, -34, 20, 56, 73, 178, 1, 2, -16, 94, 273, -67, -12, 84, -184, 53, -109, -37, -9, 125, 180, 255, 56, 278, 59, -14, 81, 57, 156, 210, 56, 122, -7, 104, 330, 193, 59, 202, 141, -84, 18, 224, 32, 415, -23, 167, 354, -100, 139, 246, 72, 147, -147, 6, -20, -228, 25, -237, 72, 402, -102, -64, 230, -44, 53, -185, -265, 305, -144, -84, 93, -246, 205, -201, -83, 183, -7, -386, -450, 12, -106, -503, -411, 225, -39, -162, 191, -282, 302, -114, -119, 55, 182, -283, -106, 189, -42, -57, -318, 132, -33, -27, 8, -167, 39, -165, 67, -94, 154, 128, 135, 239, 62, 120, -56, -18, -1, 42, 23, 50, -30, 173, 55, -56, 11, 133, 293, -114, 282, 73, 154, 51, 99, -119, 26, -7, 112, -48, -6, 247, -5, -3, -204, 123, 289, -137, 63, 93, 10, 107, -9, 25, 152, 1, -25, 245, 52, -115, -217, 52, -238, 131, 32, -61, 9, 7, 138, 39, 9, 140, 30, -136, 83, -25, -153, -14, -104, -94, 52, -83, 113, 57, -15, -8, -57, 160, 227, -142, 202, -182, 106, 64, 178, -33, 54, 53, 29, 41, 7, 70, 12, -25, -27, 106, -42, -89, 80, -202, 209, 9, 99, 71, -67, 134, 254, -39, -66, 131, 66, -18, 59, -71, -77, 109, 74, 33, -31, 156, -237, -24, 203, -14, 84, 73, -82, 272, 77, 31, 28, 35, 36, 45, -110, -51, 73, -33, -13, 51, -233, 60, 14, -95, -84, 21, 27, -72, 118, 31, 56, -144, 3, 49, -94, -14, -138, 49, 44, -291, 172, 32, 79, 23, -111, 109, 258, 26, 181, 62, 23, -53, -50, 66, 123, 12, -64, 73, 139, -156, -204, 228, 122, 112, 56, 74, 141, 65, 69, -39, -31, 111, -132, -87, -182, 89, -292, -97, -96, -75, -141, 54, 99, -46, -109, 115, -208, 170, -181, -33, 41, -244, 46, 27, -90, 63, -10, -190, 75, -68, -66, -217, -38, -36, -107, 8, -76, 72, -48, -19, -67, -17, -124, -61, -191, 30, 40, -137, -30, 218, 65, 22, 19, -71, -36, -71, -127, 9, 80, -85, 39, -31, 70, -16, 79, -65, 6, 35, -89, -53, -171, -163, 70, 5, -272, -85, 78, -22, 60, 66, 27, 54, 137, -153, 7, 91, -22, 19, -182, -36, -184, -75, 109, -50, 22, -178, 113, -113, 49, -201, -239, 211, -173, -40, -215, -47, 159, -13, -48, 110, -111, -147, -46, 32, -142, -61, -173, -3, -75, -187, 348, -1, -70, 65, -135, -35, 3, -93, -131, -158, 8, 11, -91, 31, 14, -63, -37, 52, -17, -40, 103, -95, 44, -22, -114, -76, 2, 34, -7, -22, 20, 13, 136, 35, -70, -7, 53, -32, -6, -70, -100, -24, -7, 56, 82, 123, 57, -34, -24, 2, 78, -80, -40, -114, 103, -49, 10, -54, 162, -27, 26, 51, -18, -99, 54, -53, 146, -30, 151, 53, -63, -77, -122, -5, 5, -85, 5, -14, -220, -66, -180}
, {202, 118, 360, -57, -75, -40, -14, 103, -37, 209, 315, -36, 45, -5, -156, 131, -32, -19, -40, 180, -175, -28, 220, -164, 2, 48, -17, -95, -6, 44, 94, 202, 76, 39, 53, -35, 74, 58, 155, -70, 29, -50, 350, 6, 47, -70, 134, 191, -23, -7, 32, -214, 217, -172, -108, 202, 61, -77, 245, -22, 3, -5, 127, 138, -103, -62, 39, -295, 122, -185, -87, 275, -28, -172, 67, 64, -258, 54, 38, 65, 113, -144, -79, -122, -11, 109, -284, -27, -37, -89, -24, -24, 20, -207, -187, -62, 141, -60, -56, 199, 63, -30, 249, 53, -117, 18, 136, 7, -85, 32, 378, 128, 100, -37, -54, 190, -69, -51, 58, -83, 341, 23, 77, 69, 56, 106, -8, -12, -88, -35, 24, 56, -138, -111, -36, -28, 257, -106, 184, 112, -110, 217, -52, -44, 224, -89, 84, -109, 77, 61, -144, -6, 162, -207, 75, -138, -394, -82, -187, -25, 223, -211, 226, -256, 230, -80, -341, -13, 143, -364, -173, -214, -264, -158, -337, -81, -57, -260, -67, -62, -146, 5, -121, -74, -43, -211, -309, -117, -383, -142, -406, -134, 66, 80, -23, 61, -141, -53, 229, -21, 68, -109, -57, 60, 18, 3, 115, -91, -109, 286, -61, -147, -237, -93, 30, -114, 155, -182, -71, 177, 312, 61, 21, -42, -119, 117, -2, -72, -120, 62, -23, -93, -152, -62, -31, -15, 228, 7, -159, 101, 19, -186, 104, 45, 4, -18, -8, -33, -122, -120, -47, -275, -28, -71, 1, 16, 173, -128, -10, 232, 64, 65, 129, 273, 167, 314, -91, -182, -137, -184, -51, -111, -109, -109, -82, -54, -47, 175, -278, -114, -38, 136, -109, -169, 203, -226, 27, -189, 10, 264, 284, -26, -47, 4, -15, -181, 31, -79, -178, -93, 124, -107, -182, 113, -210, 6, 15, 32, -21, 64, 173, -54, -55, 133, -59, 5, 71, 23, -53, -13, 20, -203, 24, 84, -86, -32, 51, -138, 52, 138, 153, 78, 85, -38, 53, 12, -228, -133, 46, 47, 133, 42, 152, 68, -57, -195, 35, 16, -124, 13, 74, 35, 6, -119, 36, -112, -69, -153, -221, 7, 88, -111, 29, 35, 132, -90, 168, -41, -3, 110, 77, -58, 157, -32, -35, 57, -9, 109, 9, -32, -83, -47, -176, 67, 382, 7, 206, 11, 162, -14, 155, 198, -7, 319, 172, -128, -65, -105, 16, 51, 114, -145, 9, 129, 26, 136, 31, 105, -159, 109, 49, 30, -24, 18, 86, -6, -80, -47, -37, 44, -66, -133, -67, -163, 78, 25, 30, 73, 108, 26, 71, -36, 5, 0, 4, -61, -102, -208, 171, -47, -142, -25, 186, 59, 181, 71, 30, 68, 33, 34, 73, -29, 46, 54, -81, 68, 1, 16, 195, 32, -83, 46, 19, -27, 177, 40, -66, 117, 187, -29, 60, 160, 103, 278, 104, -48, -4, 59, 191, -15, 162, -15, 103, 304, 293, 27, 50, 218, -39, 89, 195, 98, -34, 63, 57, 358, -82, 183, 107, -144, -159, 112, -3, -15, -49, 43, -13, 34, 116, 82, -20, 76, -146, 186, 26, -20, -108, -142, 28, 98, -589, 64, -32, -20, 17, -92, 5, 90, -93, 230, -8, -15, -250, -22, 35, 67, -319, 231, -73, 58, 49, -130, 50, 84, 136, 192, 89, 112, 33, 87, 81, -59, -73, 109, 129, 43, 50, -124, 78, 19, 62, 236, 109, 185, 188, 168, 179, -42, 118, 106, -38, 10, 39, -192, 51, 198}
, {71, -102, -173, 17, -26, -56, 156, -27, 93, 31, -89, 78, -45, -6, 141, -128, -19, 4, -67, -28, -91, -18, -16, 33, -237, 129, -132, 14, 98, 81, 18, -148, 3, 109, 31, 170, 139, 23, 195, 50, -217, 1, 97, 11, -31, 6, -16, -16, -27, -11, -41, 1, -80, -73, 99, -18, 24, 121, 78, -67, 36, -4, 2, 64, -174, 17, -66, 154, 68, 100, 98, 47, 97, -72, 150, 67, -102, 17, -40, -19, 27, -46, -194, 104, -53, -144, 104, 121, -40, -21, 127, 119, -20, -58, -43, -42, 187, 161, 269, -71, 78, 10, -98, -26, 193, -66, 40, -131, -75, 188, -136, -27, 39, 65, 233, -175, 200, 103, -65, 267, 159, 104, 226, 1, -52, 59, -74, 168, -62, 130, 143, -81, 145, -84, 49, 157, -101, -65, 1, 124, -119, 192, -134, 56, -29, 101, -21, -100, -80, -519, 125, -20, -371, -112, 66, 191, -137, 143, 127, 92, -1, 99, -2, 195, -38, -124, 171, -160, 122, 55, -290, 7, 220, 132, 62, 67, -27, 193, 9, 100, -39, -11, 136, 35, 10, 17, -96, -9, 222, 27, -39, 71, -275, -93, -132, -29, -17, -44, -16, 109, 44, -230, 68, -4, -160, -42, -17, 252, 42, 5, -71, -158, -1, -17, 103, -33, -133, -18, 62, 100, -185, 177, 77, 51, -20, -185, -29, 134, -43, -17, -27, 43, 91, -152, 48, -37, -208, 38, -49, 77, 24, -82, -50, -143, -12, -53, -5, 25, -272, -246, 125, 106, -21, -43, 154, -5, -24, 150, -153, 82, -248, -88, 160, 71, -9, -26, -11, 90, 28, -61, 212, 38, -235, -175, -283, 28, 9, 142, 273, 216, -203, -77, 287, 282, 220, 131, 359, 7, -151, 28, -193, 6, -103, 76, 124, 82, 65, 43, -26, -1, -128, 91, 42, -99, 45, 192, -125, 170, -203, -23, 27, -145, -34, -33, -77, 24, 197, 203, 70, -179, 33, 39, -21, 46, -108, 75, -24, -116, 75, 114, -99, -136, 98, -231, -154, 60, -39, -285, 253, -90, 92, -127, -225, -26, 88, 31, 213, 68, -126, -44, 10, -88, -33, -47, 71, -187, 53, -65, -9, -189, -43, -112, 12, 388, 95, 146, 37, 178, -69, 16, -142, -45, -53, -274, -110, -217, -43, -105, -246, -6, -133, 181, -132, -81, 6, 22, -41, -1, -167, 37, -70, -213, -38, -166, -209, 43, -120, 33, 4, -305, 108, 65, 36, 237, -24, 47, 79, -147, 18, 12, -67, 43, 93, 45, 5, 2, -11, 42, 98, -86, -94, -10, 134, -30, 110, -82, 32, 82, 56, -11, -69, -76, -21, 58, 36, -121, -84, 89, -101, 8, 82, -85, -140, -82, -190, -79, -458, 126, 66, -332, 111, -16, 131, 41, 11, 47, 4, 91, -43, -123, -143, -225, -114, 123, -40, -257, 36, -61, -39, 104, -209, -85, 180, 7, -247, -332, -101, -164, -143, -69, -176, -51, -33, -167, 249, 18, 40, -112, 114, 331, -102, -206, 15, -176, -91, 180, -14, 109, -100, 98, 235, -77, -47, -35, 207, 46, 28, -73, -32, -29, -113, 28, 21, 75, 84, 2, 161, -29, 114, -76, -154, 65, 9, -16, -3, 31, 40, 105, 44, -93, -52, 105, -78, -24, 74, 37, -19, 107, -53, -196, 136, -126, -68, -27, -48, -345, -106, 211, -226, 258, -114, 87, -16, 225, -182, -205, -101, -196, -166, -291, 115, -176, 9, -6, 13, 261, -168, -69, 126, 43, -128, -410, -8, -127, -47, -201}
, {-66, -10, 117, -9, 140, -20, 58, 62, -67, 5, 242, 59, 89, -51, 99, -6, 56, -4, -24, 89, 163, 71, -18, 41, 194, 124, -22, 75, -79, -97, 2, 99, 53, -100, -119, 382, -196, 80, 77, 6, 141, 40, -411, -77, 100, -23, -57, -214, 144, -54, -60, 178, -56, 127, 118, 25, 13, 8, -167, -10, 4, -86, 48, -103, 66, -9, -188, 166, 75, 156, 222, 120, 6, 100, 191, -70, 39, -39, 11, -106, 233, 103, 139, 127, 83, -109, 197, 308, -33, 39, 238, -25, 263, -27, 201, 173, 28, -311, 3, -100, -7, -197, -112, -37, -217, 13, -25, 47, -257, -150, -162, -115, 233, -106, 56, 223, -13, 68, -160, 32, -13, 42, -209, -274, -39, 86, -225, -154, 94, 31, -193, 204, -222, 59, -17, -56, 260, 70, -504, -129, 77, -24, -167, -138, -40, 30, -187, 54, -280, 27, 180, -86, -6, 164, -70, 128, 189, 11, 35, -50, 22, 39, -70, 20, -133, 43, 97, -31, -58, 17, 10, 54, 207, 28, 262, 29, -37, 10, -86, 16, -118, -1, 133, 161, -160, 97, 205, 103, 334, 66, 359, 62, -77, 149, -91, -1, -243, -235, -133, -229, -75, -293, -49, 23, -78, 46, -163, -136, 159, -19, 122, -51, 134, 65, -251, -50, 86, 100, -17, -609, 54, -446, -381, -60, 103, -235, 287, -39, 111, -1, -209, 68, -33, 86, -131, -222, -168, -315, -373, -60, -104, 125, 47, -106, -114, 199, -68, -263, -334, 11, -271, 89, 175, 97, -62, 106, -35, 64, -3, -20, -232, -327, 129, -99, 15, 144, -74, 232, 100, 175, 150, 44, 7, 109, -15, -51, -60, -127, 157, -17, 10, -105, 33, 353, 153, 160, 59, 1, -254, 75, -49, -160, 9, 7, 69, -151, -103, -144, -145, -8, 214, -74, -22, -9, 80, -168, 108, -123, 107, 94, -135, 59, -36, 9, 115, -5, -147, -64, -93, -139, -67, -134, 109, -14, 110, -118, 81, -6, -252, -216, 97, 141, -254, -15, 15, 163, -5, 116, 34, 4, 60, -150, 70, 212, -28, -147, 101, 94, -131, -40, -20, 112, -143, 221, 48, 37, -134, -130, 6, 71, 48, -322, -124, -23, 272, 140, 41, 44, 56, -7, 93, 39, 8, 98, -74, -145, -17, -246, -25, 20, 105, 70, 34, 64, -67, -10, -113, 48, -169, 78, 31, -111, 25, -21, -124, 17, -9, -49, 72, -163, -23, 88, -52, 44, -36, 8, -70, -32, 134, 26, 10, 10, 152, -36, -56, 34, -61, -194, 12, -28, -36, -28, 0, 116, -90, 8, 2, -51, -138, -182, -81, 53, 17, -102, 61, -17, 60, -159, -95, 191, 91, -73, 0, -4, -269, -216, 19, -55, -12, -118, 18, 18, -32, -65, 1, -78, 47, -142, 55, 91, 141, -47, 36, 38, 92, -89, 76, -93, 103, -34, -19, -110, -22, 69, -17, -72, -72, 17, -41, -50, -175, -74, -88, -136, 11, -243, -240, -118, 70, -194, -297, -147, -25, 13, -294, -99, -29, 94, -43, 30, -3, 103, 2, 9, 61, 78, -14, -54, -67, 35, -72, -25, 81, -25, -45, 16, 31, -35, -50, -24, 93, -67, 0, 3, 4, 82, 9, 61, 70, -65, 130, 42, 128, -19, -57, -44, 122, -41, -19, -40, -61, -13, 4, -12, -16, 68, 109, -74, 21, 55, -113, 5, 15, -154, -48, 29, -14, 7, -110, -93, 229, 236, -77, 28, 152, -64, 51, -17, 77, 86, 81, 121, -161, -15, -35, 81}
, {119, 169, 323, 184, 117, 110, 108, 172, 33, 204, 278, 111, 214, 73, 90, 155, 103, -23, 17, 73, -124, -100, -17, -156, 36, 50, 57, 97, -42, -10, 216, 159, -12, -6, -51, -38, -68, 106, -74, -8, -163, -24, -42, 27, 27, 43, -67, 23, -94, 8, 92, -77, 26, -64, 79, 17, 7, 41, 26, 49, 16, 27, 96, 45, -42, -154, 4, -67, 34, 82, -26, -145, -21, -204, 136, 5, -195, -37, 131, -62, -249, -292, -262, -220, -160, 182, -159, -225, -145, -253, 70, -137, -102, -56, 105, -260, -17, -41, -66, 115, -4, -27, 102, -54, -33, 131, -85, 92, -6, -151, 74, 97, -73, -9, -350, 125, -138, -22, 118, -113, -304, 38, -85, -34, -15, -69, 12, 67, -282, 48, -396, -45, -200, -95, 40, 8, -804, -16, -10, 64, 163, 9, -59, 62, 30, 1, 16, -35, 20, -134, -74, -14, 163, -41, -47, -70, -15, -112, -64, -2, -76, -80, -25, -186, 95, 119, -221, 103, 13, -278, -145, -219, -620, 13, -389, -53, -307, -260, -35, -146, -132, -35, -327, -145, -10, -376, -278, 58, -140, -76, -473, -143, 277, -114, 181, 211, -21, -69, 20, 10, 121, 3, -13, 49, -105, 28, -13, -73, 86, -87, -77, 109, -171, -15, 1, -53, 268, -29, -16, -49, 65, -140, -67, -72, -112, -8, -87, 12, -120, 62, 101, 5, -101, 78, 13, -52, 206, -45, 45, 46, -1, -163, -23, 196, 199, -156, 128, -28, 18, 37, -94, -244, 208, -115, -110, -4, -62, -33, 46, 129, -93, 28, 28, -25, 62, 47, -270, -184, -199, -208, -54, -26, -89, -282, -93, -36, -159, 222, -147, -235, 129, 55, -476, -310, -295, -147, -193, -161, 282, -78, 378, -297, 102, -58, -291, 93, 66, 2, -50, 64, -226, 100, -122, 20, 98, -113, -25, -391, 59, 72, -257, -94, 390, -302, 71, 17, -191, -55, -11, -35, -192, -86, -8, -281, 175, 75, 86, 51, -16, -102, 159, 98, -149, 103, 82, -23, -22, -9, 8, 130, -1, -204, 169, 157, 24, -148, 155, 0, -79, 33, 50, -153, -60, -3, -24, -75, 52, 106, -372, -26, 32, -222, 2, -43, -285, -243, -15, -39, -234, -112, 15, -144, 138, -18, -419, -38, -37, -264, -228, -43, 73, -46, -167, -198, 170, -1, -11, -11, 1, -64, 34, -37, 117, 5, 108, -37, 150, 67, 86, 22, -80, 57, 127, -431, 113, -50, -4, -421, 209, -126, 73, 136, 29, 114, 14, 90, -248, 122, -6, -230, -228, -119, -9, -96, 48, -79, 56, 82, 53, 128, 84, 150, 48, 98, -4, -4, 36, 75, 23, -86, 142, -3, -9, 83, 55, 140, 52, 43, 105, -279, 44, -23, 80, 99, 9, -58, -6, 102, -248, -215, -74, -162, -140, -80, -13, -238, -90, -92, -190, 124, -188, -73, -82, -27, -131, -181, -6, -19, -163, -83, 60, 421, 129, -76, 289, 93, 89, -41, 75, 134, 85, -40, 455, -44, -92, 342, -155, 232, 240, 28, 58, 32, 2, 34, -1, 159, -81, 21, 238, 86, -64, 46, 91, 155, 84, 78, -99, 91, 105, 1, 77, 116, -78, 53, 88, -34, -31, 54, 69, 152, 10, -32, -23, 234, 43, 109, 89, 224, -47, -25, 57, -80, 9, 5, 138, -142, 21, -48, 46, 138, -153, 42, 46, 152, -113, -7, 177, -66, -66, -234, -77, -28, 207, -154, -67, 21, -94, 27, 177, 293, -112, -179, 4, -99, -151, -72}
, {-34, 40, 167, 85, 210, -135, 1, 163, -96, -41, 2, 8, -21, -56, 192, 120, 235, -27, 6, -1, 23, 12, -106, 46, 349, 87, -74, 89, -75, -28, -115, 157, 167, -58, -23, 257, -34, -6, -14, 76, 250, 81, -310, 11, 30, 1, -90, -77, 64, -85, -34, 296, -138, 203, 177, 70, -72, -11, -128, -246, -93, -79, 222, -119, 173, -21, -74, 311, -138, 266, 167, 202, 65, 13, 232, -44, 171, -39, -159, 91, 316, 230, 91, 119, 203, -58, 346, 296, 112, -30, 133, -16, 314, -13, 80, 228, -16, -77, 243, -101, -70, -89, -219, 101, -34, -78, -116, -54, -80, 44, -345, -87, 299, -60, 49, 181, 102, 127, -203, 151, 245, 70, -196, -386, 73, 0, -390, -215, 227, -24, -189, 205, -204, 60, -32, -9, 362, 168, -292, -53, 102, 42, 149, -61, 30, -11, -160, 135, 16, 105, 38, -134, -20, 126, 39, 87, 112, 42, 134, -43, -23, 177, -71, 59, -70, 7, 203, 44, -66, 210, 138, 174, 466, 63, 421, -18, -25, 187, -27, 43, 23, -97, 259, 177, -68, 260, 326, 116, 424, 34, 362, 148, -199, -161, -170, -212, -57, -35, -231, 56, -280, 68, 44, -131, -33, -230, -146, -43, 120, -234, 402, -50, 299, 104, -143, 104, 27, 123, 34, -457, -98, -634, -208, 138, 125, -77, 225, 18, 32, -79, 64, -152, 98, 73, -181, -112, -136, 1, -84, 12, 56, 127, -24, -69, -58, 230, -33, -127, -105, 66, -91, -13, 71, 103, -110, -3, -45, 103, -12, 3, -80, -33, 3, -47, -74, 63, 92, 257, -2, 13, 100, 114, 94, 24, 103, -150, 54, -70, 77, -20, -68, -39, 233, 293, 97, 149, 64, 15, -370, -20, -167, -376, 52, -64, 164, -35, -100, -69, 8, -116, 21, -175, 164, 63, -13, -240, 137, 4, 156, 2, -40, 74, -152, 73, 137, -4, -141, -152, 70, -65, 30, 23, 166, 45, 135, -296, 66, 80, -242, -208, 55, 120, -224, -9, 26, 159, -3, 103, 80, -112, -73, -201, 56, 117, -172, 70, 22, -41, 2, 59, 5, -48, 16, 59, 14, -24, 9, -186, 131, 45, 29, -112, -26, 105, 90, 188, 1, 21, 7, -4, 14, -16, -24, 76, 3, 119, 76, -192, 111, -1, 13, 30, 79, -50, 10, -6, -77, 48, -110, -121, -52, -222, 48, -50, -141, 103, -131, 71, -33, -69, 82, -20, 61, -81, -33, 43, -104, 69, -46, -68, 93, 21, 14, -76, 39, -74, -40, -62, 118, -77, 99, -5, 25, 79, 131, -137, 77, -53, -145, -68, -81, 19, 3, 10, -43, -44, 11, -189, -36, 13, 67, 51, 22, -5, -111, 0, -71, 11, 15, -73, -16, 10, -3, 26, 41, 102, 67, -14, -14, 158, 78, -15, 160, -35, 12, -13, 180, -84, -34, 18, 23, -35, 3, 15, -125, -178, 16, -62, -31, -11, -94, 111, -55, -82, -90, -302, -209, -81, 68, -124, -266, -131, -182, -123, -164, -83, -78, 91, -121, -131, -35, -77, -2, 14, -9, 50, -75, -48, 43, -18, -90, -96, 156, -13, 53, 22, 23, -94, -3, -63, 85, -150, 32, 11, -156, -51, 16, -62, 73, -22, 92, -61, 146, 114, 6, -37, 160, -87, 65, -36, 64, -7, 51, 57, -71, 1, -11, 49, 200, 73, -36, -21, 66, 72, 28, 91, -1, -69, -2, -42, 237, -38, 125, 182, 109, -81, 7, 69, 21, 220, -20, 20, -234, -121, -96, 77}
, {94, 83, 129, 120, 229, 19, -32, 206, 73, 52, 150, -83, 60, -118, 76, 68, -17, 4, -42, 188, 22, -34, 367, 29, 153, 3, 266, -117, -131, -75, 230, 63, 182, -44, 56, 172, -28, 0, 167, 93, 112, -50, 64, -42, 2, -9, 193, 57, 23, -66, -66, -22, -18, -33, -3, 2, -14, -15, 132, 29, -13, -1, -35, 41, 14, -32, 42, -85, -125, 15, -50, 210, 40, -64, -20, -44, -16, -23, -167, 87, 2, -33, -124, -11, -40, 104, 86, 13, -55, 128, 69, 93, -157, 39, -187, -138, 73, -151, 3, 26, 14, -200, 19, 1, 139, -83, -176, 203, -162, 88, 149, -152, -171, -46, -51, 43, -291, -8, -112, -219, -65, -88, -94, -16, 127, -16, -47, -95, -77, -1, 45, -44, 82, -39, -29, -29, -211, -55, -11, 17, -13, 152, -86, -25, 102, -145, 7, 14, 52, 200, -64, -1, 207, 7, -42, -23, 124, 53, 156, -171, -71, -230, -141, -28, -50, -11, -258, -62, -26, 29, 89, -70, -10, -148, 40, -65, -26, -174, 15, -84, -128, 46, -142, -47, -105, -292, -251, -303, 238, 55, -69, -145, 44, -28, 46, -52, -284, -57, 193, -106, 32, -120, -179, -195, -20, -56, 35, 69, -159, 190, -246, 13, -415, -175, 16, -85, -64, -340, -122, 67, -176, 41, 132, -363, -100, 120, -285, -208, -72, -30, -102, -38, -293, -145, -4, 53, 103, 171, 80, -146, 121, 31, 86, 85, 81, 173, -106, -80, 225, 64, -70, 216, 145, 152, -1, 25, -70, -254, -262, -77, -74, 139, -67, -160, -20, 131, -123, -214, 151, -296, -162, -251, -24, 190, 36, 42, -48, -48, -76, -170, -123, 173, -91, -215, -146, 28, -198, -9, 35, 8, 88, 196, -5, 14, -196, 5, 130, 44, -149, -21, 1, 162, -204, -14, -135, 140, -46, 3, -22, 7, 100, 27, -128, 70, -485, -412, -35, -91, -458, 51, 33, 76, 17, -93, 7, -47, -6, 39, -103, 25, -76, -220, -38, -69, -145, 104, 55, 155, 40, 82, 29, -40, 11, -45, 186, 146, -423, -273, 56, -338, -60, -80, -330, -60, -162, -62, -227, 176, 101, -68, -49, 143, -88, -157, 219, -78, -72, -83, -80, 43, -113, -40, -124, -48, 203, 86, -189, 238, -23, 68, 93, 22, 117, 113, 111, 1, 43, 113, 19, -36, 70, 99, -136, 103, -44, 46, 89, -77, 87, 76, 20, 10, -40, -30, -62, 150, 140, 1, 70, 72, -5, -111, -43, -148, 114, 63, 40, -44, -88, 133, 61, 109, 70, 52, 202, 172, -17, -134, 53, -213, 90, -60, 18, 132, -15, -70, 193, 13, 46, 77, -26, -186, 107, -77, 326, 159, 131, 27, -29, 231, 180, -105, 163, -375, 242, 53, 63, 284, 133, -8, -12, 192, 125, 149, 69, 322, 20, -76, 275, -53, -31, 146, -112, 428, 224, 150, 39, 247, 91, 77, 239, -76, 39, 101, -124, -73, 191, 125, 63, -104, 99, 36, -191, -9, 58, -77, 72, -241, -193, 37, -203, 46, 19, 114, -67, -73, 18, 51, 9, 47, 47, -30, -76, -332, -297, -21, -76, -100, 0, -15, -50, -148, -83, -54, 223, 170, 23, -124, 26, -80, -68, -155, -105, 142, -94, -54, -202, -248, 51, 57, -89, 52, 12, 46, 278, 226, 61, -193, -61, -184, 14, 111, -67, 41, 70, 233, 77, 316, 85, 122, 351, 239, 74, 287, 192, -40, 162, 216, -43, 15, 146, 338, 33, 153, 84, 94}
, {69, 86, 49, 61, 53, 133, 43, 33, 85, 202, 90, 162, 114, 48, 33, -85, 98, -43, 131, 112, 26, 83, 225, 287, 230, 20, 14, 223, -71, 26, -5, 48, 172, -84, -44, 193, 109, 21, 68, 219, -45, 101, -182, 23, 25, -38, -130, -3, -24, -21, -46, 191, -141, 23, 63, -37, -15, -124, -264, -104, -20, -77, 85, 9, 162, -12, 39, 72, 28, 39, 39, 123, 70, 263, 134, -53, 30, 32, 74, 99, 84, 24, 120, 99, -6, -30, 122, 139, 122, 74, -13, -14, 157, 32, 136, 55, 144, -245, 123, -49, -26, 85, -280, 157, -2, 179, -58, -122, -119, -82, -475, -166, 107, -69, 179, 19, 91, 37, -263, 188, 191, -18, -294, -350, -44, -204, -460, 57, 102, -16, -3, 22, 124, 277, -69, -114, -61, 39, -296, -122, -130, -101, 24, -72, -290, 41, -135, 43, -63, 7, 125, -106, -198, 42, 48, 104, 65, 172, 178, 40, -349, 134, -94, 5, -156, -134, 187, -18, -213, 169, 145, 92, 163, 126, 221, 37, -170, 168, -79, 46, -55, 149, 256, 103, -180, 100, 231, 42, 291, 183, 289, 136, 321, -258, 90, -320, -102, -8, -223, -136, -132, -34, -123, -285, -143, -186, -298, -194, 129, -76, -109, -27, 43, 79, -151, 49, 170, 101, -102, -194, -78, -480, -2, 14, 177, 51, 61, 91, 16, -84, 23, 46, 175, 50, -86, 22, -55, -94, 60, -63, -383, 82, -87, -97, -69, 97, 123, -93, 11, -155, 159, 139, -27, 60, 164, 52, -404, 33, -81, -386, 51, -270, -27, -85, -168, -348, 246, 189, -25, 86, 111, 107, -60, 86, -13, -366, 50, -429, 130, 102, -161, -168, 337, 113, 89, 132, 142, 125, -84, -90, -52, -170, 43, 45, 53, 32, -2, -43, 154, -68, 51, -201, 130, 83, 20, -19, 95, 153, 35, 96, 103, 154, 136, -75, 29, -37, -202, 32, 56, -60, 74, -47, 155, 54, 41, -129, -11, -115, 275, -274, 30, 15, 186, 69, 26, -46, 121, 81, 74, -266, -59, 107, -120, -161, 268, -27, 12, 20, -5, 31, -21, -6, 9, 42, -22, -452, 21, -27, -119, -62, 14, -71, 25, 38, 201, 123, -107, 126, 60, 12, -2, -66, -17, -263, -60, 35, -37, 17, -57, -129, -413, -49, -343, -1, 61, 109, 22, -67, -93, 24, 55, -22, -1, -63, -75, 170, -52, 25, -19, -147, -109, 115, -45, -160, -121, -129, -46, -59, 175, -187, -70, 35, 136, 22, 50, 29, 49, 39, 96, -150, 119, -162, -56, -211, 19, -173, -42, 31, 81, 91, 44, -13, -144, 104, -33, 39, -105, 86, -31, -215, 70, 177, -39, -60, -56, 2, 52, 16, 21, 79, 16, -28, -233, -122, -70, -169, -9, 36, -31, 50, -75, 29, 43, -49, 32, 140, -73, 59, -87, 19, 34, 16, 24, 197, 4, -78, 69, -15, 8, -101, 39, -14, 23, 8, -25, -88, -241, -20, 197, 14, -167, -92, -125, -76, -124, -123, -179, -127, -86, -203, -103, 93, -138, -35, 105, -23, -56, -13, 46, -27, -40, 18, -33, 77, 120, -70, 22, -272, 23, -71, -70, -34, 88, 30, 48, -7, 0, 14, -281, 163, 74, -9, 9, -198, 9, 51, -254, -174, 7, 15, -31, 111, -13, 116, -146, 5, -35, 50, -136, 37, 55, 157, -124, 122, -46, -43, 65, 30, -15, 27, 36, -2, 149, 141, -50, 54, -11, 276, -19, 212, -7, -62, 121, -29, -88, -213}
, {57, 167, 234, 20, 294, 45, 91, 269, 64, 224, 159, 84, 170, -74, -119, 132, 226, 15, 86, 99, 83, -28, -67, 47, 41, 96, 78, 20, -7, -37, -107, 87, 201, 47, 97, -73, 15, 115, 59, 248, -20, 19, -18, 37, 23, 57, 99, 143, -88, -3, 26, 122, 68, -177, 170, -75, -43, 40, 235, 9, -84, 40, 267, 27, 27, 4, 14, 26, -51, -45, 118, 17, -4, -70, -21, -25, -49, -64, -16, -40, 131, 5, -37, 14, -132, 36, 86, 92, -76, 141, -1, -98, 51, 15, 134, -75, 78, -103, -113, 205, -81, 21, 87, 180, -75, 163, 71, 88, -83, -192, 49, 57, -65, -17, -169, 63, -55, 31, -58, 131, -385, -117, 35, 93, -83, -49, 18, -28, -49, 34, -25, -93, 84, -91, 54, 43, -248, -43, -34, 4, -69, 33, -29, 21, -75, 6, 50, -4, -57, -179, 22, -2, 69, -147, -80, 25, 59, 167, 27, 43, -46, 13, -17, 2, -3, 22, 130, 35, -16, -14, 52, 97, -10, 73, 124, 13, -147, 10, -58, 70, -90, 31, 71, 24, -27, -89, -63, -50, 103, -77, -84, 51, 128, -469, -84, 135, -155, -113, -64, -14, -67, -184, -223, -1, -251, -48, -53, -21, 12, 19, -191, 25, -183, -24, 32, -65, -10, -42, -15, 33, 74, 65, 54, -97, -23, 64, -165, 14, -25, 138, 171, 112, -15, -15, -8, 92, 233, -79, 103, -33, 11, -33, 12, 26, 10, -254, 73, 13, 186, 96, -10, 37, -6, 55, 143, 11, -177, 131, -12, -35, -89, -150, 63, -219, -70, -215, -10, 122, 125, 132, 114, 31, -215, 46, -404, -59, -87, -116, 9, -15, -180, -286, 136, 52, 14, 3, 261, 77, -106, 157, 242, -281, -166, -219, 145, -123, -37, -479, -208, 91, -72, 137, 234, 4, -335, 102, -29, -409, -197, -77, 0, -174, 46, -356, 38, 38, -96, 320, 237, -31, -73, -48, -43, -156, 86, 234, 27, -162, -46, -141, 161, 169, -103, 174, 213, -47, 68, 42, 62, -92, 77, -322, -47, 89, 303, -497, 21, 105, -170, 139, 6, 34, 10, 2, 65, -374, 61, -78, -246, -114, 28, -306, -151, 5, -140, 61, -80, -25, -236, -81, 8, -330, 111, -228, -327, -86, -26, -295, -161, -7, -201, -6, -463, 28, 28, 289, 159, 34, 7, -60, 99, -275, 239, -130, -124, -199, -54, 82, -20, 221, -93, 291, 88, -310, -15, -120, 46, -212, 129, -235, -111, 99, 133, 372, -24, 156, -286, 215, 7, -451, -53, -326, 58, -410, 52, -331, -120, 158, 193, 116, 163, 83, -37, 79, 51, 32, -14, -66, -14, -151, -20, 76, 70, 163, 108, 80, -2, 43, 12, -10, 68, 64, 93, 162, -79, -3, 45, -86, -122, -205, -35, 18, -214, 24, 101, -235, 136, -31, 21, 96, -236, -135, 138, 149, -239, -380, -202, -227, -149, -1, 206, 208, 98, 27, 382, -81, 99, -114, 158, 90, 43, -136, 226, -75, -57, 384, -156, 540, 221, -26, 234, 35, -76, -11, -34, 100, -22, 1, 364, 4, -85, -39, -233, 274, 88, 99, 105, -48, 33, 40, -218, 238, 14, -2, 85, 11, 8, 23, -256, 40, -145, 111, -163, -84, 29, 118, -66, 143, -37, 4, 98, -142, 2, -41, 66, -11, -163, 30, -76, 34, -95, -57, -91, 248, 14, -71, 70, -127, -22, -237, -21, -70, 41, 81, 100, 90, -114, 167, 164, 313, -34, -290, -75, -264, -77, -99}
, {99, 96, 210, 160, 32, -36, 222, 46, 16, 236, 128, 117, 31, 42, 112, 3, 151, -81, 98, 193, 32, -51, -47, 179, 126, 11, -74, 172, 21, 38, -140, -140, 23, -27, -39, -176, 33, 31, -63, 85, -231, -58, 86, 192, -7, 81, 94, -32, 35, -32, 41, 108, 140, 63, 140, 5, -18, 124, 125, 10, 29, -11, -49, -38, -80, -12, 2, 9, 45, 31, 85, 88, 78, 62, -103, -71, 116, 33, -124, -9, -54, 107, 65, 8, -123, -93, 14, 84, 14, 136, 180, 15, 46, 55, 62, -20, 153, -108, 82, 178, -97, -36, 102, 115, 205, 31, -20, 72, -46, -12, -90, -212, -171, -43, -155, -167, -9, -159, 32, 11, -74, -78, 15, 105, -150, 36, -12, 102, -108, -68, -174, -252, 136, -3, -14, -79, -228, -45, -64, 76, -48, 81, -157, 105, 98, -14, -14, 8, 21, 68, -3, -110, 80, -41, -277, -2, 58, 233, 57, -49, -150, -38, -85, 76, 4, 133, -28, 43, -34, -9, -78, 100, -80, 95, 106, -53, -91, 46, 112, 160, 67, -24, 51, 109, -5, -182, 128, 104, 93, -21, 46, 93, 170, 31, 42, 135, 137, 10, -93, 39, -16, -51, -185, 28, -2, 3, -116, 61, -88, -49, -150, -201, 8, 77, -153, 90, -82, 41, -227, -137, 124, -124, -211, -12, 152, 55, -179, 130, -19, 78, 76, -10, 37, 122, -90, -26, 281, 63, 128, -10, 35, 27, 109, 123, 126, 24, 35, 123, 117, -73, 78, -34, -75, -206, 84, 48, -57, 184, 224, -126, 221, -151, 121, 126, -24, -248, 217, 139, -116, 138, 218, 162, 142, 9, -27, 37, 50, -67, 82, 68, -47, -43, 291, 157, -109, 49, 189, -5, -24, 175, 72, 76, 53, 46, 183, 79, 212, 48, 110, 60, 45, 154, 234, 73, 34, 77, 191, -89, 106, -63, 57, 87, 400, -167, 62, 82, -205, 47, 104, -179, 141, -237, -28, -84, 76, -35, -199, -29, 116, -149, -5, 67, -148, 97, 154, -299, -113, -123, 40, -358, 23, 109, -234, -131, -182, -146, -55, 100, 8, 108, -115, 160, 66, -122, 74, 42, 165, -31, -123, 11, 139, -96, 12, -50, 40, 83, -359, -38, 176, -404, 147, 118, 14, -9, 68, 11, 86, -130, -264, -485, -193, -344, -153, 66, 129, 23, 242, 11, 97, 72, 247, 51, 168, 75, 189, 22, -41, -118, 124, 159, 212, 13, 47, -115, 85, 37, 92, 143, 62, -20, 78, -176, 21, 74, -33, 60, -27, -76, 84, -156, 143, -105, -22, -201, 47, 11, 8, -178, -146, -112, -40, 79, -71, 101, -120, 101, -104, -15, 45, -13, -69, -27, -127, -19, -53, 66, 120, -2, -95, -247, -223, 126, -200, 187, 22, 27, 53, 174, -165, -45, 239, -210, 143, -298, 39, -255, -330, 128, -157, 148, -327, -94, -53, 6, -4, -150, 40, -6, -51, -248, 35, 71, 35, 32, 205, 1, -102, -107, 129, 164, 36, -62, 79, -71, 12, 184, -135, -57, 208, 89, 54, -169, 41, 41, -83, -93, -12, 105, -167, 71, 18, 31, -194, 62, 51, -21, 57, -144, 21, 162, -450, -107, 89, 40, -59, 87, 53, 3, -320, 106, -183, -74, 6, -83, -30, -24, -186, -203, -146, 5, 63, -101, -12, -37, -412, 62, -266, 162, -274, 60, -71, 143, -281, -121, -289, -249, -38, -171, -61, -376, -208, 99, -251, -56, -16, 72, -276, 12, -300, 69, -109, -120, 38, -193, -151, -186}
, {133, -54, -87, 42, 103, -88, -33, 46, -180, 52, 98, -221, -46, -135, -31, -1, 142, -62, -2, 284, 25, -1, 108, -109, 162, 56, 246, -195, -32, -80, -10, -23, 198, -79, 78, 342, 110, 107, 326, 76, 343, 41, -43, -3, 23, -94, 90, -23, 252, -28, 4, 215, -6, 294, 108, 69, 228, 44, 29, 15, 127, 22, 77, -39, 184, -61, 11, 196, -116, -22, 117, 226, 163, 150, 160, -53, 50, -60, -111, 64, 135, 33, 164, 261, 154, -8, 254, 168, -133, 41, 222, -36, -17, 67, 79, 258, 58, -98, 51, 25, -55, -67, -203, 107, 2, -18, -76, 28, -98, -168, -104, -80, 258, 42, 166, 189, 67, 55, -69, 2, 348, -19, -93, 30, 207, -97, 60, -152, 166, -26, 28, 122, -10, -79, 40, -39, 222, 83, 217, -15, 49, 38, 36, 19, 58, -90, -42, 201, 23, 146, 22, 31, 197, 26, -47, -13, 39, -139, 1, -45, 6, -26, -120, 129, -185, 73, 39, -110, 32, 155, -78, -69, 28, -77, 102, -51, 145, -7, -44, 73, -209, 118, 36, 29, -58, 251, -43, -101, -12, 2, 9, -106, 138, -91, -3, 59, 193, -108, -173, 26, -28, -95, -194, 16, -74, -23, -126, -69, 151, 41, 6, -1, 10, 14, -86, 53, 251, 74, 128, 37, -78, -16, 119, -13, -48, 98, -248, 30, 0, -50, 5, -40, -10, -147, -217, 40, 63, 132, -22, -16, 161, -9, 172, 78, -51, 173, 81, -4, 18, 136, -281, -231, 153, -134, -164, -129, -259, 229, -105, 3, -253, -141, 6, 28, -123, 94, -200, -35, 115, -5, -41, 67, -149, 207, -111, 62, -15, -130, 92, 58, -7, 142, 34, 110, 177, 276, 87, -78, 87, -183, 32, 75, -156, -140, -77, 42, -89, -61, -5, 35, -59, -31, -38, -154, 22, 51, -147, 163, 35, -6, -264, -52, 261, -18, 30, 67, 118, 100, -43, 17, -39, 202, -36, 56, 90, 36, -46, 26, -93, 151, -83, -337, 272, -225, -197, 45, 5, -14, 97, 127, 44, -80, 51, 144, -76, 220, 31, -173, -63, -194, -193, -14, -211, 184, -26, -84, -105, -166, 217, 41, 35, -168, 6, 185, 52, 49, 129, 25, -53, 57, 20, 52, -32, -83, 120, 125, -62, 208, 216, 238, 138, 249, 123, 44, 92, -72, 74, -120, -77, -171, 90, -45, -199, -90, -116, 25, -30, -31, 14, 18, 8, -196, -129, -70, 4, 112, -108, -68, -189, 118, -27, -193, 9, -311, -77, -90, 87, -381, 33, 92, 104, -1, 19, 148, 36, 86, 68, -153, -125, -315, -164, -47, 33, -49, -64, -14, 23, -191, 53, 17, -100, -157, -80, 37, -66, 7, 31, 41, -115, 131, 16, -34, -71, -127, 152, 49, -20, 3, 222, 214, 51, 232, 281, 172, -117, 35, -177, -46, -131, 48, 161, -123, -89, 48, 176, 139, 261, 95, 178, -86, 80, 1, -9, 16, 22, 95, 137, 255, -117, 153, -26, -73, -10, -91, 63, -99, 271, -298, -176, 158, -77, 53, -4, 67, -68, 12, -36, -45, -239, -23, 20, -357, 174, -482, 33, -42, 225, -80, -67, -41, -26, 43, 42, -4, -266, -58, -15, 48, 66, 30, 138, 2, 122, -147, 30, -120, 208, -414, 34, 62, 24, 50, 38, 156, -76, -277, -110, -89, -76, 8, 7, 6, -91, -201, -34, 21, -138, 259, -42, 103, -142, 127, -118, -161, 53, 65, -180, -49, -195, -313, -230, -126, 24, -66, -58, -71}
, {-44, -18, 8, 91, 44, -85, 1, 35, 41, 1, -25, -171, -141, -32, 14, -24, 276, -54, 37, 55, 214, 203, 48, 177, 75, 130, 264, 8, 30, -49, 8, 8, 192, -26, -76, 195, 43, 192, 140, 63, 421, -84, 114, 112, 16, -22, 211, 35, 222, -21, 76, 95, -69, 415, 36, -7, 283, -69, 84, -57, -26, -67, 14, -17, 361, 69, -67, 16, -42, 564, -65, 288, 106, -37, 125, 25, 243, -32, -355, -2, 335, 83, 57, 100, 243, -50, 105, 237, 26, 116, 105, 34, 497, 31, 94, 86, 158, -226, -35, -151, -227, -229, -109, 5, -140, 7, 10, -179, -145, 0, -128, -138, 142, -64, 57, -31, 21, 68, -2, 75, 187, -60, -23, -189, 48, 21, -62, -157, 230, -28, 212, -63, 29, 92, -153, 36, 366, 74, 61, -143, -36, -144, -133, -43, 320, -244, -53, 85, -129, 388, -107, -105, 210, 26, -37, -120, -116, -258, -144, -254, 98, -36, 4, 9, -54, 160, -189, -49, 32, 213, 49, -60, 74, -112, -170, -36, 368, 94, 68, 165, -31, -44, 30, 206, 19, 398, -48, -43, 191, -48, 46, -8, 74, 207, -26, -36, -12, -64, -197, 71, 67, -50, -90, -74, 28, 72, -33, 29, 9, -32, 174, -49, 71, 91, -216, -24, 178, -31, 84, 26, -68, -4, -118, -59, 77, -171, 49, 64, 122, 71, -270, -55, 13, -44, -78, -131, -62, -104, -109, 26, 19, -117, 73, -85, -138, 77, -182, -177, 6, -113, -227, -129, -22, -103, -300, 8, -66, -157, -97, -12, -91, 329, 73, 21, -25, 190, -145, -187, 49, -218, -63, -68, 194, 67, 166, 140, 290, 45, 161, 198, -3, 137, 67, 106, 113, 26, 14, 143, -147, 9, -226, -121, -41, -16, 112, -67, -152, -42, 35, -17, 129, -163, -48, -8, -97, -146, -133, 287, 54, 42, 43, 24, -172, 189, -95, -3, 96, -144, -94, 28, 139, 108, 121, 248, 55, -24, 56, -33, 0, 179, -14, -28, 87, -304, -32, -5, -38, 13, 30, -3, -32, -48, 84, 10, -27, -50, -31, -177, -72, -139, -1, 7, -148, -79, -51, -23, -103, 47, 147, 78, -74, 163, 52, 68, 184, 46, 70, -9, 118, -29, -58, 214, 9, -56, 103, 155, 39, 142, 218, 121, 227, 128, 284, 115, -19, -201, -209, 146, -2, 26, -72, 246, -46, 227, 19, 9, 15, 54, -85, -10, 51, -464, 138, 328, 19, 181, -43, 343, -127, 315, 17, -62, -22, -217, -111, -169, -10, -199, 87, 76, 38, 15, -132, 110, 171, 24, 2, 54, -9, -66, -6, -153, 33, 100, 5, 42, 25, -63, 92, -47, 28, -33, 83, 77, 218, 194, 57, 116, -50, 172, 1, -142, 48, 2, 89, -70, -82, 63, 61, 185, 35, 142, 52, 217, 93, 11, -92, 100, -158, -85, 184, 12, 98, 118, 169, 239, 102, 310, 171, -16, 87, -371, -27, 58, -219, -100, 128, 25, -93, 121, 40, 7, -364, 50, 141, -282, 114, -183, -152, -56, 120, 228, -25, -123, 105, -185, 78, 22, -173, -50, 46, 40, 8, 17, 63, -52, 84, -62, 45, -91, -206, -46, 18, 89, -280, -81, -26, 89, 0, 223, 40, -5, -101, -144, 7, -150, 100, 16, -52, 113, 121, 149, -9, 119, 41, -56, -270, -64, -188, 111, 69, 56, -104, -42, 113, 156, 77, 289, 97, -10, -10, 104, 219, 14, 104, 285, -58, -79, -55, 31, -132, 53, 107, 133, 100, 103}
, {129, 181, 56, 74, 60, -62, 26, -29, 124, 70, -87, 134, 71, 31, 134, 66, 72, -207, -21, 201, -112, -61, -206, -36, 227, -10, -204, 9, -109, -37, -19, 70, 91, -81, -50, 475, -21, 203, -83, 58, 160, -61, -287, 52, 111, -36, 13, -227, 133, -62, -30, 320, -88, 250, -119, -152, 160, 44, -111, 75, 17, -29, 55, -2, 261, 3, 10, 153, 26, 397, 234, 218, -57, -60, 21, -14, 149, -61, 52, -63, 196, 17, 10, 241, 70, -69, 247, 68, 72, 93, -66, 109, 231, 45, -41, 3, 52, -151, 13, -30, -137, -204, 121, -125, 195, -151, -165, 87, -18, 97, 106, -139, 87, -29, 32, -68, -106, 0, -244, 52, 91, 86, -106, -257, -25, -56, -205, -133, 91, -158, 115, 45, 96, 72, -208, 172, 79, 74, -126, -339, -38, -10, -557, -98, -10, -47, 30, 56, -22, 153, -6, -66, 70, 7, -124, -80, 165, 3, -42, -35, 33, -5, -54, 19, -23, 199, -16, -59, -66, 364, 156, 129, 208, 71, 73, 7, 173, 193, 0, 114, 15, 4, 176, 217, -43, 192, 65, 107, 238, 187, 285, 205, 50, -36, 9, -190, -106, -8, -145, -82, 137, 91, -113, -236, 29, -141, -40, -32, 320, -90, 14, 212, 55, 103, 91, 105, -17, 64, -120, -294, 46, -177, -264, -209, 110, -141, 14, 21, 177, 155, -110, 137, 21, 100, -118, -131, -186, -283, -273, -60, -1, 24, 65, 63, -60, 44, -82, -74, 140, 54, -116, 12, 80, -36, 13, 16, -102, 82, -79, -71, -70, -38, 59, 11, -74, -37, 68, 111, 148, 42, 25, 115, 236, -125, 80, -12, 301, -181, 238, 261, 9, 50, 47, 157, 136, -15, 63, 133, 127, -34, 43, 56, -5, 63, 74, 118, -14, 80, -106, -17, -51, 53, 15, -232, 31, -224, 24, 1, 34, 39, -105, 99, 106, 49, 21, -89, -28, -212, -238, -164, 191, -24, 159, 101, 98, -10, -87, -25, 115, 48, -74, -128, -97, -395, -162, -16, -3, -70, 175, -24, -21, 26, -9, -96, 65, -36, -32, 15, 125, -60, 71, 16, 37, 55, 14, -32, -20, 5, 182, -73, -29, -18, 64, 8, 78, 63, -52, 76, 100, -80, 59, 110, 91, 77, 29, 174, -57, -158, 101, -45, 132, -27, 93, -7, 189, -33, 25, 2, -104, -53, 30, -24, 155, -23, 66, -57, -48, -24, -106, 132, -9, -196, 166, -52, 32, -1, -127, 31, -118, 6, -96, -201, -90, -429, -169, 59, 170, -75, 32, 147, 26, -59, -120, 113, 274, -48, 102, -189, -116, -131, -224, -80, 80, -65, 137, -81, -90, 24, -110, -171, 84, -77, -65, 70, 161, 85, 23, -72, -55, -364, -28, -58, -187, 62, -72, -205, 39, -53, -99, -56, 75, -271, -3, -320, 155, -192, -49, 4, -32, 21, -363, 135, -25, 56, -181, -296, 174, -101, -89, -153, 49, -151, -102, 12, -286, -55, -86, -143, 57, 94, 77, -72, -411, -145, 99, -89, 66, -106, -71, -129, 80, 19, 7, -11, 0, -72, 57, -1, -414, 14, 33, 99, -4, 42, 142, 65, 4, -251, 38, 31, -64, -158, 86, 4, 27, 12, 45, 124, -5, 92, -104, -20, -80, -171, 17, -29, 83, -111, -126, 22, 103, 82, 8, 135, -428, 25, -112, -69, -9, 65, 60, 23, -146, -120, -61, 35, -23, -52, -122, -124, -132, 130, -196, 101, -190, -97, 31, -7, -149, 174, -112, -53, -139, 53, -224, 33}
, {15, 23, -45, 11, -28, -17, -41, -12, -52, 1, 38, -46, -9, 8, 6, 8, 41, 15, 23, -10, -50, -30, -10, -18, -3, -43, 42, 27, 16, -70, -4, 27, -25, -69, -14, 43, -10, -74, -31, -36, 5, -5, 28, -6, -72, -31, 24, 2, 4, 25, 12, -28, -15, -34, 2, -7, 11, -32, -11, 6, -22, -74, 5, -5, 1, -5, -39, -20, 3, -37, 32, -7, 1, -10, 41, -38, 10, -56, -51, -35, -43, -28, 45, -8, 18, -51, 5, -27, 38, -52, -17, 32, 34, -12, -38, -9, -10, -70, 35, 6, -48, -5, 37, -31, -23, 2, 35, -14, -42, -42, 15, 5, -37, -5, -17, -23, -45, -38, -54, -44, -32, -21, -8, -20, 7, -13, -41, 3, -8, -51, 23, -2, -21, 7, -58, -3, 1, -12, -32, 4, -36, -53, 20, 30, 12, -29, -30, -30, 29, -40, 19, -59, -56, 14, -47, -49, 4, 25, 39, -21, -36, -14, 18, -43, 32, -31, -19, 29, -32, -46, -12, -13, -19, 1, -42, -56, -40, 2, -49, 22, -32, 13, -7, 16, -50, 8, 7, -29, -50, 28, -39, -50, -14, -20, -45, -4, 31, 3, 35, 33, -15, -60, 41, -39, -32, -57, -28, -4, -5, 2, 32, -2, -18, -49, -61, -34, 24, -38, -48, 34, 19, -2, 9, 5, 5, 17, -14, -37, 26, -29, 11, -13, -47, -42, -46, -26, -42, -3, -56, 18, -39, -6, -27, -20, 2, -26, 3, -32, -28, 36, -8, -38, 2, -36, -19, -45, -50, 17, 7, -58, -32, -59, 33, -35, -1, -50, -19, 10, -57, -18, -52, -32, 21, -8, -58, -22, 14, -58, -20, -54, -70, -38, 37, 25, -20, -43, 0, 25, 31, -35, 4, -55, -13, 5, -16, -18, -33, -48, -22, -15, 13, 11, 34, 34, -33, -38, -19, 7, 37, 13, 29, 12, -26, 5, -30, 4, -31, -16, -47, -19, 10, -21, 28, -22, -1, 8, -57, -19, -27, -29, -25, -67, -16, 10, -28, -16, -23, 5, 21, -12, -40, 26, 18, -2, -53, -54, -4, -57, -55, 3, 27, 15, -45, 19, -47, -60, 5, -39, -26, 3, -19, -22, -53, -35, -9, 24, 20, 31, -26, -13, 4, 19, -5, -27, -54, 26, -47, -12, -24, -26, -43, -25, -23, 22, 39, 0, 21, -6, -51, -45, -41, 37, -34, 12, -58, 1, -36, -40, -36, -39, 19, -38, -5, -34, -47, -19, 13, 25, 41, 13, 10, -30, -32, 11, -38, 24, 36, -60, -63, 27, -6, -35, 6, -28, -46, -22, -48, -33, 5, -39, -57, -16, 22, 41, -50, -38, -30, -13, 11, -24, -52, -22, 2, -64, -49, -42, -14, -39, -31, -7, -40, 17, 22, -56, -35, 10, -12, -14, -49, -27, -27, 29, -21, 26, 3, -14, 7, 1, 33, -24, -42, -23, -18, 12, -52, -37, -51, -22, -47, 20, 36, 7, 3, 29, -13, -41, 3, 15, -29, 1, -37, 21, -47, -23, -35, -29, 21, -7, 11, -11, 0, -43, 10, -35, -52, 45, -44, -25, -4, -33, -21, 12, -14, -15, 14, -27, -31, -32, -43, 40, -49, -2, 0, -27, -46, 2, -45, 42, -29, -30, -7, -12, 30, -41, -14, -34, -10, -2, 27, -15, 6, 6, -13, 35, -44, -63, -25, -8, -18, -66, 11, -34, -54, 38, -23, -43, -56, -56, -31, -24, 32, -11, -23, -52, 13, -46, 10, 37, -30, 18, -7, 18, -41, -35, 12, 10}
, {48, 73, 99, 57, 264, 109, 210, 192, 123, 0, 130, 279, 148, 151, -3, 220, 73, -44, -46, 65, 46, 20, 199, -72, 102, 89, -16, 158, 74, 68, 59, 28, -10, 62, -82, -139, -124, -32, 42, 48, -95, -110, 100, -30, -10, 33, 75, 126, -232, -67, 110, -195, -48, -181, 100, 80, -10, 4, 88, 102, 20, 36, 40, 33, -36, -66, 34, -292, 68, 69, -278, -2, -155, 50, 200, -12, -77, -17, 140, -39, -285, -196, -84, 36, -75, 46, -37, -91, -37, -180, 146, -65, -182, -58, 89, -143, -76, -52, 126, 86, 45, 12, 84, -114, 119, -50, -104, 163, -29, 32, 105, -46, -186, -64, -183, 30, -31, 15, 108, -83, -314, -27, -66, 6, 35, 97, 167, -64, -241, 53, -312, 7, -84, -124, 121, 17, -690, 76, -50, 39, 102, -31, 129, 85, -247, -1, 54, -55, 110, -528, 74, 82, -37, -66, -1, 20, 16, -10, 86, 49, -292, -88, -48, -73, -21, -288, -74, 86, -12, -184, 5, -26, -387, 42, -104, -3, -55, -233, 39, -147, -6, -60, -287, -84, -42, -229, -363, -52, -267, -41, -300, -216, 151, -167, 290, 143, 69, 47, 145, 101, 69, 60, 20, 39, -41, -15, -64, 43, -6, -305, -80, 184, -33, 15, 122, 35, 139, -11, -29, 38, -24, -52, 72, -147, -86, -63, -60, 66, -64, -32, 123, 99, 64, -56, 39, 42, 249, 115, 35, -187, 54, -139, 36, 144, 53, -45, 103, 29, -224, 79, -168, -6, 116, -56, -72, -30, -58, 61, 35, 27, -41, 100, 73, -19, 61, 7, -173, 19, -23, 85, 104, -119, -47, -218, -91, -1, -14, 88, -134, -100, 20, -324, -253, -392, -156, -280, -115, -41, 387, -35, 348, -59, 71, -109, -296, 186, 207, -53, -8, -58, -224, -107, -16, -139, 264, -16, 225, -118, 28, 71, -304, 43, 500, -76, -79, -37, -106, -86, -26, -108, -88, 51, -89, -289, 17, 183, -15, -78, 96, 39, 38, 72, 51, 111, 83, -35, 69, -77, -74, 65, 27, -318, 73, 105, -61, 41, 78, 9, 131, -44, -21, -89, -12, 55, 78, 0, 1, 25, -45, 74, 29, -2, -30, -162, -304, 30, -47, -17, -107, -267, -124, -130, 61, 105, -259, -76, 42, 88, -181, -109, -116, -124, 72, -228, 128, -11, 171, -84, 158, 41, 164, 133, 68, -54, 145, -156, -91, 22, -43, -80, 22, 181, 220, -318, 25, -113, 83, -295, 314, -236, 79, -79, -134, -69, 138, 42, -401, 196, 20, -61, -337, -109, 115, -77, 50, -215, 55, 27, 56, 81, 51, -60, 88, -30, -152, 15, -9, 85, 88, 51, 59, -5, 76, 32, 126, 101, 0, -97, 13, -180, 8, 139, 108, 44, -167, -4, -62, -20, -150, -335, 238, -309, -6, -78, -10, -252, -22, -177, -41, 125, -321, -90, -12, 86, -289, -392, -60, -151, -194, -261, 132, 367, 186, 33, 509, 82, 151, 260, -3, 185, 169, 22, 482, -44, 58, 553, -187, 404, 235, 201, -4, -152, 81, -164, 74, -96, -15, 3, 355, -35, -47, 108, 103, 144, 54, 84, -119, 29, 50, -25, -10, 191, -72, -90, 286, -74, 13, 22, 27, -35, -9, -12, -1, 47, -32, -5, 128, 113, -41, -177, 89, -245, -46, -55, 38, -228, 68, -69, 125, -31, -202, -4, 21, 103, -102, -365, 32, -272, -208, -123, 15, -40, 241, 41, 166, -19, 92, -89, 215, 137, 27, -232, -325, -252, -107, 103}
, {38, 101, 79, 53, 222, -72, 201, 21, 109, -85, 55, 137, 87, -52, 2, -11, 62, -125, -16, 182, 29, -155, 91, -65, 155, -26, -95, -33, -136, -90, 156, -124, -188, -160, -141, 34, 131, 91, 43, 77, 67, -61, 55, -119, -86, -195, 197, -179, -17, -61, -18, -43, 35, 49, -4, 172, 52, 95, -62, -113, 9, -40, 97, -56, -17, -74, -128, -17, 19, -16, 90, 42, -17, -99, 14, -89, -43, -11, 88, -76, -122, -58, -32, 114, -12, -91, -51, -154, -5, -49, 85, 43, -168, 62, 174, -47, 92, 38, 323, 164, 92, 30, 93, 225, 178, -3, 8, 176, 4, -7, 12, 52, -71, 33, 231, -116, 207, 50, -199, 95, 75, -65, 161, -39, 5, 40, -138, 67, -60, 68, 155, -419, 94, -62, -95, -202, -116, -198, 147, 84, -38, 79, -20, 39, 178, 0, -39, -27, 51, 157, -41, -58, -29, 42, -123, 119, 97, 138, 94, 62, 13, 8, 63, 180, -66, -17, 103, -132, 17, 145, -99, -169, 21, 66, 108, 22, -107, 136, 68, 20, -77, 130, 69, 31, 11, 27, 5, 84, 181, 154, 12, -35, 18, 19, 18, -16, 141, -6, 205, 111, 77, -9, 106, -30, -155, -38, 6, 121, 123, 93, -157, 47, -3, 61, -6, 99, 30, -69, -61, -36, -50, 18, -24, 38, 95, 119, -237, 94, -315, -91, 87, -144, 221, -48, -215, 64, 150, 64, -31, -186, 153, 91, -139, 126, 31, 18, 60, 156, 356, 137, 187, 138, 104, -25, 204, -182, 55, 100, -178, -12, -22, -7, 34, 39, 4, -138, 193, 107, 180, -105, 224, 120, -57, -10, -32, 69, 174, -76, 240, -35, -119, -177, 259, -71, 16, -85, 183, 211, -127, 4, -157, 80, -115, -3, 49, -79, -72, -61, 43, -3, -54, -13, 92, 35, 180, 274, -144, 159, -114, -25, 39, -93, -85, -114, -31, 7, 51, 149, 123, -139, 175, -74, 0, 144, -236, 63, -428, -43, 436, 77, -262, -31, 91, 19, -242, -360, 78, -209, -101, 39, 111, 169, -283, -107, 164, 50, -196, -93, -144, 21, -11, -359, 111, -175, -19, -17, 47, 74, -265, -161, -45, 27, -18, -229, -67, 73, -265, -249, 18, -142, -78, 1, 89, 9, -91, -243, -204, 7, -181, -5, -3, 183, -24, -61, -35, 215, -42, 114, 132, 81, 3, 44, -6, -41, -117, -64, 156, 37, -14, -91, 15, 18, 14, 153, -1, -59, 72, -304, 178, 46, -86, -4, 55, 15, 9, 133, 90, -177, -175, 154, -5, 140, -55, -98, 451, 113, -148, -269, 104, -306, -61, -112, 14, 29, -76, -55, 109, 229, -157, 117, 19, 28, -191, -94, 204, 75, -65, -199, -21, -109, -81, -22, 41, 55, -59, -65, -130, 88, -266, -76, -9, -136, -99, -20, 168, -145, -117, 12, 40, 7, -9, -73, -59, 194, -80, -91, -135, -163, -81, -126, -74, 115, -34, 101, 183, 80, 252, 189, 128, 159, 17, 38, -8, -78, 104, 176, -33, -89, -242, -21, -24, 55, -31, 149, 73, 42, 40, -16, 40, -227, 12, -98, 38, 38, 69, 82, 144, 69, -54, 14, 155, 22, -120, -197, 70, -114, 6, -56, 42, -57, 70, -2, 87, 125, -142, -236, 126, 49, -9, -171, -85, -213, -59, 9, 66, -308, -55, -49, 42, 60, -202, -115, -125, 8, -226, -250, -205, -184, -335, -178, -33, -24, 24, -127, -37, 24, 45, -187, -12, -29, 28, 34, -82, 31, 110, -14}
, {69, -165, -124, 193, 190, 81, 78, 157, 139, 132, -75, -143, -82, -157, -56, 111, -97, -20, 147, 83, 166, 93, -165, 169, 37, -91, 139, -50, -42, -40, -103, -34, 188, 35, 142, -6, -38, 52, -139, 122, 153, 40, 136, -88, 58, -12, -9, -49, 184, -14, 51, 90, 18, -22, 208, -40, 22, 66, 32, -31, -98, 63, -91, -34, 128, 20, 22, 110, -7, 6, 21, -22, 43, 104, 19, 38, 12, -39, -89, -48, 35, 0, 38, 89, -116, 21, 5, 129, 60, 240, 115, -150, 257, 11, 10, -61, -60, -203, -160, -140, -209, -158, -178, 73, 76, 82, -126, -50, -129, -59, -185, -310, -64, 29, -38, -237, -17, 8, -114, 63, -211, -87, 49, 78, 27, -94, -73, 46, 119, -107, -8, -81, 117, 89, 58, -87, -180, -73, 1, 23, -7, 10, 73, 37, 5, -28, -131, 57, -105, -200, 34, 3, 31, -108, -13, 103, 60, 76, 71, -22, -65, -26, -246, 67, -68, 195, 106, 14, -56, -46, -26, -49, -21, -57, 53, 86, -270, -32, -127, 126, -246, 200, 114, -41, -124, -59, 0, -2, 84, -195, -31, -39, -44, -253, -45, 12, 135, -39, -47, -66, 83, -63, -310, -187, -77, -152, -216, -228, -75, -92, 28, -178, 22, -35, -35, 71, -64, -61, -14, 74, -54, -31, -28, 97, 13, 127, -92, -7, 7, 15, 205, 57, -220, 28, 13, 87, 123, 13, 188, 4, -1, 69, 42, -21, 25, -173, 31, 5, 168, -142, -48, 165, 13, 55, 197, 102, -357, 9, -28, -274, 104, -65, -236, -271, -158, -574, 63, 116, -34, -28, 26, -53, -340, -15, -294, -420, -234, -186, -331, 6, -269, -230, 103, 56, 162, 14, 15, -211, -74, 26, 63, -349, -77, -85, 217, -108, -1, -216, 49, 98, -159, -21, 202, 33, -284, 218, 92, -277, -333, -92, 160, -337, -189, -440, 101, 111, -66, 279, 309, 45, 22, 8, -214, -172, -89, 4, -38, -133, -35, -408, 77, 142, -106, 193, 124, -92, 146, 35, 108, -118, 69, -25, -210, -14, 102, -69, 19, -9, -175, 58, -24, -47, 150, 53, 22, -342, -55, 69, -207, -52, -38, -129, -47, -94, -84, -38, -202, -49, -2, -57, 17, -266, 175, -97, -194, -125, 30, -87, -180, 8, -117, 61, -269, 65, 7, 88, 231, 126, 0, -59, -87, -195, 132, -19, -149, 15, -48, 234, -11, 51, 11, 166, 77, -210, 5, 5, -10, -104, -57, -123, -130, 63, 111, 516, -28, -1, -384, 166, 24, -532, -194, -144, -126, -425, 70, -246, -258, 72, 74, 93, -80, 50, 146, -5, -14, 9, 69, 51, 14, -62, 157, 127, -126, 102, -42, 115, -81, 11, 24, 124, -18, 60, -24, -48, 12, -139, 29, -17, -49, -33, -8, 133, -108, 123, 130, -67, 114, -6, 221, 46, 87, -52, -63, 170, -120, -100, -216, -110, -218, 111, 12, -60, -54, -34, 20, -5, 166, -43, 76, -35, -92, -53, 150, -22, 24, -31, -95, 273, 137, -38, 169, -28, -11, -111, 50, 55, 29, 17, 263, -7, -18, -10, -240, 206, 112, -96, 66, -89, 47, 44, -146, -79, 10, 2, 34, -7, -1, 133, 33, 87, -19, 143, -29, -128, 47, 126, -95, 18, 17, 40, 28, -37, 2, -5, 17, -20, -244, 39, -110, 50, 28, 31, -98, -5, 12, 23, 88, 24, -3, -112, 51, -186, 143, 103, -70, -42, -161, 22, 164, 76, 39, 225, -4, 43, -2, 1}
, {128, -200, -1, 107, -90, -9, 32, -88, -104, 108, 176, 10, -139, -2, -12, 71, -79, -107, -112, 72, -32, -49, 40, -163, -131, -198, 108, -18, -3, -55, 189, 51, 66, 54, -63, 104, -140, -177, 145, -296, -321, 58, 80, -289, 14, 10, -49, 234, -9, 40, 76, -102, -223, -81, -158, 73, 57, 46, 125, 67, 19, 61, 239, -28, -17, -97, -11, -25, -31, -178, 7, 56, 0, 54, 126, 150, 21, 43, 44, -37, -20, -22, 36, -51, -3, 113, -26, -36, 84, -66, -46, -17, -23, -38, 133, -58, 118, -39, -75, -58, -105, 27, 6, -134, 214, 150, 148, -19, 33, -152, -167, 81, -244, -231, -468, 367, -76, 7, 115, -171, -271, 59, -309, -188, 22, -161, -144, -170, -260, -48, -459, 138, -180, -17, 66, 133, -575, 75, -241, -54, 166, -160, -102, -39, -24, 20, 22, 25, 18, -213, 66, 155, -273, 6, 63, 12, 171, -200, -44, 139, -101, -31, 29, -144, 53, -68, -88, 141, 71, -385, -105, -153, -210, -316, -236, 79, -130, -22, 225, 51, 135, 116, -173, -79, 14, -159, -203, -28, -109, -31, -175, 57, 57, 58, -7, 45, -95, -71, -17, -97, 51, 18, -12, 7, -140, -77, 47, 19, -1, -313, -16, -101, -3, 43, -140, 67, -122, 36, -28, -67, -84, -79, -174, -129, -14, 49, 42, 43, 54, 126, 2, -34, -93, -64, 153, 54, -88, -115, 11, -25, 128, -43, -51, 34, -43, -6, 54, -16, -127, -69, 2, -50, 22, 48, -204, -7, 129, -132, -42, -41, 23, 99, 136, -168, 45, 91, -52, -528, 71, -646, -28, -38, 2, -235, -45, 82, -121, 12, 152, 52, 59, -97, -141, -369, -30, -499, -99, -54, 63, 13, -167, -78, -18, -5, -103, -32, 11, 77, -62, -120, 137, 6, -118, -64, 137, 95, -26, -20, 17, -4, -177, 93, -273, 15, -13, -4, -46, -122, -98, 175, -22, 136, 34, -129, 8, -191, 1, 9, -228, -36, -40, 61, -113, 56, -54, 23, 52, -252, -32, 77, -43, -101, 93, -14, 153, 84, -31, -53, -13, -210, 82, -180, -138, -258, -138, -31, -53, 146, -391, 60, 8, -1, 23, -254, 192, -70, -23, -201, -56, 32, -51, -197, -84, 140, -372, -167, -170, 79, -113, -8, 123, 74, -128, -59, 95, -119, -132, 207, -20, 31, 89, 170, -16, 276, -3, 88, 26, -95, 104, 17, 143, -95, 1, 270, -97, 182, -61, 73, 51, 105, -26, -15, 94, -145, -125, -196, 104, -80, -9, 73, -8, 170, 68, 160, 22, 124, -27, -76, -27, -49, 19, -149, 41, -34, 97, -47, 81, 25, -54, 20, 10, -11, -57, -57, 121, 85, -329, -30, 33, 248, -61, -153, 98, -113, -4, -108, -36, 124, 38, -140, 5, 174, -170, -31, 158, 139, 148, 108, 331, -160, 38, 137, 23, 23, -99, 42, -298, 252, -211, 76, 432, -212, 12, 168, -424, -66, 247, 100, 77, 5, -27, 159, -143, 203, 87, -80, 97, -316, -168, -60, -142, 99, 16, -33, 173, -16, 19, 135, -92, 55, 17, -22, 21, -12, 48, -115, 38, 2, -32, -57, -63, -120, 9, 32, 46, -59, 38, 69, 40, 269, 197, -34, 80, 104, 40, 89, -20, 53, 22, -23, -88, -15, 22, 135, 203, 341, 66, 34, 51, -91, 49, 16, 89, 154, 100, 221, -95, 192, -27, 60, 199, 148, 223, 250, 238, 65, 202, 138, 230, -13, 221, 355, 80, 345, 146, 182}
, {155, 61, 176, 136, 198, 11, 91, 308, 2, 161, 54, -99, 155, -64, -108, 12, 122, 27, 31, 87, 80, -46, -217, 76, 158, -78, 44, 114, -74, -58, -192, 63, 216, -14, 93, -6, -21, 39, -308, 149, 147, -6, -87, -82, 49, 49, 62, -124, 142, 9, 28, 283, 127, 134, 56, -40, -55, 145, 143, -12, 23, 1, 161, 76, 91, 11, -46, 190, 133, 72, 239, 82, -32, 104, -114, -91, -106, -42, 129, -6, 134, 65, 107, 158, -52, -3, 263, 233, 107, 21, 107, -133, 133, -76, -2, 106, -103, -9, -31, -90, -153, -48, 83, 204, -38, 135, -8, 84, 60, -11, 52, 50, 53, -49, -8, -99, 20, -22, -106, 1, 72, -40, 11, 12, -99, -59, 39, 66, 115, -67, 32, 1, 49, 75, 11, 22, 4, -46, 33, 75, -72, -95, 85, -27, -19, 34, -30, 40, 21, 14, 98, -49, 109, -67, -28, 65, -3, 82, 109, 24, -47, -138, -82, 107, -3, 191, 108, 127, -39, -107, -49, -84, 6, -12, 177, -22, -8, -158, -111, -3, -148, 276, -16, -79, -109, 44, 60, -99, 262, -196, 109, -33, 213, -140, 57, 110, -94, -103, 63, 62, 71, -21, -50, -28, -102, -55, -30, -103, 25, -18, -158, 28, -144, -107, 75, -22, 61, -93, -18, 78, 96, 2, 57, -84, 134, -65, -79, 94, -64, 169, 150, -61, 44, 223, -64, 70, 309, -64, 4, -69, -88, 115, 3, -37, -3, -33, 18, 12, 135, 29, -115, 93, 195, 145, 77, -68, -268, 2, -79, -133, 21, -84, -71, -189, -119, -307, -33, 195, -50, 132, 65, -35, -401, -110, -470, -363, -251, -76, -166, 9, -332, -186, 96, 109, 65, 16, 112, -216, -52, 61, 170, -226, -11, -41, 47, -49, -3, -280, -73, 118, 6, 77, 149, 209, -96, 36, 187, -369, -123, 85, -118, -60, 162, -331, -2, 18, -204, 252, 129, -160, 32, -243, -48, -170, 175, 115, 59, -133, -63, -228, 264, 92, -99, 216, 290, -103, 96, 202, -55, -43, 30, -117, 116, 94, 31, -72, 48, 82, -9, 124, 27, 24, 98, 107, 20, -358, -14, 57, -142, -176, 57, -201, 65, -111, -448, 33, -212, -2, -77, -61, 38, -340, 134, -94, -196, -409, -84, -269, -430, -73, -225, -68, -442, -9, 69, 220, 117, -4, 34, 99, 67, -50, -113, -60, 14, -67, 54, 185, 38, 101, -84, 233, 109, -325, -16, -64, 8, -177, -39, -143, 6, 145, -5, 578, 35, 47, -266, 188, 83, -384, -43, -237, -151, -100, 89, -151, -78, 190, 127, 209, 8, 74, 81, 6, 40, -41, 0, -150, 64, -69, 74, 25, 1, 53, 16, 74, -91, 2, -4, 25, -21, 74, 109, 119, -76, -76, 51, -65, -68, -98, -226, -51, -74, 4, 78, -95, 134, -42, 73, 88, -74, -119, 11, -98, -320, -248, -182, -117, -236, 136, 148, 395, 176, -72, 359, 124, 181, -169, 178, 183, 9, -38, 267, 14, -6, 236, -247, 303, 167, 35, 154, 22, 71, 25, -19, 113, 64, -22, 133, -16, -37, 37, -219, 230, 92, 3, 18, -137, 31, 71, 64, -16, 4, 3, 56, 102, -30, -31, 0, 49, -66, 6, -30, -11, 36, -26, -59, 175, -60, 65, 142, 82, 0, 56, 56, 159, -184, 19, 2, -17, 46, 86, -61, 73, -35, 24, 95, 90, -9, -30, -198, -24, 26, -11, -167, -129, -109, 123, -59, 318, 34, 2, 10, -34, -27, -123}
, {-78, 102, 44, -78, 44, -176, -147, -18, 11, -110, 87, -186, 76, -103, -206, 59, -97, 46, -28, -169, 41, 0, 159, -27, -1, -24, 96, -20, 54, 61, 79, 118, -70, -31, 53, -148, 217, 26, 94, 113, -1, -70, -85, -134, 40, -152, 224, 165, 55, -14, 35, -84, 194, 145, 21, 119, -80, 45, 12, -57, 45, -92, -165, 60, -105, 88, -54, -177, -25, 8, -77, 52, 35, 13, 3, 6, 183, -4, -60, -61, 309, 193, 171, -82, 270, -103, -242, 143, 44, 176, -202, 100, 292, 171, -241, -51, 86, -189, 218, 61, -2, -143, -61, 6, 37, 76, -109, 105, -140, -139, -11, 114, 228, -28, 112, -145, 31, 50, -139, 34, 173, -119, 145, 198, -47, -52, -7, -113, 254, -76, 97, 0, 14, 26, -279, -82, 374, -44, 136, 111, 6, 63, 27, -264, 193, -35, -76, -36, 150, 232, -157, -44, 241, 48, 155, -62, -166, -102, 40, -54, 217, -127, -4, -33, 47, 173, -231, -21, 62, 46, 68, -72, 29, -190, -462, -161, 177, -132, -75, 102, -128, 35, 55, 107, 41, 299, -35, -194, 166, -195, -138, -90, 106, 295, 59, -105, 44, 52, -105, 78, 122, -155, -160, -175, 183, 126, -24, 26, -97, 212, 6, -350, -86, -60, -40, -99, 52, -37, -121, -7, 64, 267, 8, 195, -32, 168, 116, -90, -96, -81, -42, -119, 53, -110, -211, 18, -90, 93, -46, 207, 50, -48, 53, -249, -13, 70, -296, -4, -243, -62, 83, 7, -88, 210, -305, -204, 175, -500, 91, 37, 125, -52, -146, -25, 18, 139, -14, -290, -428, -328, -358, -295, -122, 12, -200, -88, -171, 123, -205, 61, -92, 368, -119, 6, 222, 91, 7, -138, -52, 57, 81, -152, 46, 35, 393, -16, 221, 89, 75, -26, 84, -168, 42, 62, 5, 109, -7, 178, 7, 20, 214, 12, -307, 108, -5, 27, 130, 132, 144, -21, -95, 36, 23, -44, 26, -183, 22, -54, 15, -17, -4, 123, -112, 66, 86, 74, -16, -112, 18, -73, 125, 13, 33, -81, -248, -80, -22, -147, -358, 63, -146, 98, -68, -147, 75, -53, 5, -123, 251, 118, 21, 173, 181, -17, -254, -209, 227, 151, -83, 70, -37, -5, -127, -214, 278, -49, 55, 247, 306, 190, 71, 161, 103, 96, 178, -207, 61, 128, 127, -1, 84, 110, -32, 14, 46, 72, -205, -53, 36, 73, 51, -207, 100, 200, -6, 71, 15, 64, -26, 3, 72, 76, -148, 136, 62, 30, -25, -4, -166, 89, -172, -60, -6, 15, -119, 47, -13, 109, -96, 41, -11, -14, -7, -332, -91, -16, 14, -90, -19, 80, -2, -82, 38, -38, 62, -30, 15, -6, -9, 94, 38, 39, 108, -26, -71, 64, 38, -197, 201, 190, -84, 237, 73, 33, -35, 97, -154, -174, 93, 41, 76, 61, -6, 251, 200, 173, 201, 93, 147, -105, -35, -3, 60, 83, -127, -201, -13, 53, 189, -124, -40, -90, -310, -20, -31, 156, -63, -98, -161, -95, -248, -23, -135, -69, -110, 36, -154, -8, 48, 56, -22, -10, -34, -153, -187, 125, -121, 81, -108, -17, -59, -104, -61, -64, 75, 6, -20, -145, -2, -5, -51, -37, -68, 177, -110, -115, 37, -62, -84, -173, -69, -207, -30, -235, 2, 47, -44, 25, -95, 114, -144, -177, -61, 17, 75, 77, -235, 88, 67, -79, 44, 194, -60, -88, 5, 7, -32, -151, -87, -51, 9, 36, 15, 52, 50, 114}
, {-16, 79, 36, -25, 33, -110, 54, 217, -156, -136, -42, 66, -8, 39, 25, 65, -46, -50, 76, -105, 27, -25, -30, 14, -209, -92, -311, 164, -33, 125, 185, -212, 157, -67, 22, -183, 72, 90, -298, 82, 171, -125, -72, 231, 10, -48, 229, 24, 51, -42, 44, -65, 75, 243, -130, 278, 172, -51, -4, -105, 1, -15, 21, -106, 192, 6, -9, -255, 79, 268, -221, 152, 0, 22, 214, 9, 293, 52, -226, -20, 235, 226, 241, -39, 65, -185, 31, 61, 124, 177, -211, -23, 166, 16, -145, 66, 4, 253, 364, 47, 132, -26, 117, 187, 95, 23, 60, 136, 152, 89, 53, 254, 42, -8, 415, -308, 56, 8, -162, 40, 273, -134, 227, 91, -134, 48, -148, -46, 97, -107, 223, -199, 193, 44, -544, 84, 188, -82, 210, 27, -195, 46, -336, -159, 169, -134, 71, -34, 191, 296, -391, -5, 150, 23, 87, -66, -145, -61, -230, -125, 333, -104, 36, 68, 23, 220, -103, -8, 66, 244, -169, -213, 28, -27, -450, -212, 342, 60, 66, 196, 49, -60, 41, 106, 33, 176, -108, -39, -61, -111, -67, -30, 35, 140, 145, 45, 219, 17, 96, 200, 106, 67, 6, 71, -14, 27, 184, 294, 84, 51, 134, -27, 61, 3, -17, 42, 75, 32, 101, -194, -37, -283, 29, 147, 54, 66, 44, -9, 60, 112, 37, 10, 102, 109, 20, -34, -72, -136, -129, 178, -95, -8, 37, -47, 27, -13, -54, 134, 54, -23, 239, -127, -191, -85, -89, -41, 135, -72, -56, -46, 3, 169, -183, 57, 99, 27, -94, -220, -182, -302, -353, -43, 78, -8, -43, 311, -88, -12, 139, 27, 58, 136, -304, 26, -101, -40, -153, 46, 17, 17, -58, 279, -169, -47, 294, 12, -188, -58, -42, -14, 67, 45, 58, 51, 127, 23, -96, 235, 72, 8, 74, -40, -17, 181, -10, 24, 155, -17, 116, -103, 73, -27, 68, 137, -73, 67, -86, 34, 394, 3, 128, -18, -82, -104, -17, 8, -99, -156, -79, -72, 47, 77, -90, -107, 58, -188, -135, -6, -45, 71, -45, 28, 167, -187, -55, -9, -7, -89, 220, -8, -68, 175, -96, 179, 88, -283, -21, 109, 84, 54, -10, 64, 75, 6, 128, -2, 43, 20, -3, 165, 58, 7, 99, 6, 8, -42, 47, 164, 128, -69, 130, 190, 103, 102, -24, 64, -135, 133, 40, 134, 26, -453, -116, 240, -52, -24, -42, 18, -106, 109, -43, 78, -125, 23, -27, -136, 62, -86, -11, -47, -83, 199, -97, 29, 357, 167, 9, -65, 34, -96, -65, -117, 40, 66, 20, 30, -20, 55, 6, 22, 24, 19, 31, -130, 43, -141, -120, 43, 26, -129, -3, 38, 18, 18, -30, -105, 29, 145, -21, 64, 51, -25, -202, 51, 134, -360, -38, -72, 39, 220, -301, -141, -9, -50, -11, -11, 82, -92, -84, -114, -214, -133, 26, -190, -58, -36, -26, 149, -79, -47, -126, 59, -48, 17, -21, -127, -122, -198, -208, -21, -170, -20, -37, -63, -104, -86, -84, -104, -7, -123, -43, -232, 77, -162, -68, -6, 17, 95, -104, -64, 252, -64, 25, -130, -4, -176, 27, -125, -20, 113, -83, -18, 16, 72, -5, -66, -4, -81, 45, -15, -158, -162, 98, -94, 115, -137, -190, -4, -71, 226, -11, -69, 72, 160, 51, -29, -49, -96, 44, -34, -73, 70, -35, -68, -208, 56, -85, -74, -14, -137, 4, -32, -175, -45, 39, 72}
, {136, -98, 311, 41, -26, -107, 103, 23, 42, -14, 178, -48, -55, -39, -211, 225, 82, -38, -75, 245, -109, 8, 123, 46, 85, 159, 66, -201, 34, -18, -140, 257, 98, 22, 36, 86, -5, 31, 350, -81, -82, 157, 28, 110, 59, -3, 65, 104, -23, 32, 140, -40, 86, -184, 83, 147, 49, 164, 299, 8, -16, 67, -6, 1, -162, -66, -42, -132, 33, -138, -75, -64, -90, -3, 163, 182, -52, -5, -68, 37, 27, -111, -106, -60, 32, 220, -183, -70, 142, -198, 19, 93, -213, 81, -78, -120, 94, 127, 33, 260, 110, -33, 278, -115, 247, -172, 151, 98, 86, -50, 291, 248, -308, -63, -358, 146, -77, 46, 166, -202, -412, 64, 24, 120, 58, 58, 329, 8, -216, 26, -71, 67, -125, -81, 121, 102, -349, 22, 354, 233, 34, 78, 241, 120, -79, 38, 51, -36, -37, -143, 67, 112, -57, -73, 162, 106, -90, -108, -101, 79, 23, -120, 87, -23, -13, -95, -169, 90, 83, -106, -50, -59, -226, -95, -364, -34, -69, -157, 130, -172, 51, 78, -137, -117, 49, -233, -211, -184, -135, 25, -261, -58, -128, -60, -88, 207, -217, -146, 163, -38, 58, -165, -158, 246, -31, 201, 279, -32, 55, 84, -196, 106, -134, 33, 139, -99, -110, 7, -4, -28, 40, 214, 90, -234, -134, 184, -64, -81, -72, 69, 37, -27, -193, -149, -88, 179, 150, 102, -125, -25, 102, -92, -38, 30, -58, 43, 26, -25, -189, 81, -273, -160, 199, -115, -252, -158, -4, -302, -56, 240, -93, -11, 153, -71, 11, 197, -300, -318, -134, -536, 68, -96, -190, -173, -124, 42, -137, 95, 132, 112, 20, 187, -40, -181, -40, -147, 91, -23, -7, 193, 129, 42, 170, 37, -204, 132, 239, 22, -254, -65, 82, -7, -135, 147, -148, 198, -85, -39, -111, -128, -41, -131, -151, -71, -155, 21, 113, -31, -118, -14, -147, 125, -104, 12, -67, 261, 21, 14, -391, 66, 14, -6, 218, -132, -92, 18, 48, -220, 31, 162, 111, -361, 84, 65, 113, 88, -7, 12, 23, -144, 47, -112, -264, 14, -28, -172, -20, -147, -134, 14, 21, -305, -59, 55, 134, 32, 65, -105, -156, -10, -14, -399, -29, -85, -196, -182, -163, 139, 12, -112, 78, 13, -100, 51, 58, 52, 62, 37, 213, 87, -66, 140, 96, -15, 63, -69, 10, -77, -88, 1, 117, -192, 127, 31, -7, 138, -115, -13, 41, 70, -121, -6, 73, -6, -99, -175, 21, -80, 44, 71, -25, 7, 39, 111, 19, 72, 57, 67, 56, -35, 6, -5, 59, 4, 187, -108, -5, -39, 51, 29, 12, 20, 19, 26, 67, -31, -126, 105, 26, -15, 169, -45, 169, -195, -162, -54, 17, -96, 17, -90, -133, 62, -82, 115, -68, 57, -9, -62, 234, 56, 17, 173, 33, 76, 94, -37, -303, 71, -144, 9, 328, -19, 38, 150, 61, -6, 3, 199, -16, 118, 169, 91, -28, 126, 19, 149, -37, 120, 71, -14, -20, -55, -32, -88, 7, -124, 0, -29, -168, 5, 34, 124, -24, 31, 109, -83, 22, -130, 65, -12, -149, 49, -16, 33, -35, -98, 0, 43, 40, -37, -42, 56, -15, -77, 44, -20, -13, -53, -6, -18, -50, -58, 42, -9, 204, 57, 68, -19, 155, -36, -39, -25, -44, 42, 92, 70, 69, -48, 0, 76, 49, 28, 187, -49, 145, 73, 66, -29, 38, 16, -125, 78, -74, 205, 49, 136}
, {147, -100, 0, 15, 1, -20, 192, 25, 116, 96, 116, 166, 36, 78, 223, 0, -110, -153, -128, 139, 95, 28, -11, 149, 136, -195, 218, 23, -93, -38, 83, -80, -6, -17, -76, 85, -26, 26, -126, -23, 9, 68, -296, 24, -56, -17, -184, -178, 9, 10, -54, 207, -137, 134, 71, 182, -28, -8, -229, 32, 11, -36, -27, -61, 312, 43, -21, 297, -23, 242, 372, 338, 75, 166, 10, 79, 109, 38, 88, -25, 249, 67, 67, 301, 148, -149, 258, 204, 64, 282, 179, 50, 328, 43, -89, 253, 152, 22, -132, -57, -24, -62, -113, -98, 62, -44, -206, -105, 8, -29, -78, -95, -99, -87, -159, -222, -54, 8, -260, 35, 13, -67, -90, -111, -57, -148, -244, -105, 113, -100, 87, -13, 156, 78, -207, 119, -264, 21, -115, -503, -64, -273, -606, -110, 4, 36, -95, -32, 6, -43, 67, -88, -241, 193, 43, 128, 224, -75, 171, 66, 46, -61, -82, 80, 46, -36, 149, 56, -62, 144, 145, 229, 189, 79, 293, 108, 36, 38, -16, 94, 109, 228, 188, 90, -25, 161, 294, 263, 447, 96, 398, 27, 27, 17, -190, -96, -16, -97, -112, -91, -61, 73, -7, -87, -24, -25, 7, 99, -164, -174, -150, -196, 81, -71, -72, 119, -3, -33, -143, -87, -162, -103, -53, -88, 146, -375, 177, -103, 147, 89, -259, 81, -64, 56, 28, -310, -298, -453, -201, 0, 40, 85, 90, -86, 112, -186, -48, -62, 202, 58, -80, 196, -60, 63, 65, 174, -119, 102, -62, -103, -218, 5, 25, -143, -54, -13, 19, 220, 86, 159, 46, 86, -3, -53, -150, 52, -63, -31, 106, 133, -287, -63, 110, 267, 188, 335, 137, 35, -157, -42, -151, 92, -10, -69, 98, -23, 100, -282, 73, 8, 43, 70, 11, -7, -61, -14, 4, -177, -20, 13, -130, -209, -98, -5, -146, -63, -32, -55, -58, -45, 17, -97, -138, 82, 36, 119, -45, -22, -25, 67, -10, -3, -14, -97, -1, -102, 80, 76, 100, 51, 32, -300, 105, 6, 124, -56, 131, 129, 39, 52, 102, 86, -16, 47, 10, -122, 78, 3, -179, 20, -23, -353, -91, -81, 89, 104, 54, -17, -183, -116, 80, -260, -30, -89, -201, -139, -118, -201, -80, -107, 2, -39, 21, 56, -73, 78, 67, 129, -53, -10, -58, 40, 133, -107, 5, 75, 69, 131, -31, 20, -135, -10, 21, -183, 89, -5, 10, -5, -284, 60, 76, -131, -19, -103, -97, 77, 16, -67, 38, 128, 50, 42, -35, 62, 95, 96, -61, 9, -113, -24, -94, 20, 98, -25, 17, -88, 176, -24, -116, -99, 160, -120, 11, 77, -71, -55, -15, 22, -29, -101, 79, -43, -9, -87, -150, 83, 98, -123, -200, -150, -191, -232, -227, -82, 53, -155, -4, -130, 48, -6, -218, -266, -95, -56, -1, -140, -72, -16, -84, 52, -111, -137, -71, -38, -239, -82, -59, 25, 124, -77, -2, -47, -293, 9, 23, 3, -58, -93, -249, -157, 203, 34, 20, 54, -20, -37, 28, -16, -174, 76, 24, -46, -5, -73, 72, 37, 14, -139, 13, 38, 196, -100, -24, 53, 60, 53, -28, -32, 8, -3, 87, 7, 73, 77, 43, 31, 99, 13, 47, 23, 3, -65, 28, 15, -20, -121, -128, 19, -134, 102, -84, -90, 67, 283, -18, -10, -24, -112, -31, -101, -22, 17, 104, 67, -24, 70, -36, -87, 49, 235, 13, -38, -115, 104, -128, -27}
, {-35, 176, 238, -48, 321, 39, -105, 208, -105, 57, 76, 50, 217, 83, 50, 118, 468, -50, 100, -34, 57, -11, -79, 43, 280, 126, -64, 223, 46, -15, -14, -149, 268, -232, -51, 119, 108, 201, -21, 115, 424, 165, -132, -109, -59, -162, 179, -148, 180, -11, -64, 244, -87, 211, 57, 22, 222, 16, -239, -159, -21, -91, -72, -30, 365, -9, -25, 138, -118, 213, 49, 63, 31, 180, 86, -154, 112, -73, 11, -66, 126, 185, -9, 57, 54, 89, 226, 240, 7, 94, 231, -134, 155, 16, 99, 120, 185, 75, 250, -8, 22, -51, 38, 107, -187, 199, 194, 157, 84, 45, 78, 213, 236, -41, 197, 134, 21, 45, -247, 167, 455, 33, 69, -198, -186, -78, -140, -128, 240, -273, 40, -17, -37, 261, -396, 66, 463, -40, 21, -206, -169, -159, -279, -520, 162, -118, 2, 136, 158, 219, -378, -72, 346, 34, -272, -253, 59, -109, -149, -298, -77, 1, -78, 153, -101, 59, -203, -169, -4, 207, -295, -68, 129, -124, 36, -215, 5, 2, -123, 25, -309, 93, 15, 193, -92, 88, -120, -88, 361, 18, 79, -61, 286, 124, 144, 10, 43, 11, -152, 126, -1, -16, -79, 46, -6, 38, -140, -23, 90, 10, 125, -126, 50, -1, -229, -70, 329, -106, 21, -429, -7, -183, -348, -52, 117, -191, 2, -13, -6, 76, -48, -162, 142, 38, -372, -327, 168, -132, -197, -149, 46, -17, -21, 40, 1, 68, -60, -6, 49, 191, -175, -207, 137, -51, -363, -82, 15, 128, -9, -40, -105, -112, -142, 120, -14, 34, -133, -31, 85, 19, -88, -38, -60, 150, -5, -84, 93, -131, 114, -120, -108, -169, -112, 94, 119, 131, 193, 193, -170, 59, -11, -191, 29, 49, 221, 43, -190, -29, 41, -339, 48, -184, -19, -95, 129, -143, 159, 112, 32, 111, 126, -24, 125, 2, -18, -87, -93, -231, 44, -3, 3, -4, -67, -12, 115, 148, -10, 132, 2, 113, 0, -58, -114, -141, 26, 14, 58, 139, 41, 22, 62, -111, 115, 78, 117, 91, 107, -62, -115, -14, 92, 33, -78, 10, -35, -39, -129, -84, 124, 54, 60, -56, -78, 17, -8, -127, -48, 16, 1, 35, 40, 44, 39, -61, -3, -36, 92, 107, 2, -154, 14, -3, -130, -89, 25, 125, 75, 94, 59, -52, 245, -10, -153, -8, 77, 129, -68, 172, 116, 155, 107, 7, -127, 124, -77, 67, 164, -3, 0, -2, -38, 77, -5, 79, -26, 6, -37, 35, 1, 179, -85, 61, 40, 70, 255, 100, -50, -2, 69, 61, -37, 23, 81, -27, -93, -47, 186, -3, -10, 44, -3, -155, 46, 102, 104, 3, 59, 124, -133, -84, 121, 16, 66, 19, 54, 163, 36, -163, 69, 116, 102, 109, 27, 31, 197, -126, 62, 16, -122, 86, -82, 8, -66, 115, -26, -13, 163, -136, -5, -28, -139, 40, -24, -62, -40, -39, -55, -37, 76, -41, -78, 30, -91, 120, 39, 68, 27, -207, -28, 32, 64, 99, -48, 129, -62, 2, -50, 2, 21, 28, -36, -173, 136, -168, 56, 52, 121, 31, -106, -25, 283, -5, 8, -35, 40, -23, -32, -198, 97, -123, 19, -99, -23, 54, -99, -156, -36, -42, -11, 78, 1, 63, 28, -158, 61, 113, -129, -159, 111, 133, 80, -296, 69, 305, 87, 70, 20, 133, 21, 183, -47, 8, 33, 136, -28, -63, 70, 33, -66, 13, -78, 16, -81, 24, -94, 159}
