/**
  ******************************************************************************
  * @file    weights/fc.cc
  * @author  Pierre-Emmanuel Novac <penovac@unice.fr>, LEAT, CNRS, Université Côte d'Azur, France
  * @version 1.0.0
  * @date    24 march 2020
  * @brief   Template generating plain C code for the implementation of Convolutional Neural Networks on MCU
  */

#include <stdint.h>

#define INPUT_SAMPLES 784
#define FC_UNITS 32


const int16_t dense_8_bias[FC_UNITS] = {36, -4, 24, -23, -14, 4, -12, 70, -32, 5, 13, 56, 17, -42, 9, 43, 29, 44, 32, 17, -31, 13, 3, -5, 21, -3, 8, 47, -21, 5, -2, -11}
;

const int16_t dense_8_kernel[FC_UNITS][INPUT_SAMPLES] = {{49, 96, 71, 29, 34, 1, 56, -23, 50, -10, 23, -12, 84, -15, 7, -43, 90, -47, -50, 40, -55, -84, 127, 95, 54, 110, 54, 24, 9, 274, 21, -108, 25, 44, 24, 26, 78, -127, 102, -63, -9, 6, 29, 2, 45, 102, 2, 6, 78, 83, 68, 7, 39, 37, 33, 35, -30, 172, -48, 37, 23, 197, 19, 59, 56, 6, 166, 26, 0, 76, 41, -54, -43, 24, -131, -9, 179, 14, -34, 49, -59, 11, 141, 180, -47, 106, 16, -70, -73, 12, -18, 81, 31, -71, -64, 68, 6, -69, -11, -3, -34, 23, 49, -114, -20, -95, -19, 9, 17, -78, -47, 8, -98, -33, 22, 14, -67, -135, 46, 90, 4, -62, 64, -123, 181, 82, -26, -12, 57, -25, -97, -9, -62, -171, 63, 163, -38, -26, 113, 70, 36, 79, -34, -68, 32, -1, -25, 55, 13, -24, 144, 54, -41, -84, 27, 139, 56, 100, 20, 53, -32, 2, 8, -93, 8, 120, -66, -37, -30, 82, -101, 104, 60, 50, -22, 124, -27, -9, 50, -35, 6, 89, 19, -42, 90, -28, -12, 95, -46, -41, -24, 108, -5, 21, -67, -14, -9, 90, -4, -15, 56, 21, 2, -29, -48, -49, 18, 16, -9, 121, -15, 45, 51, -85, -3, 57, -57, 91, -64, 45, -68, 86, 101, -68, -76, 171, -48, 25, -23, 18, 92, -108, -46, -48, -90, -56, 185, 9, -83, -93, -29, 106, -99, 63, 34, -36, 131, 102, -21, 21, 109, 101, 99, 85, 82, -114, 19, 37, 36, 9, -77, 18, 65, 122, -127, 62, -44, 10, 37, 126, -39, 13, 87, 10, -136, -27, 21, 135, -86, 28, 56, -101, 8, 88, -59, -144, 9, 3, -23, -42, -265, -2, -32, 109, -79, 3, -9, -97, -47, -1, -121, -83, 39, 142, 2, 49, -59, 71, 48, 48, -192, -10, 18, -25, 46, -24, -123, -72, 100, 11, 117, -3, 12, 15, 13, 51, -15, 13, 76, 136, 45, 121, 19, -30, 40, 57, -45, 64, -96, 16, 49, 54, 56, -56, 4, 76, -16, -43, -38, 87, 9, 53, 75, -1, 156, -16, -48, -31, 16, 107, -123, -53, -37, 46, -13, 89, -70, 13, 7, -67, -38, -25, -101, -52, 49, -1, -50, -90, 69, 117, -45, -51, 4, -19, -106, -48, -88, 28, -63, -10, 5, 51, -45, -72, -2, 22, -1, -159, -45, -20, 13, 17, -251, 47, -37, -20, 12, 21, -32, -41, 13, 82, -103, -75, 28, 5, 95, 130, -129, 139, 140, -13, 2, -13, -110, 21, 80, 147, 97, 38, 12, -62, 19, -108, 33, -59, -99, -21, 41, 17, -147, 89, -93, 19, -56, 50, 23, -25, 70, -48, -122, -44, -30, -4, -17, 30, -25, 65, 52, 96, 56, -53, 49, 30, -20, 32, 161, -38, 74, 100, -39, -32, 56, 55, 28, -44, -96, -14, 6, 65, 45, 42, 10, 40, 23, 32, -19, 19, -4, 36, 15, -13, -123, -113, 37, -40, 47, 54, -22, -4, -50, 26, 58, 32, 7, -11, 67, 89, -38, 8, -38, 1, 0, 14, -2, 65, 18, -30, -25, -21, -9, 29, 27, -63, 23, 19, 38, 52, -15, 80, 65, 26, 51, -77, -3, 34, -20, 44, 55, -106, -110, 42, -21, 40, 27, -82, -19, -139, -4, -92, 101, 38, 72, -40, -83, -87, 94, 62, 18, -32, -132, 71, -2, -15, 30, 48, -8, 42, 64, -37, 143, 56, 28, 27, 118, 27, 23, -37, 134, -74, -15, -19, -125, -47, 68, 53, -1, 1, -50, -119, 169, -31, -111, 17, -8, -31, 21, -17, -58, -22, 73, 24, -4, -36, 44, -43, -50, -5, -86, 73, 26, 33, 39, -15, -64, -34, 114, 21, 105, -13, 92, 19, -14, -19, -55, -13, 37, 15, 24, 6, -63, -76, 257, -28, 89, -26, 3, 34, -19, -26, -127, -13, 64, -1, 39, -27, 29, 45, 94, -22, -30, -117, 29, 13, 0, 68, 36, 48, 56, 57, -38, -34, 13, 26, 0, 2, 132, 88, 2, -11, 15, 29, 7, -18, -2, -6, 12, 2, -55, 74, 45, -31, -28, 50, -103, -32, 67, -71, -79, 71, 28, -130, 164, 4, 10, -15, 52, -36, -143, 11, 60, 107, 122, -37, -87, 20, -21, 70, -12, 132, -107, 95, 5, 13, 8, 30, 143, 108, 64, 61, -66, -4, 21, 68, 103, 76, 11, 69, 14, 50, 22, -56, -23, 32, 75, 31, -118, 13, 49, 83, 98, 113, -3, 0, 71, 142, -83, 6, 13, 169, 107, 88, 42, 8, 72, 38, 73, 72, 27, 70, 51, 12, 80, 36, 30, 123, 36, 60, 13, -40, 0, -2, -51, 13, 31, 23, 59, -71, -23, 10, 0, -7, -40, -37}
, {-19, 98, -36, 0, 119, 88, 5, 5, 10, -19, 77, 1, 30, 9, 82, -18, -29, 26, 20, 36, -11, -175, -20, 15, 8, 62, -2, 23, 53, 9, 41, -26, -36, 30, 111, 81, -5, -138, -2, 31, -28, 87, 11, -18, 52, 127, -50, 28, -111, -89, 12, 16, -16, -103, 8, -14, -14, -65, -10, -68, 115, 15, -68, -129, -41, -17, -1, 106, -90, -71, 77, -58, -2, -3, 108, 175, -25, 1, -45, -159, -23, -74, -90, 123, 7, -87, 15, -46, 66, -160, 254, 3, 122, -70, -80, 92, 27, 60, 33, -18, 38, -20, -13, 65, -5, 84, 24, 42, -8, 64, 93, -99, 149, -22, -22, 39, -1, 35, -28, 142, 3, 30, 29, 28, -34, 46, 17, -48, -53, -43, -30, 62, -54, 11, -8, 99, 10, 45, -47, -60, -3, 43, -35, 9, -48, -90, 9, -43, -22, -130, 27, -16, -39, -58, -15, -45, -11, -36, -78, -37, -44, -100, 26, -46, 42, -93, 78, -52, -12, 21, -48, -117, 34, 28, -18, -98, -88, -23, -36, -18, 0, -181, 158, -43, 5, 58, 80, -10, 146, 81, -31, -147, 104, -48, 25, -78, -55, -150, -85, 11, -40, 36, -132, -66, -28, 96, -52, -88, -24, -18, -103, -92, -113, -155, 13, -165, -29, -60, 14, -10, -37, -86, -35, 66, -15, 163, -57, 78, 96, 93, 68, -89, 79, -3, 101, 49, -30, -169, 88, 50, 130, 22, 5, 2, 111, 129, 13, 15, 49, -13, -9, -21, 6, -5, 62, -32, 38, 40, 45, -22, 38, 51, -61, 8, 29, 41, 26, -83, -7, -22, 113, 23, 9, -31, 67, -39, 4, -46, 57, -30, 75, -12, -38, 21, -24, 92, -7, 57, -2, -30, 72, 8, -21, -44, 10, -3, 134, 71, -90, 47, -43, -6, 34, -53, 12, 21, -2, 60, 109, -97, -114, 5, -16, 55, 78, 10, 32, 21, 87, -15, -131, -38, -89, -82, -91, -161, -36, -14, -79, -68, 14, 2, -49, -12, -86, -118, 22, 4, -7, 29, 26, 99, 55, 82, -4, 61, -15, -60, -38, -22, 53, 45, -37, 17, -2, -22, 46, 44, -27, 65, -75, 112, 14, -23, -70, 56, -51, 50, 53, 93, -71, 0, 26, 53, -29, 11, -161, -40, 71, -40, 32, 1, 41, 16, 121, 25, -11, 74, 3, 118, -90, 0, -85, 0, 1, 52, 3, -24, 18, 22, -4, -42, -33, 160, 10, 128, 22, -10, 30, -30, 10, -20, 22, -130, 67, 58, 41, 29, -75, 22, 6, -88, -27, 53, -129, -27, 15, 98, 16, 47, 26, 35, 15, -118, -26, 31, -38, -80, -55, -47, 22, -30, 32, 85, 39, -49, -80, 40, -35, 30, 23, -39, 24, 29, 12, -52, -16, -36, -27, -99, -88, -13, -27, -8, 38, -37, -89, -177, -87, -10, 8, -12, -14, 15, -42, -11, -5, 3, -79, -135, -61, -6, -60, -36, 2, -50, 76, 15, -127, -105, -72, -19, 102, 7, -32, 2, 10, 17, -134, 109, 11, 12, -23, -39, -34, -3, -25, -14, -15, -35, -9, -92, 105, -34, 65, 115, 91, -61, 105, -49, 36, 42, 119, -13, 92, -8, 88, -160, 38, 68, 91, -4, -1, -1, -72, 37, -117, -103, 35, -36, 58, 50, -33, -27, -59, -107, -6, -108, -88, -66, 41, 18, -78, -101, -82, -20, 16, -54, -114, -73, -33, 12, -37, -122, -18, -14, 22, -65, 71, 15, -35, -30, 4, -53, 44, -26, 41, -33, -78, -66, -40, -60, -25, -24, -128, -77, -41, 8, 38, -80, -104, 24, -158, 11, -92, -55, 12, -36, 4, 82, 38, -135, 117, 2, -19, -98, -8, 1, -41, -44, 53, 5, 71, 33, 108, 26, 104, 69, -64, 37, 21, 113, -28, 51, -41, 103, 38, -4, 92, 63, 16, -46, 6, 89, -71, 9, 83, 113, 38, 77, 106, -18, 93, 29, 54, 61, 90, 12, 41, -27, -1, -24, -60, 36, -5, 47, -26, 10, -31, -13, -24, -88, -31, -40, -29, 50, 12, 1, -26, -49, -14, -24, 49, 18, 21, -33, -24, 40, -29, -18, -57, -10, -23, 32, -37, -39, 13, -18, -34, -96, 5, -72, -43, -72, -148, 22, -36, -63, -31, -89, -73, -51, -80, -46, 71, -117, -20, 8, 99, -45, 19, -41, 40, -19, -210, 19, -19, 9, -18, -3, 127, -29, -45, -118, -22, -105, -54, 100, 24, -99, 0, -14, -7, -34, 100, -26, -46, -56, 33, -58, -75, -66, 117, 3, 64, 33, 31, 14, 7, -79, -73, 45, -21, -16, -2, -4, -119, 33, 53, 36, -51, -21, 11, -34, -36, 124, 46, 19, 41, 8, 35, -23, -18, 11, 20, -34, -22, -71, -17, 26, -37, -3, -15, 7}
, {7, 111, -14, 21, -17, -30, 61, 82, -5, 18, 114, 44, -2, 45, -9, -43, -55, 49, 12, -2, 110, -115, 34, -40, -10, 117, 69, -84, 101, 128, -35, -92, -3, 14, -4, 43, 72, 19, 73, -8, -21, 185, 41, -62, 26, 101, -25, -73, -56, -32, -9, -11, 68, 29, 103, 47, 35, 71, 84, -12, 99, 43, -11, -40, -62, -45, 50, -20, 26, 94, 117, 2, 12, 106, 112, 196, 117, 93, -7, 75, 41, 68, 112, 200, -43, 127, 81, -89, -52, 54, 43, 70, -23, -76, -64, 129, -24, 8, 13, 23, 19, -34, 2, 76, 47, 62, 12, -13, -20, 49, 28, -10, -43, -90, -1, -87, -33, -33, -16, -50, -82, -98, -36, -19, 50, 53, -123, -84, -51, 60, -150, -80, -66, -66, 38, 92, -9, 13, 45, -17, 2, 76, 2, -107, 65, -31, -80, 6, 6, 59, 54, -1, -38, 40, -56, 99, 7, 32, 14, -43, -101, -64, 31, 51, -18, 27, 4, -148, -26, 43, -59, -8, 48, 52, -73, 26, 31, -49, 69, 39, 21, 61, -5, -78, 65, 14, -45, 54, -75, 13, 6, 187, -77, -81, 10, 53, -50, 51, 12, -104, -6, -24, -94, -49, -69, -68, -43, 64, -73, 104, -8, 77, 30, 29, -20, -87, 34, 18, 126, -3, -99, -83, 64, 102, 125, 90, 11, -35, -7, -98, -16, -5, 27, -85, 61, 0, 120, -110, 18, 7, 60, -60, -101, 40, 13, 26, 7, 74, -49, -134, 6, 55, -2, -57, -92, -74, 7, 32, -58, 36, 6, -43, 7, 30, 14, -87, 49, 4, -48, -114, 105, -72, 41, 17, -67, -52, 0, -12, -76, 33, 89, -26, -22, 10, 27, 0, 140, -8, -101, -5, 7, -69, 33, 10, -135, -91, 209, 61, -11, -217, -41, -25, 111, 67, 30, 17, 29, -1, 130, 15, -101, -42, -35, 61, 48, -19, 19, -56, 34, -1, 85, 5, -22, -42, -37, -58, 3, 37, -83, -33, 142, -3, -41, 137, -45, -2, 1, 129, 23, 81, -8, 56, 81, -5, 107, 59, 63, 106, 138, 169, 44, 4, -89, 19, 135, 28, 71, 34, 52, -105, 45, 122, 37, -22, 19, 39, 64, -17, 15, 81, 10, 4, 119, -34, 110, -129, 206, 112, 69, -73, -13, 75, 102, -131, 28, 128, 42, -41, -36, 19, -166, 115, 31, 34, -20, 22, 23, -3, 84, -47, 28, 5, -167, 7, -21, 32, -148, 48, -58, -9, 68, -63, -101, -56, 18, -12, 11, 11, -9, 76, -43, -32, -16, 18, 48, -75, -15, -31, -31, -74, 43, 60, 65, -46, -8, -52, 89, -45, -3, 12, 124, -18, -20, -150, -39, -13, 28, 3, 12, -67, -119, -46, -12, 35, 48, -135, -76, 15, -48, -115, -46, -66, -64, -32, -23, -18, 69, -6, 43, -25, 56, -9, -70, 17, -36, 36, 12, 0, -80, -118, 86, -59, 34, -8, -8, -17, -19, 3, -80, 32, -80, 65, 34, -2, -58, 9, -55, 17, -106, 0, 110, 141, -39, 1, 25, 17, 32, 59, -47, -20, 82, 11, -69, -10, 67, -32, -33, 55, 14, 35, -20, -35, -52, -87, 9, 24, -17, 25, 118, 42, -9, -22, 56, 19, -45, 4, -117, 87, 4, -15, -17, 68, -13, 44, 40, 30, 31, 62, -65, 40, 6, 72, -178, -89, 60, -17, -52, -29, 43, 1, -92, -76, -62, -23, -43, -10, -40, 70, -124, -58, 81, 15, 45, 11, -208, -8, -94, 40, -52, 46, -58, 3, 9, 59, -213, -86, 19, 35, -64, -59, -103, 1, 79, 35, -15, -15, -19, -6, -49, -78, -134, -41, 28, 51, -24, -142, 50, 67, -19, 55, 38, 22, 2, 32, -184, 47, 63, 17, 54, -38, -82, -22, -30, 28, -98, -76, -23, -47, -39, -3, -14, -85, 9, 11, -38, -23, -30, 17, -45, 12, 10, -68, 44, -99, -94, -76, -21, -8, -48, -108, -146, -61, -56, 28, -48, -49, 3, -8, -68, -17, 29, -108, 6, -6, -3, 65, 86, -37, 25, -16, 60, -41, -24, 5, 14, -38, -35, -28, 2, 101, -20, -52, -2, 43, -10, 61, -28, -17, 129, -90, -103, 95, 33, -30, 59, 23, -53, 36, -65, -118, -40, -89, 22, 19, -106, -127, 61, 34, -50, -108, -118, -16, -17, -76, -56, -18, -25, -45, -41, 10, 54, -40, -2, -46, 29, 37, 127, 135, 69, 34, -43, -10, 85, 28, 42, 38, -69, -12, -19, 146, 2, 13, 125, -10, -25, 84, -11, -30, -4, 49, -23, -13, -8, 53, 17, 49, -15, 28, -2, 109, 3, -49, -56, -52, -63, -13, -32, -18, 6, 1, 34, 11, -14, -11, -36, 86, -32, -64, -19, 29, -16, -3, -53, -37}
, {57, 86, 63, 80, -25, -32, 56, 49, 41, 29, 19, 15, 27, -20, 91, -5, 68, 100, -10, 135, -72, -32, 69, 152, 9, 123, 58, 58, 11, 210, 19, 6, 47, -88, -29, 81, 17, -88, 71, 9, -90, -80, 47, 48, -7, 180, -47, 40, -35, 42, -61, -124, -32, -9, 32, -30, -110, -8, 58, 91, 41, 101, -71, 16, 59, -56, 96, 15, -42, 41, 5, -50, -132, 74, 39, -92, 184, 142, -56, -54, -38, -34, 15, -57, -12, -6, -67, -65, -7, -11, 9, -4, 22, -70, 11, -40, -5, 106, 89, 31, 78, -16, 46, 7, -10, 89, 29, -4, -31, -3, 88, 5, 92, 24, -21, 20, 63, 41, 25, 145, 52, 50, 119, 10, 3, 88, 55, 30, 21, -37, -101, -13, 20, 61, 33, 230, -36, -57, 49, 10, 77, 6, -21, 184, 18, -59, -25, -39, -78, 3, 33, 228, -61, -92, -23, 61, 43, 5, -62, 71, -76, -29, 77, -19, -74, 39, 78, -11, -5, -19, 43, 116, -28, 105, -100, 48, -56, 5, 108, -43, -36, -85, 38, -8, 91, 30, 55, -61, 80, 56, -9, -52, -11, -65, 41, 70, 14, 40, -35, -45, 63, -35, -48, 1, 87, -33, -60, 8, 72, 74, 16, 114, 69, 9, 67, -44, 37, 22, 51, -41, 55, -35, -1, -16, -16, 70, 63, 66, 49, 40, -6, 89, -44, -45, -17, -17, 64, -66, 24, 56, -28, -3, 24, 2, 17, 50, -5, 75, 29, -30, 41, 3, 11, 42, -12, 29, -45, -3, 172, -51, -21, 43, -27, 24, 140, 55, -27, -26, 55, 100, -90, 39, -21, 10, -12, -81, -74, -66, 112, -84, 119, 12, 38, 57, 108, 97, -34, -38, -11, 31, -40, -9, 2, -16, 28, -24, 162, 63, -18, -21, 129, 32, 57, -18, -28, -88, 23, -73, -30, 13, -36, 35, 103, 59, 13, -11, -40, -43, 9, -20, -137, 61, -21, 86, 81, 15, -11, -79, 5, -10, -94, 34, 7, -134, 22, 18, -1, 41, -65, -26, 18, 51, 18, 76, -71, 132, -65, -81, 99, 202, -118, -7, -14, 39, 172, -24, 2, 70, 6, -15, 115, -1, -84, 28, 27, 162, 30, 73, -13, 3, 87, -19, -2, -2, 29, -81, 87, -42, -15, 18, -9, 10, 15, -42, 61, 83, 78, -22, 62, 122, 92, 9, -38, -30, 36, 76, 42, -27, 11, 48, -1, 76, -7, 182, 159, 99, 87, 6, -23, 17, -97, 32, 19, 13, 124, 105, 36, -32, 25, 14, -23, 113, 78, 12, 94, 84, -73, 59, 60, -1, -42, -56, 28, -62, -13, -40, 107, -21, -88, -43, 71, 20, 57, 47, -89, 81, 94, 26, -62, -154, 62, -33, -45, -21, -67, -51, -58, -157, -55, -68, -48, -8, -55, 24, -50, 30, 109, 10, 20, -33, -28, -159, 4, 44, -23, -8, -54, -35, 6, 40, 27, 3, 1, 4, 17, -36, 31, 1, 13, 23, 48, -47, 20, 95, -43, -3, 31, 38, -10, 49, -9, -3, 38, -26, 47, -23, -52, -5, 13, 26, -53, -18, -87, -114, 96, 40, -31, 120, -36, -91, -65, 47, -91, -99, -116, -29, 36, 134, -7, -132, -35, 16, -24, -21, 23, -147, -17, 146, 63, -60, 37, -84, -30, 125, 24, -130, 61, 112, -112, 15, -7, 53, -61, -32, 22, -76, -117, -73, -84, -11, 43, 26, -41, -17, -32, -54, -39, 94, 74, 31, 80, 70, -168, -76, 36, -54, -38, -69, -35, -33, 32, -22, 12, -83, 98, 37, 0, -9, 75, 116, 1, -62, -10, -55, 31, -67, -15, -53, 44, 118, 42, 5, -69, -10, 53, 44, -16, -38, -56, -124, -59, -82, 32, -60, -44, 112, -100, -41, 75, 22, 23, -18, 95, -26, -74, -52, -33, -3, -48, -49, -70, 38, -176, -77, -27, -45, -32, -29, -12, -64, -68, -61, -91, -84, -36, -113, -61, -39, 49, -46, 22, -34, -21, -36, -6, -102, -33, -7, -12, 7, 8, -62, 25, -26, -46, 11, 31, -71, -34, 10, 28, -10, 42, 43, -61, -139, -112, -8, -41, 6, 47, -28, -18, -1, -33, 108, 7, 22, 100, 75, 27, -25, 78, 15, 1, -87, 38, 83, 6, 80, -12, -60, 87, 16, 110, 120, 41, -109, -120, 12, -89, 28, 47, 26, 25, 21, 172, 24, -14, 20, 134, 15, -53, -53, 89, 9, -10, 166, -56, -52, 24, -17, -71, -14, 150, -21, -19, -70, 6, -38, 27, -19, -64, 39, 12, 100, 46, -49, -171, -69, -9, -4, -81, -91, 0, -88, -121, -35, -44, 4, -37, 61, 24, 108, -9, 48, 49, 1, 40, 11, 64, 1, 33, 8, 61, 49, -24, 47, -19, -5, -16, 21, -8, -14}
, {30, -7, 50, 43, -72, -76, 60, -65, 42, -31, 10, 136, 40, -20, 1, 0, 32, 118, 18, 0, -6, 10, -3, 9, -11, -23, -45, 34, -71, -35, 17, -119, -5, 13, 1, -34, 45, 29, -63, 7, 28, -32, -31, 87, 11, -72, 18, -64, 32, 31, -53, 66, 8, 39, -13, -21, -14, 38, -37, 72, 81, 17, 36, -32, -26, -18, 16, 31, -40, -2, 0, 11, -49, 97, -91, -3, -76, 28, -5, 47, -112, -87, 75, -22, 22, -132, 26, 0, -22, -30, -129, 3, 134, 39, -21, -73, -20, 27, -21, 10, -37, -89, 74, -68, -52, -27, 49, 4, 48, -49, -18, -45, 32, 12, 37, 28, 99, -71, 22, -55, 16, 20, -20, -18, 243, 32, -33, -2, 48, 35, -132, -78, -13, -23, 56, -1, -5, -3, 12, -8, -8, 70, 11, -9, -13, 46, 30, -10, 37, 33, 36, -32, -15, -15, 5, -89, 21, 46, 42, 124, 139, 49, 71, 16, -38, 42, 28, 44, -18, 29, -71, -81, 27, 23, 12, 72, 34, -20, 22, 70, 11, 106, -63, 12, -119, 36, 6, 47, 14, -16, 6, 7, -55, -19, 29, -69, -74, -43, 68, 22, -80, -81, 20, -75, -238, -44, -90, -9, -59, 56, -73, 44, -48, -56, 67, -151, -83, -104, -61, 43, 58, -34, -119, -28, 17, 2, 84, -64, 18, -54, -33, -34, -80, -5, -172, -57, -111, 6, -151, 16, -31, -37, -73, 77, -50, -37, -38, -137, -46, -26, -31, 64, -21, -9, -24, 45, -49, -107, 66, -40, -47, 18, -2, -73, 19, 44, -41, -10, 21, 106, -81, 14, -52, 2, 75, -69, 42, 39, 5, -61, 15, -27, -9, -43, 38, -10, -84, 21, -45, -80, 4, -25, -80, 41, 36, 0, -39, -68, 31, 22, -57, -37, -101, 49, 38, 6, -39, -98, -135, -50, 13, -34, -99, -101, -49, -29, -67, 39, -139, -84, -103, -50, -75, -1, -76, -95, 17, -37, 11, 111, -48, 4, 118, 8, -33, -71, -112, 97, -54, -125, -102, -106, -119, -10, -60, -40, 61, -22, -61, 12, 15, 11, -48, -173, 85, 17, -74, 73, -97, 166, -20, -6, -73, -57, -169, -92, -77, 80, -46, -7, 46, -66, -49, 66, -69, -47, -57, 23, -84, 34, -87, -142, -3, 121, -81, -36, 65, 28, -5, 20, -31, -44, 9, 28, -54, -46, -27, 32, 13, -52, 31, -33, -55, -27, 54, -28, 134, -16, 223, -86, -14, -28, -3, -57, 4, -13, 28, -37, -42, -80, -16, -23, 46, 49, -24, 108, -68, -66, -60, 11, -29, -75, -138, 77, -62, -38, 56, -43, -14, -40, -64, 11, -46, 46, 35, 65, 1, -10, -100, 43, -28, 68, -71, -63, -15, 94, 63, -84, 72, 106, -54, -37, 58, -169, 39, -10, -106, 65, -85, -117, -86, 37, 70, -21, 40, 7, -64, -60, 92, -39, 112, -117, -148, -22, -119, -123, -147, 57, 113, -149, 134, -19, -85, -147, 97, 80, -78, -36, -59, -149, 42, -177, 12, -38, 88, 57, -6, -96, 94, -57, 108, -72, -9, 70, -31, 65, 24, 46, -2, 3, 103, 22, 28, -70, 29, 35, 17, -5, 25, 4, 37, -69, -44, -16, 58, 54, 82, -18, -87, 73, 21, -99, 13, -4, -30, 16, -67, 55, 37, -104, -9, -80, 68, -17, 73, 28, 24, 10, 0, -9, 155, 149, 158, 88, 168, 103, 60, -7, 16, 96, 106, -9, 96, 54, 34, -35, -32, 78, 27, -36, 59, 55, 44, -20, 109, 23, 52, -64, 45, 24, 63, -14, 55, 109, 2, 88, 39, 112, -10, -136, 211, 85, 51, 55, -18, 62, 33, -4, 93, 67, 47, 4, -18, 36, -81, -52, 37, -2, 9, -38, 6, 103, 81, 15, 48, 6, 16, 17, 36, 8, 20, -20, 240, -10, 39, -10, -50, 24, 18, -45, -21, 60, -15, 41, 62, -37, -58, -36, -17, -16, 46, 27, 62, 28, 33, 5, -81, -14, 51, -74, -112, -13, 9, 60, -59, 39, -48, 44, 37, 31, -65, 12, -44, -11, 5, 33, 63, -65, 70, 53, 19, 71, -8, -16, -5, -54, -32, 0, 96, -42, 27, -89, 17, -98, 39, 66, -6, 70, -61, 52, -162, -37, 54, -34, -95, -123, -87, 1, -31, 96, -32, 14, 23, -35, -108, -41, -32, -49, 64, 15, -111, -93, 2, -64, 10, -40, -81, -161, 12, -95, -99, -41, 2, -134, 36, 21, -76, -10, 3, 46, 6, 14, -131, -86, -65, -3, 51, 12, 7, -27, 23, 13, 18, 63, -25, 96, 85, -22, -24, 30, 15, 10, 4, -9, 21, 19, -46, -59, -3, 13, 29, 10, 23, -104, 34, -4, -14, -48, 14, -47, 46, 25, -41, -32}
, {2, 86, -18, 7, 58, -50, 68, 187, 79, 5, 151, -67, 80, 4, 48, -30, 47, -5, -75, 11, 117, 8, 20, 37, 11, 126, 115, 78, 34, 265, 26, 16, 23, 33, 6, -75, 93, -76, 11, 7, -15, -14, 40, 169, 105, 92, -19, -78, -6, 18, -50, -70, 23, 95, 43, -6, -11, 134, -32, 32, 53, 115, -13, 48, 60, 54, 99, 36, -9, -7, 104, 25, 28, 145, 45, 63, 143, 35, 34, 51, 81, -45, 37, 168, -9, 17, 18, 75, 50, 44, 57, 45, 10, 32, 56, 24, -18, 45, 27, 9, 72, -43, 60, -4, 176, 13, 14, -15, 94, -38, 78, 78, -71, 12, -101, -78, 96, 2, -9, 11, -23, 126, 93, -18, 277, 151, -63, 60, 21, -38, -95, 24, 31, 1, 4, -10, -30, 87, 86, 39, -52, 30, -5, 39, -160, -74, 74, 75, -74, -29, 5, -58, -53, 27, -61, -27, -83, 89, 8, -45, 6, -4, 5, -22, 62, 50, 66, -6, 75, -33, -59, -37, 23, 74, -58, -3, 21, -62, 144, 24, -5, 69, -19, -75, 40, 1, 12, -84, -55, 51, -87, -16, 75, 37, 17, -3, 33, 116, -120, -24, 6, 28, -64, -22, -37, 35, -37, 70, 28, 71, 63, 119, 154, 116, 28, 16, 13, -4, -57, -23, 23, 117, 23, 21, -103, 70, 27, -17, -68, -55, -69, 33, -119, -71, -122, -100, -32, -2, -107, -25, -163, 10, 133, 13, -153, -212, 34, -78, 42, 45, 3, 15, -6, -75, 12, -43, 110, 3, -57, -52, 11, -37, 91, -6, 101, 57, 10, -1, 68, 89, 42, 98, 54, 48, -12, -17, -31, 72, -190, 51, 76, 8, -125, -72, -39, -16, 27, 15, -26, -70, -73, 43, -122, 137, -262, -11, 82, -101, -90, -133, -172, -90, 46, 151, -130, -28, -4, 24, -66, 38, -223, -97, -55, -34, -106, -59, -160, -70, -93, 95, 112, 93, 40, 78, 53, 94, 16, -65, -19, -63, -17, 102, -8, -127, 22, 61, 52, -32, 22, 48, -15, 80, -13, 52, 34, 75, 53, -15, -125, -72, 60, -90, 119, 20, -44, 5, -44, 117, 7, 247, -75, -47, -70, 93, -126, -167, -21, -64, 20, -32, -113, -64, -41, 16, -25, 38, -31, -6, 31, 62, -23, -32, -70, 76, -5, -23, -81, 7, -1, 80, -52, 11, 9, -32, 7, 44, -31, -168, 72, 30, 59, 87, -119, 34, 42, -40, 32, 68, 5, -148, -8, 36, -25, 32, 22, -183, 93, 57, -119, -49, -89, -170, 9, 78, -38, -128, -59, 106, -35, 35, -18, -252, -57, -49, -1, -94, -106, -27, -38, -34, -70, 18, -43, -5, -95, -65, 54, -59, 23, 45, -53, 2, 47, 157, 3, 76, -47, -29, -8, 57, -56, 59, -34, 51, -35, 76, -62, 68, 16, 57, -30, -29, -8, 14, 117, -25, -23, -62, 25, 1, -13, 28, -9, 51, 29, -10, -45, -4, 34, 10, 47, -29, 28, -12, 43, -36, 22, 14, 44, 35, 50, 27, -28, -14, -6, 82, 32, -82, 28, 51, -87, 0, 11, -15, 109, -128, 15, -108, 18, 1, -5, -68, -83, -93, 42, 70, -7, 1, -39, 98, 1, 7, 73, -65, 149, -23, -93, -33, -12, -47, 34, 59, 1, -27, 2, -100, 5, -74, -4, -68, 90, 43, -46, 43, -47, -109, -85, 35, 15, -42, 82, 68, -36, -18, -8, -45, -48, 40, 98, -78, 142, -19, -51, -67, 161, -6, 14, 54, -7, -42, 38, 7, 27, 91, 89, 62, -5, -43, -14, -104, 57, 58, 50, 18, 62, 72, 54, 53, -113, -89, -19, 115, 73, 12, -11, -14, -29, 22, -36, 43, 11, 7, -37, -23, -132, -240, 23, 34, -5, -89, 32, 46, 6, 4, -91, -120, 41, -61, -145, -54, -110, -79, 21, 3, -16, -87, -195, 32, -26, -18, -73, -82, -14, 4, 52, -48, -26, -130, 65, -80, -5, -154, -3, 9, 5, 43, 23, -2, 27, 6, 7, 28, 11, 71, -2, -27, -30, 9, 16, 0, -20, -28, -36, 9, 43, -17, -32, -50, 44, 31, 53, -9, -18, 2, -10, -12, -2, 8, -154, -2, 43, -63, 12, -69, -74, 12, 79, -86, -56, -56, -9, 87, 131, -38, 17, 14, -112, -31, -12, -27, -87, 126, 4, -84, -56, -152, -113, -66, 9, -19, -13, -135, -32, -84, 88, 16, 5, -84, -34, 72, -143, -70, 81, -97, 111, 79, -22, -67, 62, 106, 64, 89, 29, -58, 15, 50, 32, -36, -93, 34, 76, 60, -73, -104, -44, -42, 36, -97, 0, -54, 0, -55, -63, -72, -13, -3, -102, -81, 20, -22, -16, 23, 17, -19, 16, 1, 1, 44, -14, 10, 10, 7, 2, -17}
, {-76, 99, -40, -95, 88, -20, -14, 6, 25, -54, 95, -15, -27, -20, -32, -49, 104, 177, 19, 61, 251, 78, 127, -52, 92, 76, 192, 254, 30, 211, 124, -211, 59, 163, 60, -110, 94, 184, -110, 73, -2, 23, -96, 129, 0, 71, 68, -15, -37, 27, -165, -215, -45, 101, -274, 0, -55, 33, -120, 70, -157, -50, -32, 70, 13, -11, 24, -97, -70, 76, 17, -144, -130, -21, -66, -96, -92, -108, -140, 71, -30, -89, 58, -1, -139, -53, 9, -197, -207, -170, -105, -27, -208, -201, -231, 1, -12, -12, 19, -24, -5, -45, -37, -22, 21, -53, -11, -43, -3, -32, 7, -40, 30, 125, -14, -48, 3, 48, -17, 15, 17, 95, 16, 13, 94, 67, 58, 33, -41, 15, 14, 0, -2, 29, 51, 2, -22, 106, 93, -26, 102, 140, 9, 38, 70, -19, 2, 56, -15, 39, 11, -15, -65, -118, 1, 28, 39, 35, -32, 88, 40, -47, -46, -11, 9, 28, -139, 36, -49, -101, 74, 15, -71, -49, 43, -47, -134, -52, -78, -11, -58, 14, 50, -3, 54, 160, 38, -115, -87, -62, 61, 5, -39, 83, -128, -70, 33, -28, 7, -62, -39, 48, 17, -159, -8, -54, -5, -117, 48, 10, 12, -30, 20, 77, -38, 41, -15, -31, -10, -30, -36, 24, 14, -38, 32, -95, 140, 30, 126, 24, -36, -74, -11, 59, -145, 68, -9, 7, -49, -14, -47, 26, 17, 32, 161, 108, -7, -60, 56, -1, -23, 73, 62, 14, -49, -52, -1, -114, 52, -24, -102, -77, -31, 38, -58, 34, -77, -77, -34, 61, -86, 12, -13, -140, 132, 51, 45, -73, 22, -132, 2, 38, 54, -9, 75, -55, -87, -7, 146, -75, 64, 86, 88, -64, 52, -6, 130, 6, 125, 81, 94, -33, 7, -25, 24, -92, -1, 0, 68, -176, -62, 39, -18, -73, 85, -1, 78, -42, -61, -38, 41, -16, -70, -3, -69, -68, -67, 5, -40, -23, -1, -54, 44, 11, -18, -85, -47, 117, -74, -48, -39, -96, -39, 51, 15, -95, 29, -139, -90, -74, -9, 30, 20, -105, 37, 36, -68, -75, 46, -7, -2, 75, -17, -12, 22, 58, -1, 2, 101, -10, 77, 61, -68, -97, 96, -27, 55, -102, 125, 78, -50, -117, -41, -73, -21, -81, 77, -84, 44, -129, -30, 15, -39, 142, -222, -92, 66, 62, -66, -72, -78, -9, 120, -22, 8, 65, 79, -86, 108, -5, 13, 8, -36, -20, -93, 54, -10, -13, 83, -38, -7, 30, -3, -22, 19, 34, -45, 69, 16, -1, -29, 22, -37, 142, -19, 11, 49, 61, 14, -24, 39, 59, -54, -53, -32, -13, 81, -47, -123, -17, 57, 20, -76, -74, 51, -50, 54, 104, -98, 23, -27, -25, -1, -15, -160, -25, -68, -104, -93, -64, -17, -23, -4, 21, -72, -1, 1, -29, -40, 4, 86, 44, -160, 0, 23, 43, 41, -89, -91, 0, 17, 116, 70, 68, -78, -51, 66, -51, -26, -62, -74, -20, -19, 101, -134, -124, 46, 35, -91, -4, 63, -132, -14, -76, -243, 13, 44, -22, -26, 60, 15, -34, -2, 12, -50, -77, 76, -46, 5, 32, 34, 93, 45, -45, -96, 96, 90, 25, -90, -56, -93, -3, 58, 21, 73, 93, -114, 28, 56, -40, 25, -80, 10, -2, 66, -56, -35, 54, -23, -17, -44, -91, -39, 6, -74, -44, 7, -5, -144, 51, -52, -86, -40, 3, -38, -7, 8, -127, 0, 31, -61, -20, -126, -58, -128, -81, 37, -25, -117, 22, 0, 16, -96, 6, -57, -8, 25, -23, 27, -190, 111, -50, 6, -29, -123, -145, -60, -23, -75, 148, -10, -52, -8, 18, -28, -75, 26, 25, -74, -12, 26, 29, 43, 8, 8, 30, 30, 106, 42, 3, -19, 42, 117, 74, 9, -5, 24, 33, 72, 89, 78, 25, 37, 30, 92, 70, -58, 82, -13, 6, 47, -22, -31, 55, 103, 8, -54, 13, -46, 34, -21, -42, -65, -25, 62, -43, 55, 5, -12, 0, -38, -102, -180, -13, -16, -22, -18, -47, -31, -114, -11, -166, 60, -55, -22, -66, 27, -124, -122, -20, -81, -84, 6, -170, -23, -173, -32, -171, -76, -119, -30, -27, -183, -173, 65, -67, -119, 87, -70, -27, 122, 117, 74, 99, -117, -35, -77, -22, -151, -5, 6, -125, 41, -13, 8, 13, 81, -132, 15, 9, -164, 73, 128, -49, -2, 118, 109, 26, 123, 121, -40, 63, 68, -113, -6, 49, 104, 48, 61, -86, 13, 68, -99, 23, -20, -22, 1, -13, -14, -61, -10, -94, 16, 46, -16, -56, 17, -15, -15, 11, -5, 0, 3, -31, -26, -7, 29, -20, 32, -39, -9, -22, 24, -41}
, {59, -60, 77, 63, -25, 69, 9, 32, -5, 24, -30, -90, 4, 27, 22, 9, -93, -37, -15, -2, -67, -35, 56, 42, 49, -28, -67, -178, -38, -4, -41, 3, 57, 11, -50, -47, -26, -199, 8, -1, -12, -25, -77, -51, -36, 28, 2, 111, 23, -34, 10, 50, -26, 33, 16, -17, -13, 51, -22, 55, -41, -50, -31, 123, -24, -18, 101, 101, 81, 188, 173, -37, -16, 92, -59, -42, -120, 60, 44, -142, 33, 55, 160, 189, -8, 182, -17, 5, -13, 37, 22, 40, 68, 23, -3, 142, 54, 16, 39, 6, 7, 102, -7, 115, 49, 55, 66, -14, 64, 47, 39, 37, -48, 30, 56, 61, 26, 45, 27, 143, 60, 3, 50, 25, 20, -7, 110, -16, 110, 3, -53, 59, 14, -6, 43, 90, -6, -88, -57, 77, 8, -85, -12, -179, 92, -32, 24, -57, -22, -68, -5, 79, -50, -120, 12, 103, 19, -32, -40, -121, 29, 39, -70, -12, -34, 49, 1, -53, 61, -51, -20, 66, -30, -99, -35, 40, -15, -67, -54, -36, -7, 137, -87, -66, 98, 47, -9, 1, -220, -99, 37, 107, -8, 0, -5, 107, 54, 150, 49, -13, 67, -5, -37, -122, -24, -50, 71, 184, 43, 13, 2, -49, 61, 28, -27, 58, 207, 25, -31, -14, 74, 129, 78, 54, 55, 51, 70, 3, 123, 129, 49, 122, -29, -7, 48, 41, 142, 38, 23, -8, -91, 33, -150, 45, -37, -23, 82, 26, -84, -68, 12, -83, -6, -58, -36, -55, 128, 60, -174, 3, 90, -65, 178, 107, 27, -26, 178, 6, 99, 109, 46, -78, 46, 19, -45, 51, 37, 91, -33, 13, -41, -61, 66, 91, -45, 2, -8, 58, -2, 99, -21, 42, -7, 109, 57, -33, -75, 27, 42, -7, 2, -11, 38, 129, 48, 49, -20, 106, -25, -44, -157, 25, 20, 71, 53, -16, 37, 79, 6, -49, 77, 117, 59, 115, -20, 111, -29, 32, 76, 42, 182, 39, -59, 146, -35, 126, -62, 6, 110, 72, 33, 119, 40, -54, 117, -60, 5, 74, 18, 172, 134, -7, 12, -14, 128, -84, 79, -49, 63, 65, 11, 5, -18, -37, 59, 28, 69, -44, -103, -102, 161, -94, 50, -128, 49, 1, -69, 53, -3, 117, 120, 138, -111, -2, -29, -122, 5, -81, -45, -71, 60, 63, -42, 109, -2, -38, 22, -5, -10, -36, -13, -44, 11, -26, -29, -65, 61, -41, -20, 32, 68, 33, -35, -25, -7, 45, 1, 20, 39, -81, -6, 10, 53, -11, -362, -7, 90, 81, 207, -1, 5, -14, 27, -156, 22, -53, -35, 42, -72, 59, -70, -150, -113, 78, 100, -24, -145, 21, 65, 14, -17, 12, -89, -14, 25, -43, -22, 99, -121, -28, -20, -69, -97, 124, 16, -1, 37, 87, -5, -43, -6, 58, -75, 7, -21, -30, 61, 66, -31, 69, 9, -80, 23, -29, 44, -73, -39, 45, 47, -38, -20, 61, 6, 39, 19, -157, -62, -54, 42, -20, 29, 21, 50, -10, 33, 66, -26, -38, -6, 10, -29, -73, -10, -73, 8, -130, -92, -118, 25, -43, -116, -14, -44, -62, 37, 50, -66, 6, -91, -117, -11, -142, -24, -95, 94, -50, -2, -70, -150, -75, 15, -43, -174, -1, -42, -25, -20, -36, 21, -76, -46, 113, 92, -196, -25, 86, 152, 31, -93, -41, -65, -53, -153, -128, -57, -75, 29, 6, -79, -69, 36, 25, -155, -112, -20, 1, -58, 92, -55, 77, -9, 29, -54, -101, -44, 36, -22, 15, -143, -112, 45, 28, 9, 21, -3, 44, -3, 30, -55, -121, 73, 78, 39, -11, -20, 6, 92, 21, 18, 83, 29, 46, -25, -29, -34, -6, 195, 9, -4, -111, -9, 3, 79, -54, -186, -20, -62, -64, -43, -95, 13, -100, 12, 66, -48, -73, -79, 58, 5, -30, 1, -84, -46, 82, -36, -93, 64, -14, 50, 31, -32, -74, -94, -87, -47, -48, -37, -23, -34, -39, 5, -2, 8, -5, 61, 60, 128, 86, 34, 14, 106, 17, 114, 47, -2, -125, -81, -1, -42, 80, 75, -88, 59, 22, -96, -58, 101, -61, -32, 94, -81, -13, 42, 105, 8, -66, 40, 16, -76, -100, -20, -114, -67, -48, 29, 134, -30, 29, 25, 31, -96, 3, 63, 39, -80, -29, 30, 43, -57, -10, -61, -86, 46, 63, 9, 46, 105, 25, 31, 143, -53, -6, -6, 91, 6, 61, 41, -11, 66, 55, 67, -13, 7, 116, -4, -110, -59, 109, 55, 124, -57, 13, 116, 93, 61, 75, 53, 45, -7, 95, 8, 14, 36, -4, 11, -4, -7, 48, 50, 16, -58, -4, 45, 67, -17, 19, 18, 17, 54, 29, 28, 9, 49, 30}
, {-8, -21, -11, -43, 24, 6, -43, -64, -34, 15, -58, 57, -65, -3, 3, 27, 34, 44, -34, -98, -6, 112, -92, 16, -16, -57, -39, 107, -25, -116, 23, 39, 21, -40, -15, -44, -47, 88, -98, 15, -25, -145, 9, 106, -80, -105, 11, 120, -3, 72, -95, 2, 51, 55, -35, -18, 39, -193, 106, 112, -46, -105, 14, -20, 51, 150, -62, -47, -25, -1, -206, 86, 22, -35, -118, -139, -92, -15, 54, 25, 11, -75, -153, -184, 9, -113, -17, 36, 50, -98, -232, -86, -63, 67, 5, -92, -9, -57, -12, 19, -65, -14, 63, -39, -85, -25, 63, -11, -12, -89, -94, -18, 78, 30, -43, 42, 71, 0, -8, -18, 19, 112, -9, -2, -191, -24, 38, 83, 27, 85, 12, -62, 21, 83, -43, -73, -19, -45, 21, -50, -82, -131, -7, 61, 40, 44, 2, 40, -18, 64, -90, 23, 52, 13, 33, 42, -96, 6, 21, 151, 30, 52, -14, 57, 22, 34, -6, 114, 20, -38, 72, 39, -6, 54, 16, 36, 34, 29, 5, 23, 19, -81, -73, 70, -62, -78, 16, -44, 99, -1, -6, -158, 48, 12, 27, -47, 4, -106, 35, 41, -113, -49, -25, -3, -54, 89, -98, -231, -5, -137, 23, -39, -195, -29, 99, 21, -212, -108, -68, 15, -50, -14, -74, -46, -82, -84, 57, 18, 53, 24, -71, 181, 47, 93, 66, 76, -107, -69, 111, 67, -123, -9, 63, 29, -73, 10, -76, -111, 125, 59, 6, -92, -165, 2, 93, 85, -65, 4, 114, -16, 41, 96, -74, -73, 89, 57, -51, -93, -48, -24, -86, 38, -10, 81, 97, 7, 24, 32, 69, -51, 61, 60, 1, -85, 67, 74, -20, -18, 95, 2, 28, -1, 34, -8, -13, 105, -62, 20, -41, 28, 35, 69, -68, -28, -55, -37, 54, -128, -177, -37, 160, -3, 23, -203, -63, 44, 56, 14, -104, -76, -97, 6, -91, -134, 26, -56, 43, -31, 116, 91, -268, 4, -3, 9, 123, -90, -33, -38, -47, -47, -11, -78, -24, 90, -31, -17, 84, -47, 181, 192, -31, 15, 22, 41, 29, -39, -21, 10, -48, 74, 108, 11, 0, 29, -30, 7, 62, 5, 47, 17, -20, 26, -14, 110, -53, 8, 82, -7, -54, -2, -71, -56, -22, 61, 20, 35, 51, 27, 27, 38, 127, -112, -79, 37, -34, 8, 12, 39, -28, 52, 29, -6, 82, -44, 71, 6, 67, 35, 135, -13, -46, -40, 75, 43, 41, -35, -10, -101, 11, -162, 19, 81, 19, 33, 90, 161, -31, -31, 129, 103, 11, -56, -109, 79, 77, 83, 6, 36, -16, 7, 89, 75, 228, 145, 88, -23, 70, 47, -78, 2, -9, -36, 89, 59, -20, 154, -22, -53, 57, 30, 61, -93, 73, -22, -28, 13, 6, 32, -54, 99, -28, -31, 22, -76, 26, 12, -56, -41, 35, 77, -109, 58, 24, 40, -3, 42, -124, 29, 72, -22, 41, 44, -49, -110, 53, 119, -9, -33, 32, 48, 4, 20, 5, -63, 21, 58, -2, -160, 67, 40, 7, 23, -6, 36, 21, 42, 19, 43, 10, -33, 42, 54, 26, 48, -20, -8, 17, 119, 7, -40, 15, -40, -17, 97, 100, 1, 105, 26, -13, 19, 9, -12, 66, -34, -34, 46, 26, 41, 60, 95, 82, -24, -22, 89, -1, 124, 15, 18, 68, 101, 127, 76, 112, 128, 15, -53, -43, -24, 151, 6, 29, 57, 19, 10, 121, -47, 42, -38, 48, -34, 2, -23, 25, -118, 173, 96, 49, -10, 80, 115, 47, -30, -123, -52, 22, 7, -15, -11, 61, 24, 89, 15, -21, -34, 39, 66, -69, -78, -80, -133, -16, -3, -70, -12, 76, 22, -18, -58, -104, 47, 165, 14, -14, -27, 56, -66, 3, 42, -30, -73, 89, 50, -188, -118, 40, 102, 72, -21, -52, -14, 23, -47, -38, 50, 56, -38, -31, 50, -79, 135, 62, 59, -10, -50, -7, 0, -3, -8, 24, -32, -23, 58, 75, 11, -129, -42, -36, -91, -45, 43, 14, 23, -87, 12, 18, 23, 140, -41, 64, -49, -46, 115, 17, -32, 163, 92, 20, 62, 43, 208, 77, 142, 116, 62, 78, -106, 23, 132, 169, 48, 105, 100, 70, 63, -29, 166, 68, -89, -25, -37, 260, 63, 19, 138, 65, 22, 37, 93, -9, -29, 100, 5, -44, -15, 45, 27, 99, -70, -103, 102, -24, 53, 35, 71, 43, -29, 71, -14, 24, 39, 2, -20, -96, 105, -40, -51, 68, 23, 96, 214, -64, 11, 161, 86, 46, 126, 107, -14, 61, 133, -52, 53, 51, -1, -14, -83, 35, -30, -59, 15, -31, 11, 4, -43, -2, -38, -75, 93, 22, -20, -32, 14, 32, -30}
, {91, -48, 87, 156, -94, -36, 65, -73, 26, 29, -69, 87, 24, 20, 29, -7, 57, 44, 48, 27, -97, 4, 42, 3, 65, 28, -114, -86, -63, -152, 31, -55, 71, 79, -13, 30, 78, 35, 35, -1, 71, -9, -23, -12, -90, -35, 71, 70, -34, -44, 38, 90, 1, 5, 20, 72, 35, -2, -19, -188, -16, 35, 52, -31, -75, 32, 49, 42, 64, 81, -47, 0, -8, -87, -108, 29, 3, 28, -20, -84, -110, -10, 53, 97, -17, 50, -15, -28, 7, -105, 18, -12, 54, 16, -55, 73, 53, 26, -53, 11, 13, -14, -35, 79, 9, 0, 7, -40, 50, 65, 15, -27, 57, 20, 43, 31, 60, 53, 76, -2, 44, 58, 80, 88, 11, 7, 116, 31, 69, 136, -12, 45, 10, 22, 27, 98, 20, 61, -47, 92, -48, -23, 38, 97, 164, 39, -48, 113, 58, 187, -69, 24, 10, 79, -1, 17, -42, -19, 49, 181, 34, 108, -46, 84, 59, 155, -126, 65, 44, 32, 10, -55, 40, 1, 78, 56, 51, 63, 16, -86, 48, -1, 21, 33, 4, 26, -38, -12, -40, 62, 68, -53, -35, 64, -35, 51, -5, -46, 122, -8, -84, 51, 27, -149, 46, 60, 49, -30, 27, -2, -30, -42, -54, -32, -49, -19, 10, -75, 32, -25, 82, 38, -45, -10, -145, 53, -54, -98, 127, 144, -8, -55, -101, 17, -97, -130, -53, 4, -36, 73, -97, -39, 59, 61, -35, 53, -41, -64, -74, 80, -25, -55, 59, 14, -41, 55, -71, -61, 136, 96, -49, -45, -40, -22, 3, 96, 21, -20, 1, 13, -120, 68, 51, -129, 26, 96, -89, -71, 57, -64, -105, -191, 29, 106, 17, 38, -207, 49, -104, -27, -51, -5, -88, -160, 13, -65, -49, -7, -38, 64, 3, -1, -46, -20, -101, 79, 13, 56, -23, 36, 105, -124, 93, 38, -10, 29, 17, -74, 26, 91, -128, 161, -50, 100, -26, -1, -27, -62, 55, 48, 113, -24, 0, 144, 51, 26, -159, -120, 16, -179, -86, -79, -60, 28, -28, -155, -97, -36, -25, 67, -32, -93, -102, -3, 199, -160, -45, -35, -23, -122, 53, -19, -87, 20, 14, -31, -25, 55, -138, -64, 133, -42, -49, -93, -5, -3, 52, 81, -16, -3, -32, 100, -22, -86, 35, -20, -7, -73, -130, -135, 7, 69, -59, 2, 48, -1, -29, -30, -45, -77, -48, -28, -81, -15, -12, 11, 136, -15, 16, -67, 45, -42, 34, -57, 20, 80, -19, -77, -144, -95, 14, -71, -20, 12, 1, -51, 44, -42, 104, 9, 2, -94, 113, -72, 46, 35, 15, 19, -60, 81, 31, -53, -2, -5, 31, 7, -70, -4, 2, 52, 80, 88, -40, -79, -2, -155, 101, 54, 26, 38, 34, 31, 145, 1, 42, -14, 148, -11, -1, -135, 80, -59, 56, 65, -52, -96, 66, 75, 5, -39, 49, 12, 85, -49, -38, -139, 80, 51, 42, -12, 21, 37, 25, 81, -2, -92, 102, 69, -12, -25, 39, -77, -12, 51, 56, 15, -82, 17, 5, -34, -3, -127, 60, 65, -54, -4, 60, -33, 21, 46, 13, -1, -15, -14, 15, 3, 41, -101, -15, 20, 35, 42, -19, 3, -184, 63, 93, -49, 56, 41, 40, 21, -61, -72, 71, -127, 49, 85, 52, 90, -39, 48, 5, -149, -21, -35, 18, 14, -103, 37, -59, 8, 52, -9, 23, 30, 96, 20, 3, 13, 125, 141, -70, 23, -36, 38, 29, 44, -49, 10, 42, 34, 11, -50, -41, 65, -18, 55, 4, 64, 13, -78, 47, 39, 4, -27, 69, 17, 28, 110, -53, 9, 39, 38, 20, 17, 23, -29, 45, -12, -30, 57, 18, 57, -25, -39, 59, 35, 47, -32, 29, 67, -27, 4, 58, 11, 81, -8, 18, 19, -42, 32, -79, -119, -20, 16, 35, -26, -55, 32, 114, 100, 79, 83, 43, 89, 145, -18, -96, 86, 71, 109, 36, 36, -4, 65, -71, 42, 3, -3, -62, -15, -5, 74, -9, 108, -33, -33, 52, 41, 7, -63, 174, -10, -99, -154, -96, -24, -21, 17, 32, 14, 22, -4, -65, 68, 30, 36, -48, 33, 79, 0, 43, 42, -37, -25, -10, 43, 7, 26, 22, -64, 10, 44, 46, 70, 26, 25, 61, 57, -105, 3, 77, 26, -82, -57, 119, -23, 14, 5, 29, -17, -26, 26, 65, 18, 90, 2, 57, -63, -64, -36, -4, -20, 68, 5, -105, 44, 13, -6, -116, -34, -50, 32, -40, -119, 33, 17, 27, 14, -170, 30, 12, -18, -5, 50, 43, 26, 59, 22, -26, -7, -57, -52, 82, 95, -27, 48, 110, 18, 14, 21, 76, 14, 50, -16, -12, -34, 43, -13, 24, 25, 10, 65}
, {-101, 17, -50, -52, -9, -14, -71, -15, -40, -5, -6, -108, -54, -13, -29, -2, -44, -69, 151, 90, 69, -139, 81, 11, 90, -61, 133, -87, 63, -150, 65, 5, -3, -19, -62, -23, -75, -28, 24, 87, 100, 121, 2, -34, 22, 26, 14, -101, -29, -8, 112, 51, 18, -101, 7, 35, 70, 55, -28, 24, -1, -17, -7, -90, -76, -75, 29, 26, 0, 101, -11, -33, 37, 33, 36, 147, -62, -11, -32, 35, -19, 105, -43, 66, 48, 13, 55, -59, -5, 39, 114, 151, 40, -98, 16, 74, 14, 40, 28, 7, 30, 5, -52, 27, -23, 60, -37, 23, -96, 65, 70, -5, 70, 110, -42, 15, -58, 40, 23, 139, 38, -172, 1, -11, -143, -73, 23, -126, -23, 15, 72, 17, 30, -12, 92, -80, 34, -36, -30, -45, 169, 182, 0, -132, -48, -28, 78, -15, 13, -33, 60, -7, 7, 6, 72, -33, 82, 78, -43, -117, 13, -17, 11, 9, 36, -120, 6, -34, -84, 20, 6, 13, 52, -31, 19, -84, 1, -11, -2, 41, -12, -26, 91, 8, -31, 70, 63, -12, 34, -7, 28, 23, 6, -16, -38, 29, 43, -42, -29, -20, 48, 61, 83, 148, 62, -28, 94, 36, 28, 64, 12, 46, 48, 47, -32, -4, 37, 117, 135, 7, -105, -33, 104, 79, 77, -82, -40, 68, -92, 0, 33, 12, 41, -38, 52, 41, -62, 28, 33, 9, 131, 12, -83, -63, 81, -27, 67, 140, -85, -47, 77, 110, 56, 59, 37, -142, 74, -24, -154, -44, 23, -70, 46, 93, -135, -110, 28, 93, 66, 19, 24, -195, -19, -42, -27, -41, 37, -199, -25, 72, -40, -14, 18, 59, -54, -44, 70, -38, -60, 20, 128, -152, 71, -2, -28, -1, 138, 156, -125, -120, 20, 18, 57, -20, 38, 21, 30, 54, 74, 37, 70, -5, -29, 65, 117, 100, 33, 33, 47, 44, 35, -74, 8, -49, -56, -25, 16, 50, -133, -63, 116, -73, -56, 35, -53, -30, 45, -3, -13, 5, -13, 22, -30, -37, 12, 123, -125, -12, -134, -320, -34, 127, -27, -20, -96, 117, 27, 14, 27, -45, -75, -2, 77, 6, 20, 15, -66, -2, 70, 42, -146, 2, 88, 26, -4, 82, -17, 7, 91, -34, -13, 19, 24, -3, 2, 45, -99, 77, 96, 51, -18, 8, 33, 67, -19, -24, -33, -9, 21, 11, 18, 8, 24, 50, -17, 68, -130, 42, -4, 58, 40, -60, -159, -14, 105, 15, -112, 20, 59, -19, -29, 26, 10, -41, 60, 54, -31, -33, -173, -39, 64, 100, -13, -54, -97, 6, -39, -49, 53, -64, 95, -106, -63, -49, -9, -56, -119, -1, -12, 46, 64, 35, -107, -52, -1, 83, 43, 8, 1, -115, -20, 130, -40, -11, -18, -78, -32, -45, 38, 5, 12, -20, 39, 105, -53, -12, 82, -6, -3, 12, 43, -57, -172, 50, 44, 2, -8, -82, -90, -47, 36, -27, 14, 37, 42, -96, -84, 13, -84, 83, -7, -51, -3, -62, -83, -46, 10, -34, 18, 14, -9, -9, 35, -39, 37, -15, -34, 27, 51, 26, -110, 55, -27, -3, 1, 10, 14, -31, 20, -13, 0, 43, -15, 32, -40, -64, -182, 2, 28, 57, 1, -8, -16, 70, -109, -39, -43, -17, -157, -55, -101, -77, -77, -45, -18, -68, -97, -93, -156, -92, 34, -72, -147, 32, 98, 61, 19, -60, -52, 12, -80, -90, 22, 51, -53, 39, 26, -10, -40, 26, -43, 49, 33, 253, -70, -24, -9, 64, 44, -11, -89, -6, 5, -16, 13, -21, -28, -7, 62, 5, -89, -56, 9, 4, 31, 38, 41, 29, 26, 104, 26, -35, 40, 20, 19, 123, -125, 71, -112, 94, -38, 39, -14, 32, 88, 125, 14, -17, -19, 55, 1, 38, -48, 53, 8, -88, -86, 17, 22, 27, -19, 8, -12, -43, -62, 2, 37, 10, 122, -102, -32, 95, 2, 92, -54, -45, -64, -42, -90, -49, -31, -76, -74, -56, 123, -171, -163, -92, -23, -69, -103, -75, 62, 22, 4, 88, 108, 27, -71, -19, 9, -61, 0, -3, 26, -2, -43, 11, 178, -144, -29, 61, 53, 20, 3, 73, -84, 10, 8, 24, -12, -59, -19, 46, 123, -161, 38, -70, -3, -36, 117, 69, 55, 3, 33, 38, -34, -81, 6, -2, 113, 95, 33, -43, -84, 30, 32, -47, 44, 89, 13, 62, 92, -121, 16, 11, 46, 33, 3, -66, -90, -17, 160, 16, 35, 10, 12, -20, -8, -62, -57, -17, -63, -27, -5, -35, -56, 11, -32, -76, 64, -27, 42, 107, -16, 35, 57, 29, -30, -15, -40, -25, -35, 42, -53, -12, 77, -20, -3, -10, 0, 6, 27, 4}
, {94, -7, 108, 64, 132, 79, 84, 109, 104, 16, 97, 100, -22, -6, 66, 21, 18, 59, -60, -51, 135, 1, -51, 41, 41, 44, 100, 77, 214, 85, 48, 76, 21, 7, 104, 40, -34, 72, 52, 28, 39, 71, 30, -2, 187, 19, -3, 68, -30, 53, 129, 62, -21, -56, 8, 37, 16, 17, 12, 4, -27, 39, 12, 97, 21, -15, -135, 77, 19, -41, 58, 25, 30, -93, 118, 164, 103, -16, -1, 206, -45, 64, 92, 175, -72, 95, 138, -55, -85, 25, 98, 2, -30, -38, -23, 59, 15, 31, -7, -16, 76, 42, 48, 29, 92, 33, -11, 24, -47, 123, 18, 60, -38, 45, 55, -28, 55, 58, -15, -96, -11, 96, -12, 5, 145, 79, -31, 81, -47, -7, 67, 47, 52, 13, -10, -77, 22, 37, 96, 117, 69, 83, 23, -28, 20, 37, 44, -59, 62, -108, -78, -131, -4, 86, -20, 59, -17, -83, 7, -111, 35, 8, 13, 0, 31, -126, -19, -10, -34, -135, -1, 52, -23, 13, 65, -66, 40, 12, 30, 32, -6, -204, -53, 43, -12, -2, 3, 48, 76, 28, -6, -61, 34, 6, -8, -28, 3, -33, 97, 0, -72, -72, -18, 48, -23, -18, -47, -16, -22, 6, 88, 28, 2, 48, 5, 2, 23, -24, 17, 8, -27, -98, -33, 48, 26, -207, -22, -116, -142, -57, -76, 69, -64, 7, -234, 117, 78, 261, -207, 22, 27, -37, -41, -25, -119, -44, -5, 93, -55, 16, -32, 37, -3, 9, -83, 55, 70, 76, -75, 49, 40, -11, -5, -43, -115, -145, 67, 107, -59, -201, 50, -41, 3, 102, 40, 61, 143, -14, -77, 34, 94, 63, 73, -12, 43, 21, 36, -160, 58, 24, 65, -212, 21, 53, -86, -4, -90, 78, -170, -29, 9, 79, 33, -129, 8, -76, 79, -1, -13, 100, 56, 19, -25, -154, -24, -40, 4, -99, -40, -13, -46, -35, -71, -12, 13, -149, 1, -78, 70, -35, 87, 6, -58, 90, 45, 33, 125, -192, 37, -79, -93, -157, -162, 58, -69, -167, -79, -35, -53, -26, -71, 40, 32, -108, -60, -19, 38, 15, -49, -12, 23, -99, 64, -20, -89, -146, -39, 67, -39, -33, 19, 35, 72, 117, 56, -78, -39, 69, 63, -29, -35, -20, -79, 85, 18, -51, -48, 49, -46, 116, 12, 18, -179, 51, 15, 50, -17, -6, -118, 82, -37, -99, 12, -31, -79, -33, -5, 13, -96, -251, 38, -32, -51, -132, -15, 12, 28, 50, -108, -65, 60, -181, 93, -40, -119, -92, 39, 69, 44, 17, 115, -105, 47, -50, 61, 102, -155, -43, 30, 26, -38, 35, 83, -19, 5, 0, -6, -7, 57, 68, -33, -3, -24, -5, 5, 85, 15, -145, 103, -16, 6, -84, -21, -71, -17, -91, -118, 44, -58, 17, -49, 87, -4, 64, 14, -24, 3, 0, -69, -43, -14, -137, 46, 47, -25, -81, -30, 27, 49, -44, 37, -32, -26, -44, 33, 1, -9, -61, -18, 10, 9, -78, 45, 27, 65, -46, 36, 66, 8, -48, 50, 104, 105, 21, -6, -5, -41, -68, 66, 31, -70, -23, 45, -4, 63, 63, 11, -242, -21, 12, 10, -166, 1, -32, 96, -39, -10, 5, -118, 102, 76, 81, -17, -32, 21, -73, 72, -97, -6, 27, 80, 46, 35, 61, -40, 6, -3, -34, 59, 55, 16, 38, -92, 8, 23, 73, -15, -28, -35, 7, -20, -30, 95, 93, 81, -4, 79, 6, -12, -1, 51, 63, 9, 227, 14, 13, 41, 26, 58, -20, 72, -15, 86, -92, 24, 37, -40, -15, 25, 68, 90, 10, 21, -9, 7, -6, 24, 5, 47, 2, 66, 36, 59, -14, 57, -9, 39, 54, 54, -14, -26, -38, 43, 18, 40, -77, -17, 12, -44, 30, -66, -47, -106, 52, 66, 27, 20, 72, -92, -4, -15, -141, 3, -100, -42, -53, -7, 36, -12, -148, -142, -102, -29, -93, -52, -16, 28, 30, -2, -70, 74, 38, 45, -42, 64, 46, -28, 10, 14, -5, 75, 48, -30, 13, 56, 93, 41, 40, 14, -16, 16, -39, 41, -21, 17, 32, 40, 18, -70, 3, 42, -78, -26, 10, 87, 47, -15, 27, 32, -25, 91, 47, 52, 20, -25, -84, 7, 82, 22, 61, 37, -47, -26, -121, 93, 27, -24, 51, 40, 13, -188, -22, 0, -32, -50, -13, 85, -130, 89, 172, 151, -66, 90, 93, -119, -1, 51, -1, 32, 25, -59, -27, 11, 62, 19, -101, -42, 49, 81, 48, -37, -28, -16, 17, 15, 33, 100, 2, 94, -25, 14, 10, 23, -46, -2, 14, 45, 24, -17, -8, -20, -16, 14, 32, 12, -25, 29, 5, 17, 2, 25, -7, 53, 4}
, {-29, -60, 24, -29, -7, 79, 5, 11, 17, 12, 4, -45, -61, 27, -5, 41, -28, -59, -49, -94, 10, 9, -69, -154, -29, -16, -19, 7, -90, -145, -35, 129, 88, 32, 64, -3, -185, -47, -32, 40, 9, -70, -5, 45, -35, -108, -2, 91, -2, -11, 73, 71, 0, 34, 2, 77, 85, -116, -14, 143, -8, -14, 35, -18, -11, 58, -126, -75, -12, -178, -151, 50, 50, -33, -11, -56, -123, -42, 8, 148, 116, 32, -3, 19, -27, 28, 53, -8, -5, -27, -61, 15, -82, 55, 4, 17, 16, -86, 31, -9, -50, 90, -33, -7, -2, 23, 16, 7, 65, 43, 4, 14, -7, 73, 31, 23, 15, -1, 16, -125, 20, 49, -51, -6, -9, -6, -12, 8, -71, 31, 83, -91, 45, -44, -32, -169, 33, 3, 67, -62, -3, -63, 67, -135, 26, -14, 23, -35, 46, -47, -70, -186, 22, 73, -12, -118, -99, -42, 4, -105, 8, 56, -56, -10, 43, -61, -77, 57, 28, -8, 38, -113, -24, 43, 51, -73, 75, 42, -66, 89, -19, 12, -78, 99, -20, -66, 42, -44, -36, -43, 15, -142, 7, 28, -76, 145, 3, -112, 56, 20, -75, -90, 148, -27, -105, -19, -8, -20, 54, -105, 52, -104, -73, 56, -17, 77, -21, -38, 28, -1, 85, 69, -14, -2, 81, -64, 49, 11, -14, -51, 81, -39, 27, 56, 74, 18, 41, -2, 15, -40, -94, -65, 45, 44, -17, -82, 19, -16, -5, 116, -23, -43, 48, 134, -37, -72, -43, 14, -13, 45, -10, -27, -18, -63, -86, 51, -64, 7, -13, -71, -6, -81, 80, 47, -7, 61, 104, 21, -72, 39, -32, -31, 75, 30, 39, -10, 27, -70, -41, 119, -8, -90, 40, 4, -35, 72, -19, -20, 35, 18, 32, 15, 58, -89, 60, -34, -27, 32, -16, -29, 177, 68, -114, -122, 19, 24, 9, 79, -27, -128, -2, -123, 18, -90, -106, 48, 10, 45, 29, 5, -12, -44, -13, -26, -32, 1, 13, 12, -54, 0, 12, -4, 41, -10, -9, -97, 20, 7, 69, -72, -11, -6, 108, -29, -162, -49, -80, -63, 29, 134, -148, -30, 13, 68, 3, -39, 10, -97, 68, -18, -166, -1, 122, 83, 62, 88, -36, 98, 95, 46, 39, -74, 3, 14, -54, -9, 24, -14, -26, -8, -76, -30, -92, 11, -71, -36, -38, -4, -34, 87, -9, -15, 62, 42, -24, 10, 2, 37, 24, 11, 103, 33, 10, 38, -55, -77, 55, -6, 33, -98, 6, -104, -46, 32, -193, -46, 144, 50, 31, 18, -38, 18, -95, -83, -12, -114, -107, -35, 34, 48, 27, -92, -6, 9, 70, 38, -124, -26, 23, 50, 13, 26, 18, -15, -27, 235, -23, 73, 30, 31, -30, -13, -48, 60, -27, -47, -126, 66, -29, 69, -58, 115, 19, -106, 118, -6, 21, -107, 74, 86, 26, -46, 43, 92, 5, 70, -67, 18, 7, 53, 54, 135, -24, -97, 38, 120, -44, -51, 102, -35, 28, 15, -41, -56, 12, -9, -95, -86, 24, -16, -10, 109, 115, 10, 80, -19, 29, -14, 33, -32, 51, -2, 47, 40, 41, 59, -26, -49, -97, -21, 34, -55, -41, 27, 136, 50, -49, -44, -110, 96, 97, 70, -44, -65, -3, 39, 77, -17, 81, 5, -45, 4, 28, 3, 17, 80, 138, 22, -15, 34, 74, 9, 12, 64, 80, 31, 5, -75, 30, 33, -69, -1, 125, 49, 83, -58, 73, 17, 2, 12, 22, 59, -59, 107, 34, 2, 64, 70, -4, -10, 58, 30, 18, -15, 42, 48, 43, 5, 11, -56, 20, 17, -39, -28, 56, 0, 57, 9, -30, -18, 41, 26, -51, -17, -22, -74, -14, -1, -108, -65, -42, -18, -46, -30, -41, -68, -26, -25, 12, -5, 108, -60, 63, -42, -88, 0, -72, 25, -52, -23, -33, 70, -21, -22, 23, 48, 67, 14, -16, 96, -79, -9, -49, 103, 78, 28, 22, -11, 9, -39, -5, 67, 47, -30, -7, -63, -30, 53, 41, 31, -38, 61, -102, -7, 47, 142, 129, 50, 81, -26, -35, 66, 40, -42, 94, -77, -17, 81, 17, 26, 14, 32, -19, 16, 63, 89, 35, -5, -2, -30, -28, 95, 23, 51, -50, -124, 30, 140, 20, -8, 88, 132, 1, -27, -30, 109, -141, 74, 16, 25, 2, -31, -10, -38, -68, -43, 70, -108, 55, 73, 65, -48, 57, 1, -76, -27, 92, 7, 35, 26, 35, 8, -53, 10, -21, -4, -65, 52, 120, 18, 1, 4, 13, 29, 50, 4, 133, 20, 71, -100, 11, -45, -8, 41, 7, -105, 49, 80, -89, -10, -44, -9, -55, 5, -34, -29, 38, 74, 11, -22, 41, 8, 4, 25}
, {-25, -17, -24, 15, 8, 42, -29, 4, -25, 8, 53, 11, -50, -4, 54, 19, -55, -57, -107, -138, 2, 53, -106, 49, -119, 24, -15, 35, -38, 4, 28, 28, 17, -139, 56, 135, -91, -56, 18, -29, -44, 51, 28, -1, 134, 13, -21, 124, 32, -92, -28, -6, -81, 17, -5, 19, -7, -71, -30, -130, -136, -84, -12, -45, 39, -5, -99, -119, -37, -161, -109, 36, 57, -64, 31, -57, -6, -3, 71, 72, 33, -73, 1, -4, 22, 24, -10, -38, -5, 29, 98, -17, -62, -12, -15, 44, 49, 52, -17, 10, 39, 53, -29, -20, -79, -45, 41, 0, 1, 65, -13, -12, -129, -65, -54, -131, -59, -80, -118, 9, -178, -5, -39, -114, -64, 33, -81, 34, -19, -142, -45, -21, 7, -19, -84, -174, -99, 56, 10, 45, 17, -91, -95, -48, -62, -34, -32, 42, 3, -34, 39, -200, -54, 23, -24, -33, -271, -250, -66, -190, -20, 49, 42, -76, 41, 4, 48, -18, 63, 46, 21, -4, 25, 44, 70, 1, 80, 6, 39, -38, -19, 138, -137, 14, -65, 5, -202, -14, -82, 79, 37, 76, -32, -9, 55, -66, -62, 52, 15, 36, 27, -16, -131, 74, -82, -27, -69, -42, 33, -58, -111, -72, -66, -119, -25, -88, 10, -38, 121, -10, -24, -4, -17, -84, 8, 87, 25, -37, 127, 86, -76, 56, 81, -14, 127, 122, 77, 32, 182, -116, 86, 19, 72, 31, -144, -94, 6, -92, -3, 59, -52, 11, -10, -47, -15, -72, 89, 28, -71, 0, 39, -20, 79, -88, 44, 31, -122, -75, -42, -103, 10, -51, -13, 79, 74, 3, -64, -55, 5, 7, -36, 25, 91, -2, 28, 40, -55, 6, -7, -28, -59, -51, -87, -110, -23, 7, 4, -94, 43, 47, -62, 45, -56, 21, 54, -21, -95, -8, 54, -8, -36, -80, -65, -16, 29, 51, -7, -63, 57, -33, 46, -32, -7, 105, -63, 2, -25, -40, 7, -29, 34, 30, -10, 49, -36, -52, -47, -73, 19, -74, -31, 45, -47, 13, -79, -31, -6, -5, 26, 115, -11, 34, -89, 112, -63, 7, 78, 26, 25, -95, 59, 41, 158, -29, -32, -50, 98, 53, 3, 119, 144, 35, -30, 50, 66, -56, -25, 2, 59, 37, 52, 8, -63, 38, -19, -49, 67, -159, -133, -129, -147, -34, -109, -209, -37, 6, -25, -1, -196, -94, -46, 10, 1, -166, -43, -56, -54, 40, -57, -68, -123, 246, 138, 21, -70, -153, -47, -125, -56, 57, -114, -31, -114, 30, 90, -149, 102, 11, 43, -187, -36, -53, -12, -61, 95, -14, 117, 94, 13, 35, 86, -33, 78, 5, -36, 48, 130, 9, 12, 59, -78, -91, 70, 58, -72, 14, -5, -42, 81, 0, -81, -32, 20, 4, 23, 6, 35, 84, -16, -66, -5, 75, -34, -19, -39, -33, -83, -53, -90, -47, 31, 68, -23, 2, 51, -124, 46, 33, -121, 77, 60, 46, 72, 82, -157, -61, 141, -54, 39, -67, -169, -87, -137, 77, -79, -185, -95, 33, -6, 20, -52, 44, -148, -85, -48, -17, -74, -31, 50, -64, 78, -72, -60, 128, 0, -194, -63, 43, -27, -39, -61, 58, -24, -32, -7, 53, 43, -5, -16, -73, -24, 60, -50, -12, 2, -33, 60, 94, -16, 92, -37, -28, -32, -4, 94, 67, -28, 31, 35, 40, -2, 0, -20, -68, -66, -65, -66, 20, 14, -1, -6, -65, -16, 1, 28, -28, 63, -49, -92, -1, 116, 4, 1, -129, -47, 45, -111, -82, 33, -105, -64, -75, 61, 9, 52, 12, 12, 24, 53, 184, -133, -26, -35, 20, 28, -10, -89, -24, 86, 27, -25, 83, -23, -3, 13, 65, -17, -117, 127, 21, -35, -12, 61, -35, 50, -68, -64, 66, -5, -2, 28, -7, 44, 13, 17, 65, 101, 20, -40, -17, -56, 33, 45, 48, 46, -5, -83, -53, -5, -71, -2, -17, 43, 13, 47, 52, 77, 17, 56, 70, 59, 53, 12, 5, -38, 94, 74, 74, -36, 71, 73, -4, -121, 10, -1, 28, 20, 25, 22, -63, -16, -94, 62, 4, 2, 21, 55, -65, -72, -10, -5, 1, -45, -67, -126, 10, 40, -91, 66, 69, 111, 127, -3, -3, 107, 54, -55, -91, 28, 9, -51, -160, -20, -42, 72, -58, 63, -102, 26, 50, -35, 13, 22, 35, 95, 27, 12, -67, 3, -53, 174, 65, -24, -9, -6, 66, -113, 57, 3, 70, 75, 63, -154, 1, -26, -7, -12, 85, 57, 85, 47, -22, 24, 8, 0, 47, 47, -20, -15, 6, 9, -25, 56, -24, -20, -32, 47, -10, 22, -13, 35, 16, -16, 46, 29, -33, 9, 29, 56, 11, -45, -6, 37, -8}
, {139, -114, 117, 108, 17, 182, -11, -33, 31, -4, -47, 1, -28, 1, 48, 50, -39, -167, 16, -8, -181, -59, -111, 11, -60, -150, -75, -274, -79, -176, -91, 84, -31, -263, 21, 77, -93, -98, -8, -16, -16, -54, -39, -38, 6, -137, -105, 13, -71, -45, 3, 28, 34, 1, -26, -30, 13, -140, -44, -97, 32, -127, 2, -16, -26, -58, 2, 7, 12, -43, 100, -37, -12, -49, 71, 193, -93, 56, -29, -52, 3, 48, -2, -44, -30, -35, -49, -58, -94, 41, 40, -55, 11, 81, -55, -3, -6, 13, -87, -4, -115, 76, -66, -89, -115, -102, 23, -32, -1, -75, -145, 12, 59, -104, 29, 42, -63, 70, -39, 84, 49, 58, -36, 60, -130, -69, 53, 93, -89, 26, -14, 24, -23, -67, -67, 71, 35, -113, 73, 20, -19, -116, 62, 45, 40, -43, 22, 50, 33, 11, 39, -53, 13, -20, 25, 2, -48, -22, 8, -61, 47, 20, -78, -3, -65, -18, -20, 56, 44, 21, -50, 7, -6, -35, 43, -20, -25, -7, -7, -62, 24, -35, 11, 29, 60, 75, -61, 59, 65, 34, 106, -4, -44, 22, -2, -36, -13, 22, -48, -40, 21, 95, 27, 89, 103, -44, 113, -5, -12, -8, -58, -133, 41, -19, -77, 92, 69, 124, -9, -20, -55, 32, 82, -113, 28, -45, -52, 45, -71, 29, 28, 69, 6, -49, 40, -66, 76, 43, 14, 26, 16, 112, -44, 23, 34, -88, 76, 42, -49, 3, 110, 39, 146, 17, 9, -31, -13, 79, -76, 1, 72, -66, 90, 56, -14, 25, -6, 50, 48, 1, 89, -83, -33, 15, -32, 89, -11, -12, 5, 47, 15, 1, 50, 9, 2, 28, -17, 79, 38, 61, 64, 15, 47, -46, 118, 10, -69, -41, 109, 51, 50, 80, 11, -3, -35, -3, 44, 43, 25, 33, 23, 20, -7, 22, -3, 78, -23, -60, 107, 110, 108, 92, 78, 99, 47, 178, 81, 53, 21, 75, 220, -72, -5, 21, 82, 46, 27, -81, 40, 15, 80, 119, 4, -135, -12, 146, -146, 182, -80, -31, -53, 42, 44, -55, -81, -2, 14, 103, -41, -45, -99, -37, 51, 130, 44, -11, -41, 40, 99, 8, -7, 50, 49, 82, 11, 142, 41, 13, 47, 52, 4, 21, 95, 48, -49, 39, 73, -56, 18, 9, 46, -1, 35, 24, 32, 21, -72, 62, -31, 20, -28, -98, 24, 5, -58, 19, 31, 6, 42, 53, 10, 36, -21, 24, 16, 12, -22, -17, 21, 7, 47, 13, -10, 1, 41, 28, 41, 19, 62, 21, 57, 118, -49, -141, 23, 1, -47, -34, -107, -35, 47, -82, 73, 91, 59, -56, -94, -8, -72, 29, 125, 31, -146, -105, -90, 51, -61, 22, -10, -123, -43, -23, -58, 91, -19, -30, 103, 10, 13, -40, -44, -83, 34, 60, -33, -76, 44, -72, 30, 87, -110, -43, -97, 80, -39, 7, 132, -55, -134, -26, 16, -65, 33, 95, -72, -49, 35, -1, 30, 98, -32, -51, 130, -37, -96, -104, 66, 58, 103, 7, -110, -30, -29, -166, 27, -6, -74, -102, 127, -29, -1, -35, -28, 96, 10, -42, -83, 19, -75, -54, 10, -20, 3, -93, 81, -7, -63, -132, 52, -13, 60, -39, -69, 39, -108, 9, -7, -16, -100, -105, 28, 24, -27, 51, -67, 16, 43, 102, -35, -18, -126, -31, -110, -8, 46, 35, 61, 52, -36, 118, 12, -71, -38, 24, 65, -60, 38, 22, 20, 34, 21, 35, 33, 57, -37, 14, 17, 15, 43, 111, 12, -57, 98, -16, 24, -9, 2, 2, 135, 273, -131, 26, 9, 47, 32, 173, 33, -52, -58, 41, -7, -14, -7, -39, 187, 156, -100, 19, -30, 111, 46, 46, -68, -44, 127, 84, -40, -43, -18, -6, 155, 15, -110, -107, -72, 6, 117, 9, -143, -35, 8, 87, -2, 37, -26, 33, -21, 20, 33, -4, -11, 112, 38, 89, 10, -8, 99, 27, 41, 76, 145, 121, 37, 4, 111, -32, -24, -137, -28, 24, 63, 13, 94, 37, 34, 69, 71, 82, -49, 12, 82, 13, 55, 12, 29, 89, 89, -30, 8, 111, 14, -7, 90, 76, 29, -152, -21, 194, 259, 139, 27, 53, 55, -28, 291, 126, -37, -191, -7, 14, -9, -62, 76, 69, 231, -11, 133, -38, 14, -52, -30, 183, -24, 0, -91, -28, -21, 67, 126, -41, 134, 109, 19, 79, -49, -60, 41, 36, 7, 82, -102, -86, 29, 64, 76, -96, 44, 109, 77, 181, -139, -23, 13, 40, 97, 94, 55, 109, -8, 48, 39, -69, -76, 140, -6, -11, 103, 69, -55, 8, -31, 11, -31, 96, -60, -36, 37, 20, 43, -30, -21, -17, 31, 84}
, {-15, -60, 14, 10, -95, -100, 20, 37, 39, -20, -44, 26, 6, 20, -36, 1, -7, 44, 8, 10, 62, -14, 65, -7, 54, -65, 86, 77, 30, -105, 14, 26, -16, 49, 9, 1, 62, -45, 22, 38, -37, 128, -57, -55, 52, 118, -23, 29, 22, -19, 98, 98, -23, -1, 35, -32, -45, 39, 54, 95, -10, -6, -52, 57, 43, 62, 24, 49, -12, 218, 60, -53, -31, -103, 49, -24, -31, -11, -14, -77, 29, 113, 10, -145, 44, 31, 70, 42, 31, -4, 86, 45, 118, 3, 31, 25, -7, -5, 85, -13, 45, -15, 11, 92, 85, 6, -80, -26, 52, 54, 35, 21, -10, 22, 76, 64, 34, -23, 55, 99, 18, -51, 88, 52, 165, -1, -4, 17, 0, -23, 0, 24, 21, -1, 30, 1, 22, 38, -64, -62, 53, 82, -18, 28, -34, -22, -23, -15, 3, -81, 93, 83, 35, 7, 75, -66, 132, 91, -14, -61, 21, -40, -16, -88, 4, -23, 6, 29, -56, -50, -23, 101, 95, -48, -51, -124, -41, -3, -61, -51, -12, -5, 171, -9, -4, -27, 50, 46, 35, 7, -34, -110, -4, 152, -134, 106, 99, -60, 117, -3, 16, 100, 180, 116, 46, 10, 113, 46, 97, 211, 34, 82, 46, 147, -56, 77, 31, 16, 50, -6, -5, 31, 27, 70, -32, -32, 125, 42, -40, 35, 29, -15, 30, 87, 43, 104, -30, 73, -22, 64, 38, 19, 21, -6, -9, -30, -12, -48, 0, -19, -46, 38, 43, -10, 18, -60, -41, -58, -66, -40, 0, -125, 1, -31, 28, -39, 8, 63, 21, -15, -4, -10, 61, -57, 97, 25, -13, 28, -33, -44, -5, -61, 13, 1, -1, -27, 19, -2, -40, -70, 11, -22, 63, -6, 104, 6, -6, 61, -30, 93, 55, -4, 16, -19, 11, 123, 29, 128, 87, 63, 94, -4, 128, 48, 78, 52, 139, 32, 91, 41, 40, -79, 7, -13, -85, -83, -46, 49, 11, -56, 229, 5, 107, 59, -12, 49, -2, 47, 73, -17, 51, 57, 64, -55, 105, -2, 62, 26, -86, -146, 160, 33, 21, 5, 26, 77, 48, -26, 50, -41, -42, 22, 67, 15, 51, -23, 20, -43, 14, -55, -43, 10, -20, -60, 42, 38, -84, -54, 97, 26, 141, 114, 1, 38, -23, -66, -29, -101, 75, -87, -1, 47, 57, -47, -43, -52, -16, -44, 58, -124, 20, 11, -17, 0, 19, 24, 26, 18, -23, 90, 17, 76, -49, -20, 23, 42, -36, 182, -21, 196, 134, 115, 56, -30, 19, 82, 149, 63, 9, -3, 148, 90, 140, 198, 51, 125, 39, 126, 133, 171, -19, 134, 6, -64, 139, 110, 97, -35, -28, 39, -72, 13, 65, 8, 10, -156, 33, 171, -88, 59, 130, 126, 60, 81, -6, 59, -16, 64, -16, -57, 119, -66, -26, 17, 19, 45, 126, 113, -59, -29, 46, 46, 26, 33, 19, -41, 68, -23, -47, 11, 27, 126, 36, -37, 3, 73, 52, -21, 5, -62, 72, 99, -32, 17, -2, 67, 16, -50, -8, 12, 65, 50, -33, -1, 40, -13, -17, 66, 7, 56, 19, 0, -72, -20, -59, -43, -20, 68, 83, 131, 27, 124, 0, 33, -101, 7, -18, -38, 12, 2, 58, 31, 16, 45, 134, -16, 7, -66, 127, 105, -38, -15, 101, -124, 47, 96, 178, -65, 13, 46, 34, -75, 154, -76, -29, -27, 15, -8, -47, -78, -74, 25, 43, -32, -99, -17, -91, 49, -59, -43, 6, 34, 35, 31, -200, 14, -5, 123, -33, -47, -88, 12, 50, 60, -1, 5, 38, 61, -27, -111, -123, 6, 62, 18, -88, -77, 81, 32, 36, 17, 39, -18, 8, 7, -149, -78, 23, 10, 65, -35, -121, -29, 91, 18, -73, -18, 39, -22, 47, 17, -118, 33, 13, 28, -79, -133, -53, -16, 39, 87, -8, 74, 44, 24, 7, 63, 57, -106, 80, -84, 63, -27, -40, 80, -20, 40, -143, -7, -41, -68, -139, -99, -54, 14, 52, -35, 91, 94, 126, 17, -78, 14, 69, -33, -12, -92, -121, 10, 33, -3, -16, -13, -4, -35, -126, -37, -73, 48, -17, -162, -18, 35, -136, -39, -126, 200, 18, -195, -197, -71, -95, -150, -98, -27, -67, -128, -34, 224, 56, 3, -111, 132, 59, 20, -272, -31, -95, -4, 1, 5, 75, -58, -13, 82, -19, 43, 45, 59, 42, 40, -185, -7, 43, -124, -25, 65, 26, 18, 22, 73, -47, 30, 55, 60, 85, 61, 86, -188, -225, -188, 18, 9, -262, -111, -170, -211, -166, -112, -65, -105, 40, -104, -112, -8, 4, 74, -75, -79, 50, 0, 73, 19, 28, 23, 33, 67, 17, -33, -46, 5, 121, 22, -42, 3}
, {19, 19, 13, -12, 102, -25, 44, 67, 24, -5, 72, -4, 6, 13, 29, -69, 14, 12, 31, 33, 106, -149, 27, -57, 6, 17, 18, 17, 77, 109, -2, -100, 2, -13, -30, -13, -13, 107, 40, 33, 42, 19, -23, 11, 88, -192, 3, -148, -43, 91, -128, -47, 8, 38, 39, 39, 49, 38, 36, 92, 63, 12, 26, -4, 3, 22, -65, -108, 3, -44, -191, 68, 11, 34, -139, -106, 68, 41, -29, 36, -32, -2, 10, 124, -62, -24, -13, -75, -30, -50, -8, -36, 57, -71, -65, -91, 56, 67, 81, -8, 63, -51, 41, 72, 26, 96, 56, -12, 60, 26, 44, 7, -98, 24, 24, -20, -37, -61, 28, -155, -10, 51, -74, -45, 109, -3, -76, -7, -57, 39, -8, -33, 29, -69, -15, -79, 27, 38, 76, 58, 18, 22, 35, -54, 99, 75, -40, 47, 16, -4, -13, -73, 44, 73, 101, 190, -41, -67, 82, 37, 53, 34, 0, 53, 84, 25, -141, -54, -44, 28, -49, -95, -64, -72, 47, 58, 43, 6, 114, -17, -31, 56, -251, -1, 64, 2, -81, -5, -90, -1, 58, 36, -56, -45, -37, 20, -27, 21, -105, -31, 29, 44, -96, -147, -174, -68, -21, 38, 57, -1, 69, -17, 138, 32, 49, 60, 36, -41, -38, -45, -114, 53, -13, 63, 85, 16, -60, -16, 97, 79, 17, -51, -12, 11, -38, -23, 31, 42, -105, -1, 1, -29, -96, 9, -54, 13, -7, -3, -114, -15, -16, 45, 10, -38, -16, -7, 5, 59, -43, 87, 39, 35, 24, -55, -69, -42, 33, 90, -70, -70, 87, -68, 120, 85, -18, 26, 138, 8, -93, 53, 32, 60, -111, -22, 23, -81, 108, 13, -16, -27, -21, -93, -38, 55, -63, -18, 47, -25, -118, -139, -66, -32, 42, 45, -44, -42, 38, 70, -53, 56, -104, -40, 34, 28, -59, -183, -105, -26, 5, 158, 187, -17, 25, 20, 15, 24, 33, 31, -10, 17, 112, 38, -24, 75, -4, -8, 122, -141, 12, -27, -29, -32, -158, 190, -52, -90, 106, -10, -84, 41, -12, 50, 55, -137, -30, 18, -23, 130, -85, 72, -9, -23, -67, 23, -171, -244, -47, 172, 36, 5, 4, -39, -14, 93, 14, -24, -15, 77, 43, 93, -73, -37, -50, 48, 15, 47, -55, 56, -25, 35, -128, 87, -174, -8, 72, 51, 17, -92, 42, 88, 31, 42, -42, -3, -84, 10, -203, 67, -50, -112, 50, -71, -82, -16, -23, 6, 52, -5, -86, 73, 35, -192, 3, 7, -64, -205, 102, -31, -77, -32, 35, 12, -27, -97, 31, -62, -176, -137, -30, 28, -49, 67, -44, 11, -2, -60, 1, -103, 42, 42, -62, 21, -32, 76, -38, 174, 3, -74, 13, 13, -11, -53, -32, -61, 13, -61, -33, -44, -63, 17, -30, 88, 45, -11, 33, -32, -57, -77, -31, 9, -19, -21, 36, -34, -84, 74, -86, -17, 90, -82, 20, -42, -107, -170, 65, 127, 83, -45, -43, 21, 40, 44, 20, 38, 5, 87, 64, -20, -39, -14, 76, 65, 64, 2, 37, -5, 31, -32, 53, 20, -37, -50, 34, -44, 21, 61, -12, -114, -6, 58, -15, -81, 48, -67, 167, 22, 22, -3, 3, -41, 108, 55, 5, -34, 44, -79, -4, -118, 17, -77, 111, 33, -62, -42, -185, -76, -17, 44, -21, 18, 81, 89, -41, 48, 44, 26, 17, -35, 27, -49, 155, 41, 134, 55, 206, -29, 85, 48, -13, -22, -12, 30, -29, 89, 195, -37, 25, -2, -50, -133, 167, 31, -6, 44, -64, 48, 12, -7, -41, -74, 247, 58, 21, -84, 63, -34, 95, 38, -47, -43, 116, 30, -31, 12, 29, -112, 227, 110, -94, -112, -9, 70, -9, 11, 37, 8, 52, -38, 54, -8, 136, -56, 75, 56, -8, -118, 100, 23, -55, -25, -28, 57, 30, -62, -30, -19, -7, 11, -105, -39, -59, 55, 77, 134, -9, -42, 41, -23, 13, -20, 15, -78, 13, 73, -24, 83, -25, -19, -22, 82, -52, -34, -66, -45, 7, 38, 120, -80, 120, -35, -23, 112, 21, -21, 76, -107, -33, 53, -65, -94, 19, 36, 59, 3, 97, 59, -11, -2, 15, -60, -152, -12, 30, -6, -146, -95, -28, 187, 87, 102, 126, -172, -81, 39, 24, 64, -78, 90, 63, 72, -57, -58, 60, 47, -17, 46, 80, -81, 42, 107, 51, -66, 92, 98, -11, 16, 38, 37, 107, 96, -103, -79, -8, -83, -31, -114, -18, 139, 212, 75, -174, 70, 24, 4, 76, 93, 192, 39, 162, -61, -24, -59, -90, 83, 158, 136, -27, 72, 131, -6, 10, 23, 89, -80, 77, -11, 24, -43, -12, -27, -15, 10, 60, -42}
, {-65, 81, -54, -33, -40, -87, 37, 18, 40, -23, 100, 67, 75, 12, -13, 9, 11, 161, -68, -29, 145, 90, 51, -10, 27, 72, 161, 102, 97, 253, 112, 22, 32, 116, 25, 4, 70, 59, -11, 22, -52, 4, -66, -5, -20, 69, 10, 167, 15, -33, 40, 108, 7, 87, 45, 33, 47, -6, 57, 190, -60, -44, 13, 70, 44, 142, -28, 38, 36, -33, -88, 40, 8, -61, -54, 100, -66, -63, 67, 116, 44, 3, 10, -90, -22, -11, 45, 61, -12, -64, -120, 46, -47, 24, -14, -9, -40, -76, 1, 35, -29, -18, 54, -10, 61, -2, -86, 35, 65, 28, -15, 29, 128, 6, 21, -40, 82, 44, -47, 0, -48, 6, -15, 92, 70, 75, -30, 10, -68, -16, 72, 37, 53, 77, 10, 31, 11, 75, -58, -36, 54, 44, -5, 99, -23, 3, -41, -69, -2, 85, -55, -59, 49, 39, 44, 18, 50, -27, -36, 3, -20, -10, -3, 30, 31, 30, -90, 74, -1, -21, -3, -23, 53, 11, 8, -74, 27, 38, -40, 70, -3, 6, -33, 69, -51, -80, 66, 35, 35, -27, -32, -58, 27, -7, -49, 57, -14, -149, 194, 28, -57, -151, 75, -6, 11, -14, -65, -55, -58, -14, 6, 46, -117, 44, 21, -12, 60, -94, 83, 22, 95, -80, -73, 15, 0, -43, 106, -43, 29, -3, -43, 91, 55, 11, 25, 143, 41, -80, 26, 99, -39, -106, 73, -25, -3, 73, -88, -29, 66, 84, -77, -4, 31, 12, -42, 59, -112, -126, 1, 15, -89, -72, -95, -128, 101, -5, -58, -50, -103, -70, -75, -7, 32, -95, 94, 78, -60, 37, -26, -54, -73, 18, -83, -116, 13, -8, 60, -17, 30, -65, 22, 56, 91, 46, -25, -50, 98, 87, -9, -89, 26, -2, 39, -15, 15, 91, 25, 36, 45, -51, 183, -15, 25, -22, 157, 108, 147, 24, -86, -29, -181, -15, -38, -77, -61, -128, -80, 43, -25, -85, 15, -59, 42, 99, -45, 15, -124, 18, -56, -86, -117, -133, 46, 107, 10, -184, 69, -42, 131, 208, 42, -52, -15, 28, 72, -39, -16, -103, 53, -102, 114, 108, 38, 2, -28, 26, 139, -115, 56, 30, -34, 57, 38, -53, 44, 8, 63, 93, 114, -5, 68, 118, 62, -33, 63, 20, -11, 42, 83, 45, -53, 52, 57, -1, -17, -118, 24, -44, 101, -25, 60, 5, 66, 26, 9, 74, -34, 38, 4, 85, 49, -57, -44, -7, 77, 37, -24, 7, 1, -37, -22, 15, 17, -72, 49, -3, -101, 16, 61, -47, 9, 53, 117, 152, 33, 22, 127, 68, 127, 71, -11, 55, 11, -110, -27, 36, 77, 20, -79, 16, 52, -9, 66, -23, 55, -69, 74, -12, 39, 53, 51, 47, 131, 2, 13, 48, -84, 58, -5, -73, 86, -63, -25, 60, -8, 51, 77, -23, 2, -80, 61, 50, -40, 10, 52, -1, 43, 1, -73, -44, -5, 128, 9, -60, -17, -5, 102, -2, 42, -2, 30, 113, -140, 88, 31, 46, 27, -25, -73, 38, 44, 66, 16, -1, 0, -16, 4, 57, -89, 70, -49, -2, 1, -3, -48, -18, 2, 67, 70, 38, 31, 96, -84, -10, -121, -23, -43, -60, -76, -84, -20, -18, -76, -6, 76, 37, -33, 38, -1, 52, 19, -63, 87, -114, 87, -23, 94, -134, -33, 1, 37, -60, 154, 63, -14, 29, 49, 46, -63, -26, -147, -28, -2, 24, -160, 42, -11, 63, -52, -11, 26, 32, 45, 9, -84, -74, 87, 74, -24, 43, -38, 24, 90, -42, 10, 31, -36, 34, -60, -100, -75, 3, 40, 72, -96, -56, 37, 45, 59, 47, -19, -16, 30, 20, -244, -44, 23, 10, 84, -67, -16, -63, 89, 37, 6, 34, 13, 33, -11, 16, -66, 28, 18, -21, 29, -42, -36, 2, 73, 43, 50, -30, 0, -30, -40, -42, 23, -41, -28, 11, -26, -49, -79, -9, -35, -40, -98, -31, -9, -95, -111, -85, -6, 22, 3, 23, 39, 148, 83, 74, -61, 15, 105, -37, -9, -162, -124, -52, 54, 84, 23, -60, -2, 10, -78, -43, -86, 60, -15, -148, 51, -56, -56, -46, -57, 177, 25, -216, -157, -56, -39, -117, -33, -2, -84, -69, -38, 152, 27, -28, 72, 77, 5, 29, -138, -83, -82, -5, -44, -1, -40, 34, 54, 69, 87, -14, -19, -67, -37, -76, -203, 85, 95, 16, -13, 46, 46, -132, 8, -81, -5, -1, 74, 56, 0, -28, -10, -61, -77, -137, 2, -14, -84, -95, -32, -130, -45, -22, 70, 9, 5, 31, -62, -24, 53, 78, -13, 18, 147, 28, 104, 23, 81, 65, 93, 78, 21, 3, -27, 15, 59, 13, 6, 17}
, {-41, 34, -41, -16, 67, 50, -29, -71, -43, 9, 112, -41, 43, 19, -33, 61, -148, 17, -142, -141, 67, 79, -88, -86, -80, 40, 71, -19, -44, -22, -19, 42, 45, 59, 4, 38, 71, 90, 68, -52, 40, -12, 59, 213, 27, -49, 41, -55, 16, 59, -15, 23, -68, -23, -64, 134, 59, 8, 25, 126, -39, -69, 101, 9, 11, 117, -106, 60, 14, -85, -103, 70, 42, 36, -35, -68, -134, -23, 36, 24, 35, -80, -108, 91, -105, -78, -20, -37, -42, -69, -61, 81, -39, -22, -80, 77, -10, -43, -7, -1, -34, 25, 32, -51, 38, -46, -10, -2, 79, -37, -41, 89, 86, 64, 36, -34, 102, -6, -77, 4, -98, -76, 21, -36, -10, 23, -81, -59, -30, -55, 56, -5, -26, 43, -73, -92, -33, -20, -26, -28, -39, -83, -123, -31, -57, -33, 1, -60, 3, 10, -47, -36, 30, 68, 34, 11, -30, -78, -28, 88, 9, -1, -66, 115, 72, 97, -5, -47, -84, 8, 84, 45, -19, -55, 78, -74, 24, 26, -36, -28, 53, -204, 97, 106, -116, -40, 86, 50, 130, 74, 10, -178, 34, -81, 20, 55, -123, -125, 95, 0, -125, -132, -19, -24, -131, 9, -137, -140, -36, 67, 25, 30, -1, 29, -5, -18, 53, -7, 37, 8, 45, -28, -12, 60, -159, -118, 27, -49, -65, -108, -116, 68, 14, 76, 19, 23, -60, -32, -23, 120, 0, -16, 65, 81, -59, 12, -70, -124, 109, 63, 21, 15, -104, -1, 53, 67, -11, -24, -11, 52, 1, -11, -76, -28, 105, 84, 6, -23, -93, -99, 86, -35, 12, -38, 0, -83, 25, -47, -6, -60, 77, 102, -140, -83, -50, -13, 18, -18, -96, 40, 96, -136, 44, -13, -118, 5, -156, 71, -61, -19, 37, 12, 1, -68, 5, -58, -19, -42, 25, -33, 163, -46, -58, -5, -43, -11, -115, 48, -18, 105, -19, 38, -9, 0, -56, 11, 74, -67, -75, -96, 23, -21, 36, 35, 38, 39, 5, -73, 18, -39, -10, -78, 6, 159, 34, -40, 113, 95, 211, 142, 32, -107, -37, -59, -49, -15, -77, -105, -47, -1, 4, 105, -133, -80, 130, -27, -44, -5, 28, 32, 21, -32, 108, 20, 67, -93, 61, 54, 132, 19, 7, -19, -41, 12, 42, 30, 54, 32, -23, 34, -71, 62, 2, 107, 79, 53, -107, -40, 33, 24, 50, -26, -18, 70, 12, 3, 68, 25, -141, 29, 38, -106, -60, -42, 50, 185, 52, -8, -98, -101, 5, -198, -55, 4, -24, -73, 47, -9, 53, 1, 71, -86, -13, 11, -82, 11, -59, -41, 18, -19, 41, 22, 50, -3, 35, 36, -43, 33, -43, 65, 72, 12, 32, 60, 28, 251, 10, -148, 66, -2, 3, -45, 15, -25, -59, -18, -33, -12, -39, -27, 50, 14, -28, 18, 1, 6, -1, -69, -38, -128, 13, -28, -12, -1, 4, -108, -48, 0, -68, -70, -22, 9, 21, -104, 28, 113, -11, -7, -164, 120, 17, 76, -51, -46, 15, 78, 76, -215, -56, 61, 40, -13, 66, -3, 65, -56, -46, -32, 15, 18, -15, 16, 18, -32, -45, -22, -71, -46, -33, 57, -1, 46, 11, -21, 59, -63, -103, -36, -39, 67, 161, 69, -19, -62, 71, 39, 12, -4, -33, 29, 22, -3, -11, -68, -7, -28, 22, -32, -63, -24, 100, -20, -62, 102, 151, 79, -18, -21, -134, 51, -32, -80, 137, 40, 3, 17, 14, 65, -53, -29, 18, 29, 16, 11, -4, -64, 31, 3, -91, 23, 4, 5, -55, -34, 4, -9, -23, 24, -66, -59, 9, 53, -32, 23, 39, 5, 59, 22, 20, 5, 59, -52, -23, -21, 42, -43, 75, 2, -19, -22, 101, 6, 43, 18, 67, -80, -9, -35, -24, -13, 104, 42, -1, -38, 11, 102, 55, -17, -11, -28, 22, -106, -8, -95, 0, 19, 11, 9, -73, 34, -69, -39, -2, 1, 10, -11, -87, -31, -73, -38, -100, -64, -13, -37, 0, -82, -33, -39, 75, -42, -53, -34, -61, -16, 78, -55, 44, -5, -15, 9, 9, -80, 35, -12, 40, -23, -41, -24, 94, 21, -34, -123, 37, 61, 73, 56, 46, -122, -103, -153, 42, 16, 81, 15, 24, -95, 23, 130, 12, -71, 150, 34, 22, 33, -145, 100, -84, -35, -55, 7, -90, -144, 20, -154, -118, -69, 154, 76, -54, 63, -135, 92, 38, 19, -86, 16, 73, 62, 10, -38, -46, -7, 47, 51, 7, -88, -79, 55, 51, 60, -110, -4, 3, 17, 8, -71, 58, 82, 80, -37, -25, 40, -21, -44, 3, -49, 83, 41, -21, 2, -41, 11, -6, 28, 27, -19, 33, 0, 36, -19, 75, -1, -36, 27}
, {-30, -114, 69, 21, -61, -5, -21, -7, -37, -44, -195, -95, -47, 19, -84, 30, -17, 0, -62, -28, -109, 48, 8, -4, -30, -142, -18, 89, 70, -267, -27, -5, 59, 7, -29, 64, 98, 76, 43, -33, -26, 46, 51, -31, -63, 61, 22, 129, 101, 4, 52, 120, 58, -76, 45, -5, -12, -45, 84, -83, -7, -1, 38, 49, 25, -59, -1, -4, 6, 138, 60, 21, 6, -150, 63, -74, -10, 16, 15, -162, -72, 133, -39, -185, 15, -4, 29, 28, 22, 1, 17, -45, 83, -7, 62, -38, 44, -97, 1, -18, -77, 18, -22, -49, -145, -58, -62, 16, -59, 5, -128, -52, -109, -63, 10, 17, -120, -12, -47, 90, -125, -8, -187, -138, -181, -51, -82, -8, -72, -23, -68, 34, -105, -32, -29, 126, -82, -79, -52, 16, 17, -29, -48, -47, -15, 35, -103, -50, -19, -88, 70, 58, -53, -39, 9, 116, 45, 14, -42, 7, 18, 22, -32, -41, -89, -21, 122, 2, -8, -45, 26, 140, 105, -7, -3, 10, 10, 20, -80, -40, -36, -118, 130, 15, -132, -17, 42, 83, -73, 41, -12, 87, -61, 137, -91, 11, 40, -115, 172, -26, -28, 77, 144, 111, 89, -12, 78, 22, -61, 106, -36, -96, 23, -47, -35, 86, 91, 73, -98, 2, -17, 101, 57, -23, -98, 60, 123, 60, -48, -57, -1, -98, 36, 37, -8, -5, -157, -24, 10, -49, 58, -20, -2, -10, 52, 97, -53, -29, 45, 8, -8, -35, -103, -134, -41, -38, -11, 35, -123, -66, 20, 32, 33, 81, 28, -27, 140, 64, -8, -8, 63, -57, -12, -43, 16, -23, -97, -89, 15, 24, -59, -29, 4, 57, 53, 31, -46, -96, -5, -36, 1, 34, 19, -173, 242, 37, -96, -41, -24, 145, 40, 40, -86, -178, 10, 32, -60, 20, 32, 3, 54, -33, -1, 59, -23, 35, 147, 14, 23, 81, 69, -58, 62, 35, -22, -35, -21, -13, -13, -14, 61, -21, 49, 49, -8, 41, 13, 139, 56, 26, 86, 96, 64, -95, 83, 87, 2, 18, -90, -188, 68, 25, -42, 53, 161, 39, 155, 88, 15, -88, 91, 106, 72, -41, 114, -9, 100, 35, -24, 13, 51, 34, 35, 31, -11, -26, 10, -18, 5, -102, 125, 88, 38, 49, 139, 6, 91, -30, 34, -1, 90, 41, -30, 7, -6, 49, 26, 32, 13, -38, 14, -33, 39, 30, -35, -40, 93, 31, 7, 115, -1, 6, -27, -34, -33, 9, -180, 8, -21, 77, 35, 118, 28, -40, 89, 103, -11, -90, 6, 27, 52, 12, -3, 235, 31, 151, 9, 92, 80, 34, 9, 103, 41, -25, 95, -1, 101, -1, -34, 35, -30, 44, 34, -19, 39, -164, 80, 83, 33, 19, 113, 143, 105, 56, 53, 54, -29, 25, 75, 2, 35, -22, 0, 61, -23, -35, 45, 183, -1, -20, -28, 20, 88, 1, -55, 46, 109, 55, 31, -40, -136, -18, -2, 24, -74, 44, 40, -14, -57, 37, -3, 77, 3, -5, 17, 7, 8, 60, 4, -30, 61, 3, -69, 11, -65, 116, 31, 94, 24, 35, 90, 62, 5, 52, 2, -59, 47, 103, 106, 41, -36, 19, -45, 6, -123, 11, -12, -3, 65, -41, -11, 26, 32, -6, 20, 56, -21, -36, 79, 91, 25, 29, 96, 30, 11, 145, 129, -2, 104, 61, -13, -34, 112, -15, -102, -8, 34, 32, -146, -6, -192, -93, -61, 12, -256, 55, -117, 76, 66, 36, 6, 41, 52, -38, -155, 35, -22, 48, -74, 62, -38, 39, 8, -15, 26, -41, -99, -11, -42, -106, -256, -41, -88, -25, -51, 6, 23, -30, 7, -134, -10, -8, -12, -67, 27, -20, -196, -51, 33, -20, -24, -38, -36, -23, -44, -22, -12, 63, -30, 50, -43, 9, -23, -90, -5, 43, 40, -50, -12, 68, 39, 31, 78, 4, -4, 32, 18, 33, 69, -43, 165, 20, -4, -92, -23, 91, -56, 17, -9, -10, -49, -28, -11, -66, 12, 69, 85, 90, -15, 11, 43, 74, -14, -11, -34, -127, -127, -6, -4, 9, 21, -87, -58, 13, -138, -60, -11, -113, -53, -188, -77, -136, -84, -198, -76, 67, -20, -103, -142, -22, -199, -120, -45, -76, -117, -26, -38, -78, 63, -13, -160, -197, -68, -83, -20, 9, 81, 41, 75, -47, 21, 47, -55, 16, -18, -71, 2, 64, 48, -13, 9, -37, -105, -43, -92, -57, -58, -123, -56, -68, -38, -63, 38, 36, 82, 80, 10, -144, -163, -217, -26, -87, -110, -77, -89, -123, -203, 11, -24, -55, 52, 36, 60, -97, -82, 83, 15, -25, 25, 17, 93, 12, 13, 64, 44, 73, 35, -100, -53, 35, 3, -1, -39, 39}
, {64, -116, 43, 64, -78, 54, 1, -24, 19, 37, -80, 30, -17, -18, 0, 53, -31, -62, 32, -5, -49, 5, -8, 59, 53, -109, -71, -129, -47, -262, -18, 7, 43, 12, -33, -32, -24, -29, -7, -34, 31, 90, -24, -171, -83, -87, 15, -93, 22, -16, 93, 80, -169, -109, -5, -16, -16, 13, -123, -25, -130, -55, -5, -43, -54, -106, -1, 56, 110, 92, 5, -58, 47, -82, -137, -99, -50, 10, -38, 2, -72, 115, 53, -48, 79, 162, -16, -23, -30, 68, 57, 86, 35, -18, 34, 37, -13, 36, 126, 19, -30, 151, -10, -8, -161, 81, 41, 13, -74, -44, 62, -27, 24, -33, 29, 94, -27, 75, 67, 177, 97, -7, 30, 34, -171, -13, 86, 21, 9, 27, 10, -9, -11, -48, 29, 4, 16, 1, -4, 18, 91, 93, 21, -21, 55, 59, 40, 4, 36, -9, 52, 18, 33, -32, -31, -53, 139, 75, 38, 69, 20, 49, 15, 53, -29, -19, 44, -50, 10, -12, 20, -58, -11, -179, -13, 50, 8, 21, -92, 20, -10, 69, -60, 31, -31, 16, 69, -17, -102, -2, 31, 57, 56, 17, -47, -24, 42, 153, -201, 4, 13, 105, 11, 134, -33, -34, 148, 38, 84, 3, -42, -11, -41, -51, 116, 4, -133, 210, 59, 63, -30, -7, 113, 33, 42, 12, -122, 74, -109, -20, 63, -16, -15, 35, -2, -107, 14, 8, 76, 49, 126, 34, -41, 14, 106, 0, 48, 125, -95, -71, 162, 133, 13, 78, 25, -24, 4, 93, -149, 21, 23, 28, -20, 160, -27, -152, 57, 55, 113, 36, 2, 24, -9, 28, -63, -25, 37, 2, 48, 38, -85, 4, 113, 20, 26, -13, -37, 0, 60, 115, 65, 64, -75, 36, 53, 46, -42, -16, 35, 55, 1, 35, -80, 136, 143, -15, -4, -33, -55, -121, -48, 63, -69, -108, 80, 126, -64, -5, -38, -70, -37, -99, -60, -107, -33, -47, 91, -50, 3, -87, -118, -38, -26, -103, -38, -34, 44, 124, 46, 64, 113, 93, 50, -176, 24, 82, -67, 50, -49, -115, -3, -36, -3, 85, 2, 28, 85, -53, 21, -47, -95, -53, 101, -32, 176, 160, -4, 22, 31, -42, 23, 61, 41, 32, -109, 51, 57, -19, -10, -18, -42, 8, 74, -39, -162, 46, -85, -5, -7, 20, 113, -150, 4, 43, -37, -56, 12, 16, -48, 5, 1, -32, 79, 17, 43, 12, 130, -30, 56, 41, -18, 68, 103, 81, -29, -101, -33, -6, 107, 2, -138, 27, 15, 18, -4, -10, -9, 1, 4, 37, -94, 2, -31, -159, -86, 95, -32, -99, -64, -76, 83, -182, 91, 4, 25, -10, -184, 11, -23, -22, -142, 1, -27, -96, 25, -130, -10, -23, -51, -53, 11, 32, -76, 32, 22, -20, -52, -27, 25, 29, -9, -9, -65, -86, -64, -4, 33, 70, 23, -8, -4, -39, -42, -34, 85, -49, 35, 47, 5, 20, -69, -19, 55, 83, 35, -81, -214, 28, 55, 13, -19, -1, 51, -98, -3, -45, -99, -98, 68, 37, -114, -43, 53, 7, -2, 38, -47, 57, 26, -116, 30, 95, -31, -27, -7, 18, 29, 1, -71, -84, -22, -42, -14, 17, 4, -29, -99, 52, -37, 108, -1, -6, -72, 9, -163, -43, 69, 33, -123, -23, -91, -15, 8, 51, 27, 58, 5, -64, -106, 4, -86, -82, -8, 28, -48, -30, -11, -14, 113, 80, 79, -6, -171, -18, -24, 73, 26, -62, -9, 24, -27, 8, 5, -81, -88, 80, 11, -8, 79, 74, -35, -20, -93, 12, 37, -33, -32, -6, 39, -24, -49, -20, -57, 32, 11, 115, -31, 29, 88, -43, -18, 79, 27, -11, 58, 107, -109, -36, -21, 116, 32, -5, -49, -1, -49, 21, -79, 88, 30, -70, -2, -6, -187, -31, 126, 31, -27, -40, -2, 7, -37, 16, -15, 23, -10, 0, -23, 80, -1, 117, -21, 16, -74, -82, 53, -2, -17, -56, -57, -32, 67, 63, -2, -72, 1, -31, -71, -59, -18, -85, 48, -10, 1, 22, -64, 167, -35, 46, -47, 31, 76, 53, 53, 34, -52, 152, 63, -54, 82, 194, 33, -36, 74, 21, -28, -40, 9, 152, 255, 222, 40, 8, 32, -32, 19, 182, 47, -238, -87, -46, 74, 140, -39, 60, 36, 100, 143, -22, 0, -26, 2, 17, -31, 18, -58, 27, -78, -14, 0, 26, 14, 49, 149, 88, 35, -30, 107, 13, -26, 5, 66, 32, -16, 137, 10, -49, 42, -27, 61, 225, 13, 9, 169, 80, 92, 186, 33, 77, -49, 115, 58, 72, 94, 79, -38, -69, 71, 18, -96, 15, -50, -9, -46, 14, -59, -28, 25, 79, 38, 31, -28, -12, -12, 14}
, {48, 32, 23, 73, -49, 78, 34, -57, 55, 14, 20, 36, 11, -8, -28, 45, 42, 77, -29, -10, 93, 123, 9, -25, 50, 87, 66, 60, 67, 6, 80, 39, 173, 82, 36, -19, -38, 6, -22, 74, 27, 108, 51, -74, -11, 86, 50, 46, 27, -97, 191, 83, 63, 53, 122, 10, 44, -108, 136, -25, -35, 50, 0, -3, 61, -13, 71, 53, 5, -19, 62, 26, 30, -42, 104, 167, 33, -8, 51, 241, 51, 49, 141, 177, -4, 39, 121, 17, -39, -25, -45, -64, -80, -7, 5, 9, -57, -82, -31, 24, 29, 100, 11, -23, 69, -12, -1, 23, 41, -2, 9, 16, -10, -13, 31, -14, 26, 62, 32, -35, -10, 9, 61, 131, 57, -6, 36, 57, -32, 11, 128, 56, 87, 32, -9, -116, 25, 70, -18, 10, 84, 25, 15, 96, -133, -14, 41, -16, 48, -49, -29, -211, 7, 133, 14, -158, 5, 6, -83, -61, -26, 4, 55, 38, 46, -56, -22, 10, 56, 7, 17, -60, -24, 110, 49, -43, 13, 94, -44, 94, 16, -44, 77, -19, -69, -28, 37, 66, 58, -64, -22, 18, 111, 14, 38, 77, -23, -15, 101, -3, -86, -1, -8, 78, -59, -6, 3, -24, -43, -12, 6, 43, -84, -52, -8, -76, -56, 28, 114, 22, -21, -36, -10, 64, 79, -9, -3, -92, -64, -63, 9, 27, 38, 51, 53, 150, 231, 92, 50, -10, -30, -18, -30, 20, -109, -116, 32, 89, 15, -44, -54, 5, 38, 34, 33, 81, 81, -1, 27, 119, 54, -51, -33, -66, -79, -55, 14, 7, 7, 31, -28, -57, -50, 9, -41, -53, 10, -54, 90, 23, -27, 120, 115, -16, 38, 67, 3, -192, 24, 56, 38, -95, 86, -11, 33, -27, 27, -44, 81, 138, 61, 13, -2, -61, 123, 90, 25, -92, -22, 38, 109, 99, -83, 67, 16, 26, 129, 126, 41, -62, -63, 46, -78, -35, -48, -83, -39, -26, -115, -88, -1, -26, -44, 39, -3, -33, 80, 121, -106, -3, -73, -79, 38, -144, -13, -155, -73, -90, 28, 83, -22, -54, 31, 44, -44, -12, -5, -139, 99, -289, -81, 39, 14, -31, 46, 65, -13, -95, -38, 12, 83, 22, 39, -48, 26, -21, 59, -24, 11, -64, 44, 14, -29, -100, -54, 26, 5, -41, -67, -32, 1, -63, 63, 7, 10, 45, 3, 46, -63, -77, -11, -47, 62, -46, -33, -141, -19, 1, 6, -179, 3, -17, 4, -14, -25, -133, -133, -81, 71, -167, -76, -40, -40, -58, -16, -73, -146, -21, -121, 6, -50, 31, -62, -41, -174, 25, -164, -102, 18, -210, -149, -192, 102, 2, -12, -111, -121, -3, -117, -21, 104, 37, -161, -170, 5, -73, -51, 15, -126, -136, 30, -90, -40, 65, -5, -54, -95, 83, 46, -91, 97, -9, -55, -98, -24, -79, 88, 20, 54, -129, -31, -37, -27, -32, -18, -88, 99, 27, -9, 66, -89, 64, -10, -2, -71, -115, -39, -40, 0, -30, -4, -57, -33, 38, 3, -41, 26, 182, -45, -26, 24, -99, -39, 33, -29, -75, 5, 61, -65, 62, 31, 60, 23, 48, 21, -30, 67, -168, -15, -39, -12, -37, -18, 20, -35, -44, 3, 38, -21, -2, -50, -78, -28, -16, -152, -16, -101, -159, -173, -163, -115, 3, -29, 53, 73, 49, 21, -53, 2, -148, -81, -88, 71, -28, -13, 34, 68, 35, -100, 38, -93, -19, 3, 125, -133, 16, 17, -12, 40, 45, -7, 10, 76, 55, -148, 11, 22, 43, 8, 103, -21, 32, 117, -8, 23, 4, -30, 61, 60, 31, -100, 1, -8, 92, -92, -49, 91, 33, 137, 80, 25, 48, 84, 84, 59, 78, -168, 39, -6, 87, 12, -51, 133, 45, 66, 49, -3, 45, 91, 81, -86, 58, 115, 92, 17, 9, -49, 15, 120, 70, 90, -3, 21, -44, -7, 36, 18, 123, -35, -1, -134, -39, 17, -19, 13, -34, 41, 8, -24, -3, 59, 64, 36, -71, 39, 170, 28, 80, 15, -1, 134, 36, 41, 33, 41, 31, -23, 109, -73, 42, 8, -87, 71, 20, -141, -47, -3, -14, -80, -21, -55, 1, -34, 22, -154, 87, 63, -77, -39, -48, 62, 25, 31, -20, -4, -27, -52, -32, 55, -8, -43, -24, 7, -138, 54, -103, -22, -112, 57, -7, -177, -68, -7, -50, -42, 6, -95, -132, 33, -28, 105, -23, 21, -15, -52, 42, 4, 16, 2, -12, 66, 65, -53, 21, -20, -47, -34, 0, 3, -66, 102, 2, 65, -9, 22, -37, 75, 99, 4, -25, 56, 31, 5, 8, 20, -58, 75, 18, -36, -19, 41, -15, -21, 75, -16, 42, 40, -3, 47, 22, 15, -19, -8, 32}
, {37, -54, 13, 7, 78, -59, 19, 7, -31, 18, 29, 28, 23, 26, 25, -22, -26, -39, 140, 51, 57, -87, -8, 45, 50, -53, 10, -103, 5, -63, 8, -43, 21, -1, -85, -63, -28, 91, -70, 31, 77, 41, 0, 74, -96, -156, 31, -68, -97, -4, -52, 19, 27, 49, -64, 3, 19, -18, -124, 53, -23, -55, 5, -134, -160, 53, -34, -36, 9, 59, -63, -19, 48, 67, -62, 113, 7, -24, -8, -116, 6, -12, -132, -109, -19, -76, -24, -78, -36, 3, -69, -19, -23, -35, -32, -3, 40, 24, -56, -22, -21, -67, 13, 5, -28, 36, 89, 13, 61, 75, 15, 19, 42, 1, -78, 14, -2, 15, 2, 37, 74, 19, -9, 8, -180, 83, 57, -63, 131, 82, 60, 4, 14, 97, -28, 15, 37, -56, -35, 68, -55, -51, 29, 0, 95, 28, 55, 101, 13, 48, -18, 107, 64, 0, 30, 45, 1, -55, 74, 40, 82, -26, -38, 33, 19, 29, -65, -4, -4, 29, 5, -109, -17, -22, 44, 8, -44, 15, 90, 45, -45, 6, -168, 36, -55, 20, 64, 16, -24, 24, 3, 40, 27, -30, -47, 23, 40, -35, -32, -22, 104, -14, -9, 28, 37, 27, -12, -33, 84, -15, 34, -68, 71, 25, -8, 89, 83, 39, 41, 11, 24, 33, 48, -21, -66, 71, -112, 10, 83, 90, -21, 48, 14, -29, 5, -48, -41, -12, 75, 65, -4, 31, -43, -50, 53, 78, -14, -15, -18, -5, 66, -38, -65, -101, 42, 102, -14, 19, -25, 81, 8, 70, 62, 83, -26, -56, -43, -19, 1, 19, -55, 3, 25, -4, -123, -2, 10, 38, -7, 34, -16, 9, -12, 38, -42, -3, 74, 136, -18, 54, 111, -32, 22, 35, 1, -18, 28, 100, -11, -48, 38, -29, 67, -52, -54, 7, 107, -62, -47, 55, -87, -14, 22, 131, -53, 41, 23, 13, 22, 48, -7, 182, 53, 103, 95, 155, 82, 14, -17, 63, 143, 38, -17, 7, 77, 20, 67, -167, 70, 6, -14, -28, -74, 99, -14, 82, -21, -24, -9, 68, -78, 32, -11, -28, -30, -21, -14, 60, -124, 55, 60, 25, 3, 30, -41, -64, -23, 162, 75, -21, -15, -45, 18, 49, -35, 82, 59, 42, 3, 34, -165, -177, 44, 78, 6, 68, -15, 23, 51, 65, -50, 22, -2, 49, 13, 3, -43, -19, 40, 123, -22, 51, -23, 20, 74, 118, 11, -16, 32, 26, -35, 4, 73, -12, 80, 127, -7, -69, -29, -23, -39, 12, 13, 28, 5, -40, -19, -54, 34, 50, -44, 75, -107, -139, 14, -33, -48, -8, -51, -104, 83, -117, 80, 99, -5, -102, -130, 79, -68, 6, 38, 18, -106, -10, -43, 150, -54, -80, -65, -74, -23, -91, -44, -54, 22, 8, 209, -109, -7, -40, -41, -30, 106, -66, 45, -26, 19, 21, -8, 71, -74, -15, -70, 36, -2, 34, -60, -45, -21, -40, 37, -85, -12, 29, 45, 42, -86, 28, 4, 86, -41, -32, 77, -14, -43, -4, 61, -152, -18, 10, 3, -59, 74, 5, -13, 14, 30, -101, 145, -94, -140, -104, 67, 67, 64, 55, -60, -23, -54, -35, 15, -79, 55, -16, 94, 8, -101, -43, 2, -49, 83, 11, -27, -109, -103, -3, -16, 19, -136, -93, 8, 45, -87, -5, -75, -65, -78, 65, -81, -20, 98, 36, -146, 61, 146, 30, 72, -95, 80, 59, 150, 8, 2, 5, 171, -32, -3, 32, -35, 2, -10, 4, -49, 69, 82, 51, 22, -29, 27, 9, 34, 31, -99, 10, -4, 59, 69, 18, 40, 35, 163, 33, 66, -49, 145, 52, -28, -5, -23, -93, 83, -51, -50, -22, 161, 65, 123, -24, -86, 68, 64, 72, -117, -49, 62, 59, -4, -51, -21, -81, 59, 46, -135, -18, -3, 80, 120, 23, -82, -75, 84, 35, -31, -1, 0, -2, 60, -4, -62, 63, 7, 97, 105, 113, 12, -14, 128, 0, 44, 77, 69, 24, 78, 37, -61, -20, -12, -21, -4, -19, 0, -10, 6, 44, 8, -25, 69, -83, 13, -16, -8, 39, 63, 109, 152, 111, -22, 51, 74, 118, 34, 57, 177, 118, 106, -95, -6, 192, 115, 15, 17, -55, 75, -18, 36, 205, 59, -102, -52, -17, 158, 118, 57, 220, -17, 100, 141, 102, -52, -11, 239, 22, -1, -28, -2, 48, 121, 69, -72, 99, -105, 87, 194, 96, 85, 16, 188, 8, 124, 140, -108, -19, 40, 80, -28, -139, 190, 242, 55, 196, -127, 93, 83, 84, 49, 63, 77, -10, 70, 68, -44, -18, -54, 163, 102, 55, -1, 9, 32, 15, -68, 7, 24, -62, -7, -62, -28, 4, 50, 28, -2, -10, 36, -7}
, {16, 18, -17, 6, -10, -15, -10, -23, 9, -9, 6, 2, -1, -26, -16, 9, 19, -3, -25, -14, 1, -15, -23, -27, -18, 14, 8, -1, 7, 5, 3, 3, -4, 6, -21, -8, -13, -11, -10, -9, -25, -14, 16, -4, -11, 1, 14, 3, 16, 1, -15, -18, 13, 18, 12, -11, -10, 15, -11, -7, -20, -14, 12, -8, -20, -7, 3, -7, 11, 12, 4, -14, 12, -23, -29, -3, 10, -2, -7, -19, 7, 1, -9, 2, -28, -11, 1, 2, 5, 19, -1, 21, -4, -30, -13, -11, -4, -4, -20, 11, -4, -9, -26, 5, -11, -17, -2, -10, 13, -1, -21, 8, -1, -2, 11, 5, -17, 8, -15, 7, -22, -17, 17, -28, -19, -26, -4, 9, -6, -13, -7, 16, 10, 5, 3, -4, 11, 12, -7, -7, -14, -27, -10, 1, -25, -20, -22, -19, 13, 18, -24, -17, -2, 5, -10, -12, 16, -2, -6, -8, 13, -21, 16, -27, -9, 6, 7, 4, -7, -7, 11, -14, -21, 13, -14, -15, 12, 10, 10, -20, -14, 2, -9, -27, -14, 14, -14, 8, 12, -15, 8, -3, -6, 0, -16, 5, 7, 3, 11, 4, -11, -7, -6, -26, -23, -3, -22, -22, 8, -5, -7, 5, -14, 7, 3, 7, 12, -4, 11, -12, -14, -11, 8, 7, 13, -20, -7, 8, -16, 9, 2, -25, -12, 5, -15, -7, -28, -29, 15, -8, -18, -22, -19, 15, -7, -1, -18, 16, -9, -24, 19, -20, -4, 10, -14, 3, -4, -1, 0, 3, 9, -18, 3, -5, -1, -1, -10, -23, 15, -12, -23, -21, -8, 7, -16, -15, 2, -10, -19, -15, -5, -9, -8, -6, -11, -22, -6, -16, 0, 12, 9, 13, -21, -19, -18, -18, -2, -12, -30, 8, 0, -6, 11, 7, 4, 5, -13, -4, -3, -13, 19, -12, -7, -5, 17, 4, -1, -2, -5, -20, 8, 17, 7, -15, -24, -20, -3, -21, -4, 5, -9, -3, -12, -10, -22, -10, 20, -9, 11, -5, 6, -23, -25, 8, -20, -23, -10, -2, 3, -13, -18, -27, -17, 10, -11, 6, -23, -22, 13, 11, -6, -11, 6, 12, 8, -5, 7, -18, 8, -28, 13, -16, -16, -16, -26, 7, -8, 3, 2, -26, -30, -6, -12, 1, 11, -27, -18, 6, 3, 0, -7, -2, -1, -17, -21, 14, 11, -7, -5, -9, 7, -20, -5, -3, 11, 11, -7, 7, -22, 18, 12, 4, -5, -6, -5, 11, -19, -25, -5, -18, -23, -20, 6, 5, 8, 17, -14, 5, -17, -5, 9, 11, -3, 10, 10, -2, 3, 10, -27, -8, 13, -20, -8, 15, 12, 0, 6, -19, -7, -14, 10, -21, 5, 12, 12, -12, 11, 9, -17, -13, 6, -22, 0, -25, 11, -12, -7, -7, 1, -2, -16, -11, -30, -21, -10, -23, -25, -20, 4, 14, -20, -2, 12, -18, 2, -16, -17, 3, -14, -26, -27, 8, 2, -17, -8, -7, -24, -26, -29, -4, -19, 4, 8, -20, -22, 0, -19, 2, -11, -3, -7, 9, -9, -7, -8, 6, -15, -1, -1, -27, -22, -19, -18, -4, 10, -17, -26, -5, -12, -5, -6, -16, -14, -23, -12, 11, -9, 8, -22, -3, 16, -17, -9, 0, -21, -9, 3, -8, 18, -27, 13, -14, -7, -19, -8, -23, -5, 5, -6, -2, -9, 6, -29, -24, -2, 5, -27, -4, -3, -4, 1, 4, -10, 20, -17, -10, 2, -23, -22, -25, 1, -4, -21, 4, -7, -12, 13, -21, 4, -7, -18, -11, -2, 10, -12, -24, -2, 7, 3, -15, 6, -22, 6, 2, -24, 2, -14, 6, -7, -12, -27, 0, -1, -23, -27, 6, -22, 8, -13, -4, 15, 18, -16, 8, -9, 14, 12, 3, 17, 7, 12, 12, 6, 14, -8, -4, -11, -13, -10, -11, 6, 12, -10, 13, 3, 12, 11, -23, 9, 13, -19, -25, 0, 8, -4, -2, 7, 11, -20, 3, -2, 2, 10, 13, -20, 15, 12, -11, -7, -14, -6, 0, -15, 14, -28, -8, 7, -13, -19, -16, -1, 3, -21, -24, 5, 7, -26, -17, -13, 14, -3, -13, -23, 0, -19, 3, 4, 13, -17, -20, 0, 4, 10, 10, -8, 4, -24, -13, 0, -21, -12, -10, -23, 14, -24, 12, -12, 7, 2, 7, 14, 1, 5, -11, -23, -10, -26, 9, 14, -3, -14, 4, 11, -8, 7, 3, -13, 11, -6, 5, -16, 17, -16, -7, 2, 15, 3, -12, -21, -8, -11, 0, -17, -15, -11, 1, 7, 8, -1, 1, 1, -6, -17, -11, 0, -12, -6, 5, 11, -9, -17, -19, 8, -7, -11, 0, -8, 6, 17, 6, 8, 12, 13, 5}
, {-73, 5, -25, -51, -88, -118, 5, -65, -62, 6, -28, -3, -12, 16, -82, -18, -44, 105, 78, 4, -51, 14, -41, -62, -76, 12, -179, -23, -143, -67, -89, -92, -24, -24, -22, -10, 67, 68, 13, 15, 61, 8, 58, -30, 48, -7, 22, -31, -24, -1, -4, 14, 5, 23, 37, -15, -3, -58, 35, -100, -17, -106, 27, 84, -46, -48, -10, -45, -8, 58, -70, 15, -13, -13, 23, 107, 16, 62, -30, -43, -30, -26, -76, -24, -23, -31, 83, -6, 45, -30, -90, -62, 51, -46, -17, -70, 49, 12, 6, 4, 39, -75, 33, 52, 51, 23, 55, 22, -13, 95, 6, -2, -90, -67, 153, -8, 3, -59, -24, -75, -31, -46, -17, 102, 82, 22, 15, -21, 0, -32, -2, -48, -55, -63, 37, -129, 20, 41, -98, -161, -28, 11, -35, 28, 23, 133, -73, 24, 13, 14, -18, -51, 15, 26, -27, 66, 36, 10, 75, 96, -5, -30, -13, 47, -44, 89, -61, 19, -13, 25, -22, 10, -89, -46, 9, 71, 80, -6, -30, 56, 15, 96, -65, -23, -75, -86, -128, 66, 52, -29, -16, 162, -35, 27, 51, -11, -149, -48, 112, 11, 58, -25, -125, -109, -43, 44, -42, 7, -55, -71, 27, -5, 48, -41, 9, 19, 193, 6, -44, 21, 10, 27, 26, 62, 116, 68, 10, -68, 71, 19, -26, -37, -7, 6, -34, -27, -14, 14, 31, 26, 92, -32, -100, -32, -39, 68, -51, 46, -85, -44, 77, 76, -46, -90, -39, 89, -24, 37, -66, 69, 18, 126, -68, 31, -28, -59, 65, 58, 1, -121, 65, 48, -49, 63, -10, 85, -5, 89, -41, 60, 29, 27, 16, 91, -23, -6, 60, 99, 65, -85, -40, 77, -31, -36, -90, 2, -61, -25, 58, -6, -49, 25, -35, -37, -60, 13, 14, -19, 49, 162, 30, -18, 90, 122, -30, -57, 78, 30, 39, 41, -15, 36, 168, 39, 52, 129, 11, 97, 61, 11, -11, 73, 19, 34, 33, 72, 79, -62, 140, 7, 47, -66, -17, 36, -2, -35, 4, 64, 2, 126, -61, -20, -102, -46, 136, -44, 4, 19, -61, -132, 66, -47, 21, -50, -41, -126, 41, 121, -30, -35, 38, 56, 34, 7, -14, -55, 118, 72, -97, -97, -3, -21, 63, -1, -38, 43, 150, 58, 6, -11, 39, 6, 16, 61, -11, -40, 22, 83, -20, -26, -28, -70, -18, -75, -29, -29, -25, -11, -22, -60, -31, -35, 49, 30, -207, 30, -120, -22, 39, 65, -32, 54, 59, -14, 4, -4, -70, -84, -40, -62, -18, 8, 35, 103, 145, 85, 74, 111, 123, 59, -31, 71, 88, -75, 12, -26, 99, 85, -43, -10, -10, 54, 23, -7, 41, -187, 60, 32, -5, -13, 86, -86, 66, -5, 52, 39, 131, 4, 68, 18, 92, -61, 109, 22, -6, -32, 5, 84, 49, -12, 23, 48, 104, -48, -37, 12, -35, 34, 36, 79, -10, -55, 95, 122, 6, 23, 39, -39, -7, -41, -10, 5, 37, -8, -2, 38, 52, 72, 33, -9, 10, 21, -53, -38, -108, 43, 16, 17, -13, 76, 102, -49, 3, 9, -69, -43, 20, -43, 9, -54, -88, -24, 11, 28, -76, 43, 160, 49, 75, 106, -65, -38, 100, -19, 100, 132, -44, 15, 102, 48, 22, 16, 47, 84, 37, 88, -8, 138, 148, 22, -48, -46, 124, 37, -69, 2, 30, 12, -45, 64, -60, -48, -8, 28, -171, 57, 20, 40, 62, 41, 29, 12, 60, -86, -178, 1, 9, 35, 111, 88, -52, 21, -46, 64, 11, 39, -23, -19, -27, -98, 13, -61, 12, -30, -122, -1, -9, 57, 52, 1, -23, 51, 72, -2, 125, 52, -51, -54, 38, -11, 40, -52, -19, 66, 177, 70, 13, 60, 10, 60, 42, 83, 80, -12, 113, 147, 38, -42, 79, 60, 62, 60, 1, 12, 26, 26, -9, 127, -80, 107, 78, 173, 67, 18, 31, 31, 30, 29, 70, 66, 64, 34, 3, 105, -47, 56, 67, 80, -28, 59, -23, 2, 102, -30, -42, 82, -41, -64, 31, -14, -35, -40, 5, 54, -156, -72, -16, -29, -209, -161, 43, -42, -84, -108, -103, 68, -46, -10, -72, 62, 106, 67, -83, 18, -217, 3, -18, 146, 48, 21, 19, -167, -83, -37, -18, -120, -55, 17, 38, -32, -117, 15, -2, 200, -75, -26, -72, 40, 46, -54, 77, -64, -46, 193, -161, -38, -24, 23, 4, 1, 35, 11, -88, 27, -93, -58, -59, 93, 145, 69, 20, 2, 157, 86, 92, 87, 100, 67, 48, 76, -32, 40, 56, 35, 17, -82, -31, 34, 10, 14, 8, 29, 82, -26, 56, 59, -44, 49, 52, 38, -12, 10, -7, -39}
, {80, -4, -1, 29, 80, 86, 51, 49, 55, 28, 55, -3, 3, 28, 84, 6, 63, 27, 82, 85, -60, 4, 40, 8, -31, 22, -13, -94, 72, 49, -64, 77, 3, -25, 52, 53, -44, 135, 4, -99, -29, -95, -74, 79, -133, -78, -21, 82, -60, 27, 20, 22, -66, 181, 32, 59, 70, 19, 24, 25, -4, 62, 27, 58, 40, 10, 81, 77, 42, -134, -25, 63, 43, 25, -85, 76, -2, 29, -5, 118, -56, -33, -21, -65, -84, 146, -69, 24, -18, -46, -86, -113, -16, 49, -65, 35, 24, -18, -20, 0, -66, 95, 1, -9, -77, -9, 119, -7, 15, 25, -55, 12, -47, 31, -22, 14, -75, 0, 71, -75, 35, 34, 77, -98, 2, -35, 2, 69, -6, 19, 39, -8, -42, 8, -73, -18, -103, -27, -116, 56, -79, -138, -79, 59, 56, -49, 10, 86, 52, 174, -42, -128, 33, 17, 1, -1, -80, -29, -2, 86, 19, 54, -63, 171, 106, 205, -52, -5, 91, 25, 37, -88, -120, 18, 84, 105, 89, 55, 11, 34, 65, 110, -80, 50, 67, 20, 2, -166, -60, -48, 113, 1, 56, -8, 117, 7, 22, -48, -20, 87, 7, -54, -19, -20, 26, 41, -27, -99, -36, -133, 18, -128, -125, -43, 25, 51, -13, -29, 32, -6, 23, -23, -24, -46, 40, -27, -28, 12, 12, 54, 25, 20, -11, 29, 13, 98, 199, 111, -1, 24, -46, -3, -116, -81, -125, -54, -34, 99, -34, -44, -41, -71, 6, -27, -6, 63, -62, 12, 92, 121, -15, 30, 32, -73, -34, 11, -20, 22, 18, 43, -26, -21, -70, -4, -20, 45, 22, 41, 54, -47, 68, 67, 51, -1, 74, 67, -45, 72, 11, 105, 12, 80, 17, -81, -84, -21, -44, 6, -10, -36, 2, -18, 59, 51, 132, -4, 16, -8, -13, -61, 139, 9, -160, -16, 12, 75, 45, 54, -80, 8, -19, -18, -4, -25, -34, 35, 64, -7, -46, 36, -17, -17, 40, 45, -5, -18, -85, -40, -22, -40, -106, -38, -78, 54, -13, 6, -1, 19, -19, 118, 8, 25, -5, -40, -106, -92, -122, -93, -25, -30, -33, -96, 22, 12, -22, -31, 21, 4, -125, 52, 128, -81, 37, -43, 31, -81, 54, 112, -57, 39, -11, -51, -26, -23, -64, 19, 31, -49, -17, -71, 3, 6, -76, 36, 48, 76, 55, 73, -65, -64, -23, -75, 51, -125, -79, 24, -46, 3, 15, -39, -18, -35, -7, 64, -122, -158, 8, -155, -8, -69, -100, -20, 36, -107, -79, -111, 53, -8, 54, -74, -173, 36, -127, -50, -83, -151, -52, -86, 4, -86, 39, -42, 56, 10, 26, 3, -76, 13, 32, -51, 111, 42, -54, -50, 12, 140, -34, -114, 8, -15, -76, -71, 20, -45, -42, -47, -7, 31, 58, 55, -140, 146, -36, -16, 18, 29, -43, -86, 67, -56, -59, -24, 59, 55, 26, 101, -33, -28, 110, 25, -10, 56, -47, -52, 85, 10, -11, 65, 23, 41, -46, -17, 47, 15, 30, 38, -26, 20, 22, 64, -19, 19, 30, -55, -35, -137, -14, -91, 88, 17, -6, -146, -52, -23, -26, -12, -5, 5, -88, -116, -139, -137, 1, 0, 50, -62, 47, 75, -18, 134, 29, 2, -6, -167, -27, -66, 111, -60, -68, 34, 20, 67, -50, 23, -7, 8, -45, -37, 0, 5, 94, 48, -61, 28, 45, -21, 74, -10, 69, 61, 47, 26, 24, 67, 79, 15, 63, -33, 82, 76, -12, -44, -87, -9, 36, -30, 44, -87, 1, 85, 27, 27, 15, -46, 67, -3, 19, -30, 56, 47, -7, 8, -2, -47, 63, -24, -83, 11, -61, -22, -37, 68, -75, 34, 14, -13, -5, 48, -9, 24, 39, 20, -24, -17, 71, -18, 35, 12, -57, -79, -106, -17, -177, -48, -85, -105, -31, -70, -67, -83, -61, -184, -127, -96, -70, -134, 50, -82, -49, -125, -95, -37, -21, -101, -98, -27, 60, 31, -50, -54, 74, 60, 16, -33, -20, 65, 0, -101, -4, 32, 56, 30, -16, 52, -12, -14, 107, 14, 3, -29, 26, 76, 86, 25, 205, 106, 35, 73, -90, 178, 22, 82, 135, 193, 33, -78, 69, 116, 168, 26, 16, 33, 109, -70, 53, 167, -21, -75, 94, 82, 128, -54, 80, 85, -30, -2, 42, 98, 7, -1, 106, -8, 20, -26, 20, 35, 9, 27, -32, -19, 18, -3, -4, -20, 22, -32, 38, 75, 31, 27, -10, -45, -85, 15, 27, -214, 30, 54, 90, 146, -52, -10, -55, -31, -56, -47, -59, -80, 18, 28, 16, -27, -156, -104, -32, 70, -109, -83, -48, 3, -51, 10, -41, -2, 20, -30, -22, 6, 99, -26, 19, 8, 58, 13}
, {131, 46, 83, 95, 16, 0, 63, 34, 112, 3, -69, 46, -15, -10, 28, -6, 104, -103, -78, 39, 17, -89, -37, 95, 50, -9, 103, 147, 140, 29, 86, 55, -54, -146, 61, 98, 34, -67, 56, 4, -44, 78, -20, -84, 171, 88, -66, 72, -38, -32, 13, -38, 42, -43, 39, -10, -13, 81, 44, -146, 135, 62, -26, -19, 29, -121, 81, 98, 45, -60, 190, -34, 3, 39, 156, 76, 175, 30, -1, -108, -12, -22, 80, 85, 37, -8, -18, 42, 88, 42, 178, 29, 139, -66, 31, 25, 49, 68, -31, 6, 26, -47, -33, -8, 22, 7, -64, -35, -40, -3, 11, 2, 62, 9, -55, 18, -82, -3, 22, 111, 48, 29, 13, -45, 126, -22, -53, 98, -95, -35, -104, 11, -50, -55, -37, 192, -62, -67, 48, 81, -28, 43, 9, 23, -85, -38, -70, -60, -42, -44, 45, 122, -56, -63, 40, 164, -49, -59, -11, -23, -90, -1, 57, -81, -93, -87, 199, -38, -25, 48, -58, 114, 27, 95, -101, -4, -41, -23, 56, -116, -11, -148, 155, -66, 69, 8, -14, 29, 152, 118, -30, 4, -46, 26, 83, 0, 53, 133, -3, -28, 36, 108, 29, 10, 39, 45, 25, 166, 29, 79, -45, -7, 154, -3, -72, -55, -43, 2, -125, -34, -106, 49, -36, 2, -142, -7, 17, 10, 23, -14, -37, 19, -117, -10, 17, -35, 33, 91, -113, -34, -10, -71, 35, 73, -37, -30, 41, -16, -20, -4, -50, -7, 5, -45, -61, 55, -4, 28, 49, 13, 51, -73, 51, -65, -14, 53, 22, -80, 22, 31, 22, 22, 13, 78, -19, -34, -7, -76, 64, 5, 45, -97, -48, 4, 11, -46, 40, -59, -54, -14, -42, -60, -36, 45, -45, 13, 15, 49, -12, -35, -55, 34, 43, -14, -40, 88, 52, 113, 76, 119, -106, -59, 51, 136, -25, -18, -37, -54, 128, 155, 80, -129, -41, -41, -120, -52, -61, -45, -57, -77, 140, 72, 4, -25, -99, -53, 96, -86, 30, 46, 30, 24, -86, 13, -23, 72, 51, 92, -74, -92, 40, -86, 64, -53, 22, -10, 94, 48, -44, 163, -2, 39, -52, -32, -15, -151, -48, 29, -23, -23, 9, -5, -44, 74, 77, 6, -87, -8, 47, 48, 23, 48, -91, 46, -12, 0, 45, 15, -36, 47, 9, 49, 25, -6, 26, 131, 30, -18, -18, -73, 34, 59, -47, -24, 17, -70, 58, 33, -81, 62, -14, 47, 68, -20, 56, 60, 21, 25, -40, 44, 51, -52, 59, 68, -13, -8, 3, 38, -112, 29, 44, -53, -37, -25, -11, -17, -75, -43, -44, -63, -51, 21, -108, -67, -32, -40, -29, -66, 80, 121, 72, 86, 12, 139, -8, 45, 25, 31, 52, 74, 11, 106, 14, 18, 4, 123, -19, 4, 67, 48, -75, 117, 113, 93, 11, 21, 29, -13, 92, 23, 83, -9, 7, 25, 44, 7, 85, 43, 67, -49, -5, -131, 49, 34, -8, 19, 25, 8, -4, -20, 72, 17, 47, 17, 41, 35, -26, 86, 4, -8, 11, -19, -43, 1, 111, -34, -49, 38, -46, 45, 14, 39, -57, -58, 79, 26, -21, -46, -8, 121, 80, 15, 33, 11, 85, 30, -56, 14, 54, -58, 19, 43, 47, 48, -125, -103, -24, -105, 0, -26, 46, -3, 17, -14, -103, -135, 18, 55, -35, -43, 35, 34, -154, -86, -58, -5, 25, 28, -41, -74, -19, 59, 77, -35, 23, 50, -179, 117, 28, 36, 41, 56, 18, 62, 46, -3, -73, -4, -11, -94, 22, 53, -9, 10, 46, 33, -54, 15, -29, 81, 63, 17, -65, -10, 31, 25, -36, -3, -26, -4, 76, -41, 10, -57, -29, 3, -58, 44, -2, -4, -4, 51, -2, 49, -110, -53, -7, -111, -35, -20, 63, -72, 181, -57, -20, 69, 46, -85, 22, 53, -21, -7, 40, 2, 65, 14, 4, 2, 216, -15, 53, -36, 25, -1, 112, 17, 5, 47, 8, 49, 20, -35, -50, -56, 76, -46, 18, 53, -7, -16, -2, 18, 110, 22, 1, -72, -41, 40, -14, -37, 21, -40, -55, -5, -67, -120, 14, -76, 45, -174, -25, -140, -202, -99, 33, -67, -62, -56, -115, -41, -47, -5, -79, -13, 81, -90, -7, -71, -1, -57, -93, -187, -58, -77, 88, -12, -19, -29, 18, 43, -34, 43, -21, -54, -12, -38, 2, 62, 26, -69, 113, -76, -123, -92, -8, -31, -22, -36, -47, -12, -28, -68, 1, -61, 71, 126, -4, -45, -73, -153, -67, -27, -103, -76, -13, -118, -75, 54, 47, -108, 22, 63, 84, 49, -10, 30, 70, 73, -76, -12, -11, -24, -65, 36, -22, 18, 57, -81, -58, -13, -25, -13, -38, -21}
, {-67, 69, 8, 7, -40, -46, 67, 3, 50, -13, 142, -32, 52, 24, -7, 0, 98, 169, -84, -73, -9, 190, 82, 102, 54, 99, 50, 138, -72, 208, 43, -34, 68, 63, -35, -80, 8, 4, -10, 26, -4, -18, -5, 99, -21, 66, 79, 49, 39, 0, 58, 3, -27, -10, 61, -4, -22, 56, -18, 37, -64, 56, 5, 98, 16, 91, -5, -127, 78, -53, 7, 6, -39, 94, -29, -51, 29, 45, 7, 109, -19, -67, 74, -129, -134, -36, 94, -147, -206, -11, -175, -83, -138, -38, -182, -30, -27, 5, 19, -6, -91, -5, 39, -55, -90, -21, 14, -4, 19, -35, -74, -33, -80, 14, 157, -18, 86, 90, 48, -82, -15, -43, -7, 52, 77, 18, 21, -67, 24, -23, -27, 12, 46, 76, 3, -55, 23, 97, -31, -51, 49, 33, 11, 85, -6, 20, 28, -6, -3, 28, 0, -55, 36, -24, -35, 16, -40, -9, 16, 16, 42, -61, -51, 85, 22, 104, -214, 9, -30, 36, -89, -159, -184, -89, 8, 29, -22, 102, -19, 29, -82, 59, -183, -17, -52, -15, -113, -127, -98, -84, 24, 198, -32, 19, -119, -76, -38, -73, 45, -35, -43, -85, -154, -19, -88, -85, -78, -78, -81, -139, 31, -25, -112, -57, 41, 38, 51, -80, -23, -10, 134, -32, -51, 14, 104, 27, 77, -45, -11, -22, 12, 35, -19, 25, -85, 19, 61, -79, -29, -20, 9, -27, -30, 43, -42, -7, -6, 55, -9, -78, 20, 83, -10, -8, 41, -19, 26, -20, -37, 41, -32, -66, -5, 17, 53, -80, 19, 5, 58, -7, 30, 28, 19, 38, 1, 14, 94, 14, -68, 86, 98, 51, 145, -41, -60, -109, 114, 15, 50, 70, -79, -8, 10, -2, -100, 53, 48, 71, 109, 51, -34, 25, 85, -67, 76, -16, -108, -81, 50, -56, -24, 80, 41, 1, 92, 30, 95, 16, 35, -98, -60, 50, 52, 46, 170, 47, 22, 80, 102, 65, -208, -25, -19, 9, 81, 4, 2, 97, -31, -59, 35, 47, -6, -55, 10, -107, 28, 6, -104, 44, 0, -44, -79, 9, -31, 10, 48, 85, 39, 7, -7, -51, -6, -28, -126, -28, 53, 12, -9, 87, -22, 8, 12, 25, -35, -79, -60, 74, 15, 68, 15, -9, -4, -111, -32, 17, -19, -4, 2, 44, 67, -12, -83, -9, -16, 15, 65, 87, -61, 56, 81, 57, 24, -9, 73, 5, 10, -12, 42, -36, 81, 33, -39, 78, -79, -53, -22, 53, 94, 99, 67, 104, -53, 30, -18, 115, -45, 114, 99, 95, 14, -40, 102, 90, 70, 29, 128, 117, 86, 58, -26, 43, 8, -78, -92, 24, 73, 85, 11, -164, -38, -36, 1, -11, -8, -65, -118, 4, -70, -12, 134, 38, -144, 0, -26, 27, -54, -32, -60, -7, -42, 2, -91, -92, 16, -19, -63, -51, -3, 19, 55, -73, 12, 25, -10, 23, -57, -92, 57, 71, 35, 90, 96, -13, 43, 129, -12, 35, 110, 43, 1, 22, -30, -98, -53, 132, -7, -12, 49, 41, -112, 80, -75, -8, -40, -13, -22, 37, 46, -23, -117, 40, -75, -67, 28, -12, -116, 43, 67, -112, -24, 20, 3, 70, 39, 44, 67, 58, -34, 83, -72, -96, 32, 77, 52, 89, 29, 78, 101, 79, -8, -13, 61, 116, 112, -27, -125, -17, 112, 73, 36, -189, 26, -104, -125, -213, -135, 26, -37, -79, -128, 34, -10, 27, -122, 4, -43, -27, 30, -53, 51, -51, 41, -27, -20, -57, -20, -8, 33, -98, -99, -86, 48, -13, -84, 17, -9, 8, 2, 21, -7, 46, -76, 4, 23, 46, -15, -60, -13, -73, -9, 54, -62, -3, -55, 3, -21, -23, -61, -14, -7, -45, 8, -22, -5, -32, -84, 42, -35, -100, 65, -53, 11, -2, -10, -128, -41, -96, 14, 5, 21, -79, -61, 63, -22, -41, -66, 0, 48, -2, -49, -61, -46, -79, -58, -39, -19, -5, 33, -21, 22, 7, 51, 34, 11, 69, -63, -67, -20, 28, 33, -18, 118, -15, 31, 118, -33, 0, 85, 10, -14, 18, 8, 17, -20, -10, -31, 4, -84, 42, 59, -28, -155, -35, 31, 139, 118, 10, 81, 77, 5, 50, -198, 10, -51, 78, 56, 72, 53, 75, 30, -6, -46, 15, 36, 95, 36, 47, 4, 18, 5, -25, 10, -72, -49, -26, -50, 138, 20, -103, 4, 24, -16, -41, -27, -46, -25, -38, -48, -26, 42, -71, -42, -52, -6, -31, -27, 68, 153, 140, -20, -25, 79, -17, 71, 96, 10, -30, 36, 153, 32, -74, 20, -71, -55, -114, -119, -39, -71, 17, 26, 24, 1, -17, 7, -9, 13, 67, 17, 5, -2, 4, 0, -10}
